svm_type c_svc
kernel_type rbf
gamma 10
nr_class 2
total_sv 332
rho -0.16529281782047184
label 1 2
nr_sv 167 165
SV
0.83489322354973217 1:-0.542718 2:-0.509985 3:0.320921 4:0.25 5:0.732612 6:0.464504 7:1 8:-0.389595 9:1 10:0.975654 11:0.882698 12:-0.912524 13:-0.513776 14:0.104889 15:-0.268878 16:-0.188914 17:-0.96787 18:-1 19:-0.425093 20:-0.161595 21:-1 22:-0.394461 23:0.406197 24:0.0572224 25:-0.728839 26:1 27:-1 28:0.176623 29:-0.0686682 30:-0.502376 
0.83485531133230084 1:0.967252 2:-0.250028 3:0.333839 4:-0.423168 5:0.933104 6:0.733127 7:-0.127099 8:-0.456581 9:-0.943626 10:-0.0621624 11:0.581712 12:1 13:0.633458 14:0.511119 15:0.428109 16:-0.31985 17:0.677489 18:0.951654 19:-1 20:-0.0241228 21:0.717488 22:-0.0975742 23:-0.600988 24:-1 25:0.946727 26:0.00837596 27:-0.984715 28:0.00543082 29:0.825095 30:-0.319924 
0.83451440859370851 1:0.361019 2:0.363829 3:0.502441 4:-0.284948 5:0.943335 6:0.405424 7:-0.0793377 8:0.477411 9:-0.263571 10:0.134481 11:-0.289256 12:0.012208 13:1 14:0.935363 15:0.579446 16:0.350262 17:-0.210084 18:0.0663149 19:-0.244441 20:0.412418 21:0.0752702 22:0.4437 23:-0.855161 24:0.0959835 25:0.453828 26:-0.416156 27:0.250065 28:0.267893 29:0.152152 30:0.237251 
0.8346191076536551 1:0.738017 2:0.303224 3:0.477162 4:0.0608246 5:0.614953 6:0.155194 7:-0.124883 8:0.796218 9:0.0407814 10:0.365 11:0.2498 12:0.320042 13:0.539564 14:-0.301365 15:0.914766 16:0.213318 17:-0.383463 18:0.310639 19:-0.727966 20:0.0713542 21:0.219962 22:0.43664 23:-0.668808 24:-0.204404 25:0.416626 26:-0.41818 27:0.443176 28:-0.02991 29:-0.264757 30:0.483687 
0.83454275251994459 1:0.492486 2:0.425192 3:-0.183403 4:-0.320812 5:0.19331 6:-0.042191 7:0.0611007 8:0.282059 9:-0.0147361 10:0.651948 11:-0.102985 12:0.302477 13:0.0520388 14:0.358068 15:0.246524 16:0.334831 17:-0.0307121 18:0.472975 19:-0.142737 20:0.0264529 21:0.271387 22:0.359884 23:-0.0279415 24:0.240745 25:0.509739 26:-0.298117 27:0.546203 28:-0.407911 29:0.119613 30:-0.260025 
0.83530773095679456 1:0.500555 2:0.734687 3:0.157584 4:0.464267 5:0.689838 6:0.331001 7:-0.219286 8:0.258707 9:0.281186 10:0.326659 11:-0.173327 12:0.233445 13:-0.163919 14:0.242562 15:0.408814 16:0.201738 17:-0.199189 18:0.325841 19:-0.00706054 20:0.11653 21:0.432456 22:0.213143 23:-0.424596 24:-0.210428 25:0.698163 26:-0.179414 27:-0.0836725 28:-0.140909 29:-0.199186 30:-0.279126 
0.83474811007639715 1:0.327743 2:0.413143 3:0.295589 4:0.161702 5:0.347998 6:-0.0432676 7:0.186334 8:0.00291655 9:-0.793694 10:0.494331 11:0.233138 12:0.0584051 13:0.141261 14:0.270797 15:0.093503 16:0.411835 17:-0.238272 18:0.215203 19:0.042558 20:0.214117 21:0.295961 22:0.258563 23:-0.857632 24:0.601016 25:0.367948 26:-0.604812 27:0.22928 28:-0.378487 29:-0.0770864 30:-0.119132 
0.83603009954570373 1:0.501334 2:0.254558 3:-0.0406206 4:-0.124607 5:0.643089 6:-0.0444788 7:-0.0240205 8:-0.0305767 9:-0.107745 10:0.556292 11:-0.315916 12:-0.179062 13:-0.324443 14:0.19496 15:0.584552 16:0.244554 17:-0.146743 18:0.42249 19:-0.39182 20:0.371985 21:0.210598 22:0.167759 23:-0.417715 24:-0.0949915 25:0.409518 26:-0.431784 27:0.0609628 28:-0.470536 29:0.161966 30:0.444409 
0.83452865259140518 1:0.616836 2:0.513333 3:0.22538 4:0.388743 5:0.733399 6:0.127596 7:-0.0508162 8:-0.0121366 9:0.0116518 10:0.49485 11:0.0987737 12:0.230283 13:0.00558078 14:0.495391 15:0.247251 16:0.266307 17:-0.294418 18:0.549201 19:-0.0313845 20:0.214268 21:0.19374 22:0.440623 23:-0.590686 24:0.235664 25:0.535997 26:-0.53342 27:0.223266 28:-0.205917 29:-0.086624 30:-0.173646 
0.83141168461348158 1:0.480364 2:-0.0900368 3:0.200336 4:-0.0681675 5:0.441928 6:0.171146 7:-0.00137593 8:-0.185248 9:-0.0505483 10:0.203054 11:0.137563 12:-0.15837 13:0.196826 14:0.232365 15:0.529341 16:0.0479551 17:-0.357813 18:0.42808 19:-0.122009 20:0.204304 21:0.426885 22:0.22853 23:-0.482114 24:0.0351803 25:0.405466 26:-0.398505 27:0.371275 28:-0.49307 29:0.0876127 30:-0.432373 
0.83527876350774888 1:0.369603 2:-0.137789 3:0.0332985 4:-0.0967277 5:0.309001 6:0.243994 7:0.0604011 8:0.202578 9:0.0113091 10:0.706692 11:-0.264196 12:-0.0638152 13:0.0232026 14:0.46627 15:0.34279 16:0.208749 17:-0.305704 18:0.465302 19:0.15241 20:0.214666 21:-0.170635 22:0.275308 23:-0.663068 24:-0.276434 25:0.466225 26:-0.0912362 27:0.479107 28:-0.132415 29:0.0311428 30:-0.188438 
0.73718402424000251 1:0.647801 2:0.443936 3:0.245188 4:0.24555 5:0.641515 6:0.23491 7:-0.290508 8:0.435751 9:-0.415696 10:0.335273 11:-0.226899 12:-0.323907 13:0.328852 14:0.5951 15:0.646161 16:0.125993 17:-0.285778 18:0.341315 19:0.0929395 20:0.184888 21:0.142198 22:0.56698 23:-0.437445 24:0.00437939 25:0.512201 26:-0.335488 27:0.178251 28:-0.262172 29:-0.115208 30:0.0756098 
0.84486346803251933 1:0.578357 2:0.433449 3:0.45781 4:-0.0334424 5:0.788687 6:0.0843012 7:0.0344216 8:0.44913 9:-0.601782 10:0.521717 11:-0.391762 12:-0.12215 13:-0.0491073 14:0.371579 15:0.295702 16:0.0130337 17:-0.369963 18:0.436281 19:-0.123616 20:0.166393 21:0.238079 22:0.265152 23:-0.728949 24:-0.239245 25:0.444108 26:-0.367699 27:0.349697 28:-0.460971 29:-0.0135359 30:0.0544188 
0.84279164801819351 1:0.607778 2:0.23452 3:0.458333 4:0.12127 5:0.605332 6:0.0502389 7:-0.305084 8:0.306896 9:-0.0800548 10:0.258518 11:-0.0805119 12:-0.268224 13:-0.0305047 14:0.59391 15:0.64507 16:0.274652 17:-0.293135 18:0.386808 19:-0.0941893 20:0.302563 21:0.221049 22:0.386133 23:-0.424748 24:-0.244447 25:0.439033 26:-0.169318 27:0.331196 28:-0.205463 29:0.069904 30:0.260849 
2.1195207763150687 1:0.675215 2:0.214638 3:0.237151 4:0.111662 5:0.623551 6:0.112321 7:-0.188361 8:0.102079 9:-0.285178 10:0.217892 11:0.00514529 12:-0.188758 13:-0.025281 14:0.536927 15:0.329886 16:0.104539 17:-0.260736 18:0.388277 19:-0.0110696 20:0.200247 21:0.137834 22:-0.00591962 23:-0.636799 24:-0.0927414 25:0.489666 26:-0.327989 27:0.229737 28:-0.186934 29:0.126592 30:0.000459297 
0.55064245218749375 1:0.592381 2:0.0889881 3:0.376098 4:0.227618 5:0.330054 6:0.149565 7:-0.0798041 8:0.180751 9:-0.123321 10:0.424029 11:-0.293922 12:-0.14639 13:0.239145 14:0.449917 15:0.438962 16:0.253468 17:-0.179561 18:0.222832 19:0.0148353 20:0.229016 21:0.330804 22:0.157732 23:-0.605398 24:0.299782 25:0.463826 26:-0.253156 27:0.0253697 28:-0.250025 29:-0.0716778 30:0.223725 
0.89008801891795897 1:0.530688 2:0.314895 3:0.0935669 4:0.057644 5:0.404033 6:0.228248 7:-0.22535 8:0.252799 9:-0.520562 10:0.243218 11:-0.0594242 12:0.149306 13:0.241569 14:0.516696 15:0.435956 16:0.130172 17:-0.358488 18:0.318768 19:-0.212628 20:0.14264 21:0.24946 22:0.196361 23:-0.529378 24:-0.17428 25:0.395152 26:-0.0591939 27:0.498561 28:-0.195672 29:-0.0536639 30:0.0885334 
0.85704398663464554 1:0.575677 2:0.453977 3:0.0312064 4:-0.0556675 5:0.70546 6:0.142365 7:0.123368 8:0.225327 9:-0.17841 10:0.646186 11:-0.0307651 12:-0.0603373 13:-0.0567776 14:0.388239 15:0.422535 16:0.234187 17:-0.106433 18:0.362068 19:0.0195585 20:0.427083 21:0.292274 22:0.294388 23:-0.667288 24:-0.256085 25:0.51109 26:-0.130575 27:0.187837 28:-0.364805 29:-0.0987496 30:0.128223 
0.56467524791136525 1:0.588076 2:0.163287 3:0.297908 4:0.0541191 5:0.746385 6:0.186057 7:-0.445662 8:0.330673 9:-0.0562543 10:0.308363 11:-0.115116 12:0.168979 13:0.0754463 14:0.538677 15:0.547896 16:0.0152809 17:-0.189023 18:0.299315 19:0.187307 20:0.0547697 21:0.309344 22:0.070076 23:-0.422429 24:-0.00563755 25:0.440119 26:-0.258845 27:0.215643 28:-0.397811 29:0.0513667 30:-0.0674691 
0.62269974408122941 1:0.605969 2:0.165552 3:0.301656 4:0.0526649 5:0.808165 6:0.129157 7:-0.227215 8:0.44388 9:-0.24671 10:0.384704 11:-0.306318 12:-0.140541 13:0.207582 14:0.509042 15:0.349041 16:0.173275 17:-0.0469119 18:0.18069 19:-0.0869502 20:0.134389 21:0.0897274 22:0.050181 23:-0.482342 24:0.059279 25:0.492306 26:-0.214054 27:0.434442 28:-0.343617 29:0.0225836 30:-0.0225752 
2.171905743568399 1:0.496699 2:0.188647 3:0.37772 4:0.0367683 5:0.571825 6:0.184617 7:-0.207299 8:0.363018 9:-0.351011 10:0.490903 11:0.0259797 12:-0.0436325 13:0.0160899 14:0.424361 15:0.387079 16:0.183824 17:-0.205763 18:0.382929 19:-0.184986 20:0.136266 21:0.355727 22:-0.0430847 23:-0.446683 24:-0.446649 25:0.549138 26:-0.28883 27:0.166239 28:-0.153992 29:-0.0504362 30:-0.0403548 
0.6238757532351451 1:0.478872 2:0.0877608 3:0.171932 4:0.0430026 5:0.618318 6:0.132793 7:-0.120219 8:0.284015 9:-0.207245 10:0.229705 11:-0.177379 12:-0.0147725 13:-0.157351 14:0.346074 15:0.420536 16:0.129438 17:-0.19745 18:0.259355 19:-0.0833956 20:0.200493 21:0.170316 22:0.110536 23:-0.610416 24:0.0378902 25:0.365385 26:-0.227197 27:-0.162481 28:-0.262313 29:-0.062809 30:-0.0433956 
1.3055401685099786 1:0.642784 2:0.20328 3:0.20803 4:0.0838874 5:0.409818 6:-0.0452863 7:-0.247598 8:0.197479 9:-0.171984 10:0.384928 11:-0.0607971 12:-0.0699104 13:-0.122416 14:0.606254 15:0.401672 16:0.216959 17:-0.350658 18:0.277795 19:-0.0923551 20:0.265036 21:0.282685 22:0.0370203 23:-0.477495 24:-0.223203 25:0.456504 26:-0.23337 27:0.156586 28:-0.31108 29:0.029558 30:0.102724 
0.92978917325385568 1:0.581144 2:0.195983 3:0.15856 4:0.0651702 5:0.563384 6:0.155357 7:-0.158605 8:0.313388 9:-0.24599 10:0.479781 11:-0.140509 12:-0.0239944 13:0.00132621 14:0.612274 15:0.308442 16:0.203521 17:-0.176011 18:0.373928 19:-0.0515923 20:0.160184 21:0.277971 22:0.303023 23:-0.414503 24:0.081926 25:0.420337 26:-0.171859 27:0.0495682 28:-0.428872 29:0.0323641 30:-0.0573012 
8.3402464812051349 1:0.538334 2:0.114738 3:0.112448 4:0.0274607 5:0.577885 6:0.137596 7:-0.19979 8:0.399492 9:-0.1195 10:0.34252 11:-0.0559984 12:-0.0718777 13:-0.042451 14:0.344511 15:0.428314 16:0.122097 17:-0.19225 18:0.405148 19:-0.0292923 20:0.226247 21:0.190636 22:0.206137 23:-0.542882 24:0.108952 25:0.52841 26:-0.211164 27:0.0858164 28:-0.264288 29:0.0918581 30:0.220969 
1.6032019953164984 1:0.397861 2:0.369452 3:0.323431 4:0.0178796 5:0.504199 6:0.113976 7:-0.141908 8:0.335708 9:-0.187903 10:0.350818 11:-0.0394828 12:-0.174196 13:-0.104959 14:0.521479 15:0.511677 16:0.126667 17:-0.139993 18:0.38939 19:0.0220094 20:0.159663 21:0.28852 22:0.226014 23:-0.69137 24:-0.124026 25:0.463801 26:-0.216516 27:0.154561 28:-0.273914 29:0.0724048 30:-0.153437 
2.7544182241219439 1:0.572076 2:0.0549146 3:0.110739 4:0.051466 5:0.543886 6:0.171052 7:-0.212943 8:0.399793 9:-0.334784 10:0.478701 11:-0.0824553 12:-0.0434042 13:0.0195349 14:0.556715 15:0.45514 16:0.220734 17:-0.184583 18:0.369213 19:-0.0802792 20:0.174504 21:0.203992 22:-0.0187183 23:-0.42777 24:-0.0649988 25:0.453437 26:-0.206723 27:0.285022 28:-0.281154 29:-0.0608026 30:-0.155052 
1.0800983050879327 1:0.581566 2:0.144394 3:0.392957 4:-0.020288 5:0.625932 6:0.144191 7:-0.283559 8:0.292502 9:-0.296727 10:0.446301 11:-0.0874274 12:-0.253171 13:-0.000203659 14:0.562945 15:0.372849 16:0.187756 17:-0.111887 18:0.326526 19:-0.119932 20:0.156181 21:0.284621 22:0.139158 23:-0.442368 24:-0.108807 25:0.464571 26:-0.279116 27:0.124447 28:-0.297965 29:0.0679703 30:0.148274 
1.3527075837440772 1:0.500541 2:0.200893 3:0.192503 4:0.132762 5:0.526064 6:0.143962 7:-0.134585 8:0.367598 9:-0.339942 10:0.411799 11:-0.082454 12:-0.087518 13:0.0264051 14:0.411448 15:0.471822 16:0.156464 17:-0.165211 18:0.309241 19:-0.0076124 20:0.256127 21:0.364281 22:0.116329 23:-0.642672 24:-0.00512945 25:0.424465 26:-0.222115 27:0.118491 28:-0.268174 29:0.0112687 30:0.0936649 
1.9681283075389173 1:0.595986 2:0.141292 3:0.309501 4:0.0685602 5:0.606099 6:0.0993607 7:-0.0918144 8:0.349474 9:-0.158328 10:0.384875 11:-0.117129 12:0.00440892 13:0.0166387 14:0.397503 15:0.433089 16:0.253079 17:-0.301154 18:0.362387 19:-0.0534004 20:0.19146 21:0.252497 22:0.154721 23:-0.597852 24:-0.113743 25:0.527085 26:-0.318433 27:0.132764 28:-0.289925 29:0.122187 30:0.0515363 
0.25935997051455734 1:0.555159 2:0.145576 3:0.191248 4:0.0187173 5:0.525667 6:0.0959289 7:-0.28785 8:0.363189 9:-0.201787 10:0.350702 11:-0.0270061 12:-0.0623748 13:-0.0934318 14:0.507409 15:0.448044 16:0.235311 17:-0.177806 18:0.270066 19:-0.168804 20:0.249561 21:0.300922 22:0.192759 23:-0.568808 24:0.0443262 25:0.447049 26:-0.207004 27:0.300546 28:-0.260741 29:0.00989532 30:-0.164903 
7.9774055942649218 1:0.604463 2:0.256811 3:0.163319 4:-0.0499607 5:0.53384 6:0.143292 7:-0.239366 8:0.316982 9:-0.337748 10:0.385378 11:-0.0680485 12:-0.0450553 13:-0.105709 14:0.378906 15:0.470804 16:0.152659 17:-0.269254 18:0.263463 19:0.0976627 20:0.266996 21:0.316095 22:0.203005 23:-0.498156 24:-0.0599589 25:0.488024 26:-0.266715 27:0.136079 28:-0.228338 29:-0.0124019 30:-0.0975293 
1.5571339303959055 1:0.561228 2:0.191945 3:0.341056 4:0.0234162 5:0.421958 6:0.146202 7:-0.116721 8:0.469188 9:-0.143112 10:0.381297 11:-0.145135 12:-0.0783611 13:0.0633899 14:0.428088 15:0.365398 16:0.224165 17:-0.218049 18:0.469994 19:-0.0719688 20:0.258923 21:0.307753 22:0.122303 23:-0.429595 24:-0.0930801 25:0.433756 26:-0.237953 27:0.137945 28:-0.235876 29:0.00488078 30:-0.0417802 
9.8714501767661762 1:0.537396 2:0.115229 3:0.192434 4:0.0580105 5:0.60063 6:0.219205 7:-0.286917 8:0.296133 9:-0.229577 10:0.387758 11:-0.136977 12:-0.0899751 13:-0.0636985 14:0.374612 15:0.465843 16:0.255161 17:-0.182059 18:0.426554 19:-0.0396707 20:0.218311 21:0.281557 22:0.191818 23:-0.572401 24:0.075248 25:0.451606 26:-0.225443 27:0.280734 28:-0.260088 29:-0.0852573 30:-0.0377574 
0.51645125312793472 1:0.564231 2:0.0701105 3:0.227371 4:0.112421 5:0.583197 6:0.1411 7:-0.148857 8:0.34748 9:-0.147121 10:0.402002 11:-0.0649027 12:-0.0473388 13:-0.0735067 14:0.40987 15:0.507115 16:0.150562 17:-0.181964 18:0.343311 19:-0.0603636 20:0.131264 21:0.277542 22:0.13412 23:-0.521787 24:-0.182507 25:0.487745 26:-0.20072 27:0.167019 28:-0.301062 29:0.0608026 30:-0.0102661 
27.279116929679521 1:0.561678 2:0.123418 3:0.222999 4:0.0247644 5:0.470103 6:0.209219 7:-0.184235 8:0.321046 9:-0.193951 10:0.384802 11:-0.067622 12:-0.0818795 13:0.0246859 14:0.493595 15:0.451219 16:0.198082 17:-0.182086 18:0.271149 19:0.0183574 20:0.170393 21:0.295988 22:0.139747 23:-0.532501 24:-0.0828139 25:0.484155 26:-0.27137 27:0.189818 28:-0.264482 29:-0.00379471 30:0.0415268 
8.9413285340533122 1:0.567408 2:0.259511 3:0.215661 4:0.0211518 5:0.53348 6:0.149038 7:-0.194114 8:0.329194 9:-0.243283 10:0.323518 11:-0.0615836 12:-0.112946 13:-0.0172118 14:0.488274 15:0.484543 16:0.234891 17:-0.215613 18:0.409641 19:-0.0446729 20:0.146848 21:0.263169 22:0.168465 23:-0.488861 24:-0.0714638 25:0.462539 26:-0.263905 27:0.183976 28:-0.278155 29:0.00837453 30:-0.0521381 
16.477116918926697 1:0.552596 2:0.209952 3:0.161402 4:0.0824346 5:0.520935 6:0.180432 7:-0.158372 8:0.325731 9:-0.240696 10:0.370146 11:-0.0778859 12:-0.121641 13:0.0228433 14:0.443568 15:0.389623 16:0.180909 17:-0.238151 18:0.36762 19:-0.0277098 20:0.168642 21:0.267532 22:0.0822411 23:-0.488158 24:-0.0504428 25:0.47444 26:-0.192861 27:0.181796 28:-0.196904 29:0.00611079 30:0.13516 
2.4651169771751071 1:0.589198 2:0.174633 3:0.240028 4:0.0448115 5:0.473979 6:0.119642 7:-0.226516 8:0.337885 9:-0.215692 10:0.361536 11:-0.0743402 12:-0.140717 13:-0.0127485 14:0.47019 15:0.413448 16:0.166607 17:-0.208711 18:0.395693 19:-0.041826 20:0.126028 21:0.278081 22:0.163425 23:-0.545828 24:-0.0264215 25:0.45504 26:-0.245304 27:0.165032 28:-0.193596 29:-0.00549578 30:0.0565727 
0.80639688573948809 1:0.526727 2:0.127524 3:0.195187 4:0.0427592 5:0.567811 6:0.131606 7:-0.167104 8:0.361413 9:-0.245339 10:0.340431 11:-0.10693 12:-0.144739 13:0.0234119 14:0.440443 15:0.392276 16:0.228434 17:-0.181519 18:0.381033 19:0.0222042 20:0.203522 21:0.302447 22:0.0658038 23:-0.499278 24:-0.0487515 25:0.499792 26:-0.257474 27:0.23472 28:-0.265659 29:0.0157153 30:-0.0721571 
50.775350747903978 1:0.545715 2:0.192525 3:0.202148 4:0.0512042 5:0.527843 6:0.140911 7:-0.146525 8:0.322439 9:-0.210908 10:0.403112 11:-0.0887563 12:-0.0802354 13:-0.0166784 14:0.452911 15:0.461434 16:0.15994 17:-0.233952 18:0.355933 19:-0.087778 20:0.153276 21:0.246886 22:0.143146 23:-0.509428 24:-0.056932 25:0.500751 26:-0.253213 27:0.153548 28:-0.301029 29:-0.0100174 30:0.000180551 
28.730829579149535 1:0.563399 2:0.125761 3:0.227842 4:0.0260864 5:0.488087 6:0.183487 7:-0.213223 8:0.336502 9:-0.176285 10:0.388877 11:-0.114676 12:-0.122045 13:0.0389685 14:0.403384 15:0.453977 16:0.185169 17:-0.235856 18:0.361035 19:-0.018682 20:0.159567 21:0.292062 22:0.151175 23:-0.515672 24:-0.0059279 25:0.466099 26:-0.247013 27:0.15063 28:-0.253408 29:0.0259814 30:0.172632 
28.140968916078481 1:0.542097 2:0.147714 3:0.199008 4:0.0344215 5:0.588903 6:0.177592 7:-0.148904 8:0.379584 9:-0.22151 10:0.384476 11:-0.0649693 12:-0.126489 13:0.0359709 14:0.448398 15:0.464098 16:0.144509 17:-0.241228 18:0.365111 19:-0.0191527 20:0.199945 21:0.239671 22:0.184975 23:-0.500171 24:-0.0352286 25:0.476997 26:-0.2444 27:0.221221 28:-0.293832 29:0.0145624 30:-0.0635097 
86.88318394725917 1:0.558404 2:0.187433 3:0.19895 4:0.0328128 5:0.529192 6:0.149164 7:-0.171472 8:0.30667 9:-0.190816 10:0.382142 11:-0.0793655 12:-0.103989 13:-0.00190655 14:0.46963 15:0.413467 16:0.208105 17:-0.230186 18:0.396335 19:-0.047666 20:0.20773 21:0.276493 22:0.124946 23:-0.53345 24:-0.0562642 25:0.501496 26:-0.250505 27:0.195146 28:-0.2523 29:-0.00972666 30:0.0396896 
32.576062002204566 1:0.566696 2:0.155269 3:0.21103 4:0.0446963 5:0.508193 6:0.134776 7:-0.241091 8:0.390987 9:-0.214925 10:0.330044 11:-0.0961157 12:-0.106587 13:-0.00207847 14:0.409964 15:0.436327 16:0.166652 17:-0.206727 18:0.36565 19:-0.100649 20:0.210403 21:0.248253 22:0.131446 23:-0.554058 24:-0.0988628 25:0.483054 26:-0.235709 27:0.145866 28:-0.279079 29:-0.0368712 30:-0.0744061 
1.2760284269725273 1:0.539958 2:0.270691 3:0.229533 4:0.0543455 5:0.473802 6:0.159447 7:-0.140951 8:0.347124 9:-0.206847 10:0.359245 11:-0.108131 12:-0.105537 13:-0.0534053 14:0.432606 15:0.463153 16:0.243566 17:-0.198573 18:0.359451 19:-0.0409122 20:0.191154 21:0.266442 22:0.135643 23:-0.504277 24:-0.0761989 25:0.484401 26:-0.25005 27:0.173165 28:-0.234401 29:0.0212736 30:-0.0326576 
7.0429815717046127 1:0.57503 2:0.183059 3:0.188616 4:0.0579712 5:0.579065 6:0.145632 7:-0.117327 8:0.35749 9:-0.210459 10:0.388067 11:-0.0896348 12:-0.0944195 13:-0.00297553 14:0.415123 15:0.480781 16:0.179422 17:-0.163888 18:0.384355 19:-0.0413569 20:0.212486 21:0.27235 22:0.16397 23:-0.46628 24:-0.110694 25:0.443514 26:-0.254022 27:0.135146 28:-0.282095 29:-0.0127944 30:-0.0526766 
75.919930404696302 1:0.56858 2:0.190351 3:0.188581 4:0.055445 5:0.534387 6:0.159335 7:-0.115322 8:0.332357 9:-0.24988 10:0.364529 11:-0.110917 12:-0.127894 13:-0.0178246 14:0.410431 15:0.435682 16:0.180153 17:-0.215135 18:0.369646 19:-0.0557702 20:0.175415 21:0.259061 22:0.160065 23:-0.487664 24:-0.030946 25:0.47841 26:-0.252842 27:0.187547 28:-0.253378 29:0.00442425 30:-0.062306 
66.95692156773832 1:0.537264 2:0.201071 3:0.196274 4:0.0684162 5:0.52677 6:0.171738 7:-0.195028 8:0.339165 9:-0.205471 10:0.369946 11:-0.115076 12:-0.110943 13:0.0152193 14:0.526776 15:0.438183 16:0.133049 17:-0.182261 18:0.354568 19:-0.0413228 20:0.202179 21:0.27386 22:0.139051 23:-0.512555 24:-0.0798476 25:0.469444 26:-0.248858 27:0.169751 28:-0.23064 29:-0.00339634 30:0.00365537 
90.789110689621083 1:0.579704 2:0.146268 3:0.232671 4:0.044644 5:0.506894 6:0.150846 7:-0.159249 8:0.368445 9:-0.236155 10:0.379956 11:-0.110784 12:-0.119023 13:-0.0208728 14:0.431012 15:0.467442 16:0.169432 17:-0.223233 18:0.342513 19:-0.0513699 20:0.202988 21:0.263953 22:0.15924 23:-0.565007 24:-0.0158722 25:0.507151 26:-0.235585 27:0.215821 28:-0.240982 29:0.00617476 30:0.0050076 
44.651155910701803 1:0.555892 2:0.196318 3:0.212498 4:0.0522094 5:0.485726 6:0.146888 7:-0.160485 8:0.36566 9:-0.211436 10:0.380599 11:-0.087534 12:-0.0996891 13:0.0139652 14:0.492078 15:0.443158 16:0.180381 17:-0.168505 18:0.398018 19:-0.0715955 20:0.158909 21:0.257711 22:0.137453 23:-0.52433 24:-0.0337769 25:0.500877 26:-0.24812 27:0.178434 28:-0.282565 29:-0.013027 30:0.000608172 
74.800431706185449 1:0.556371 2:0.199799 3:0.219006 4:0.0377893 5:0.506166 6:0.136626 7:-0.137197 8:0.329282 9:-0.219258 10:0.382567 11:-0.0831845 12:-0.136167 13:0.0495041 14:0.386793 15:0.457712 16:0.197903 17:-0.187081 18:0.350285 19:-0.0414835 20:0.154304 21:0.271067 22:0.144763 23:-0.529089 24:-0.103799 25:0.467567 26:-0.238724 27:0.176576 28:-0.272728 29:0.00834109 30:0.0240798 
47.426638102691626 1:0.545174 2:0.184557 3:0.203945 4:0.0443652 5:0.530983 6:0.150789 7:-0.196129 8:0.353932 9:-0.223496 10:0.376303 11:-0.083887 12:-0.122782 13:0.032246 14:0.417944 15:0.440974 16:0.183544 17:-0.20289 18:0.331475 19:-0.0488249 20:0.198013 21:0.278695 22:0.176177 23:-0.497871 24:-0.0562497 25:0.532071 26:-0.253471 27:0.1843 28:-0.286747 29:0.0201425 30:0.0205163 
38.948625567660912 1:0.562033 2:0.140556 3:0.171426 4:0.0392958 5:0.516929 6:0.116089 7:-0.168225 8:0.355102 9:-0.214968 10:0.35841 11:-0.110144 12:-0.118022 13:0.0171391 14:0.491681 15:0.486015 16:0.202801 17:-0.207472 18:0.361556 19:-0.04416 20:0.178413 21:0.270575 22:0.149104 23:-0.492701 24:-0.0708105 25:0.495045 26:-0.250243 27:0.191269 28:-0.229245 29:0.0106512 30:0.0291321 
35.839007310750617 1:0.559292 2:0.160739 3:0.220425 4:0.0470288 5:0.534473 6:0.167741 7:-0.189209 8:0.334165 9:-0.237234 10:0.371392 11:-0.0920608 12:-0.0889355 13:0.0358827 14:0.338537 15:0.436156 16:0.18839 17:-0.175174 18:0.377367 19:-0.0499854 20:0.176238 21:0.261223 22:0.162924 23:-0.490781 24:-0.0800895 25:0.484946 26:-0.234348 27:0.164991 28:-0.232536 29:0.0191189 30:0.0117295 
265.73535491502884 1:0.577974 2:0.165929 3:0.199181 4:0.0391505 5:0.511793 6:0.135902 7:-0.173847 8:0.36306 9:-0.217235 10:0.365424 11:-0.0906852 12:-0.0666784 13:0.00590478 14:0.426657 15:0.468442 16:0.192021 17:-0.207576 18:0.362111 19:-0.0379177 20:0.202275 21:0.248611 22:0.140224 23:-0.548417 24:-0.0436003 25:0.473734 26:-0.234852 27:0.182044 28:-0.258501 29:-0.0016909 30:0.0367311 
64.300976574788905 1:0.562771 2:0.144528 3:0.24742 4:0.0201047 5:0.518753 6:0.153794 7:-0.169713 8:0.347486 9:-0.21762 10:0.368324 11:-0.102431 12:-0.0792447 13:-0.0228345 14:0.431278 15:0.431268 16:0.18363 17:-0.196308 18:0.372988 19:-0.0265298 20:0.208758 21:0.273005 22:0.127824 23:-0.517993 24:-0.032301 25:0.503251 26:-0.237368 27:0.179686 28:-0.272624 29:0.00462489 30:-0.00127336 
217.75062330486543 1:0.558705 2:0.162071 3:0.202111 4:0.0547513 5:0.552602 6:0.150754 7:-0.181117 8:0.386697 9:-0.205675 10:0.381184 11:-0.0880885 12:-0.111242 13:-0.0159489 14:0.432515 15:0.457214 16:0.187555 17:-0.216024 18:0.371974 19:-0.0319429 20:0.189194 21:0.267115 22:0.142493 23:-0.546615 24:-0.0308251 25:0.468976 26:-0.244972 27:0.194156 28:-0.260759 29:0.0232582 30:0.00938264 
229.83292365743037 1:0.553548 2:0.175162 3:0.212269 4:0.0423274 5:0.527703 6:0.142684 7:-0.171631 8:0.342668 9:-0.216891 10:0.364827 11:-0.0897561 12:-0.0778676 13:-0.00902799 14:0.404947 15:0.437003 16:0.18393 17:-0.210414 18:0.366294 19:-0.0305859 20:0.200973 21:0.262385 22:0.131814 23:-0.495571 24:-0.0582707 25:0.471709 26:-0.248968 27:0.182886 28:-0.270186 29:0.0102315 30:0.0369908 
179.44050711599166 1:0.558431 2:0.180792 3:0.198359 4:0.0350209 5:0.552012 6:0.137234 7:-0.159545 8:0.374203 9:-0.212231 10:0.382014 11:-0.100541 12:-0.0971175 13:0.0154485 14:0.410197 15:0.443877 16:0.204734 17:-0.197435 18:0.373525 19:-0.0422642 20:0.168376 21:0.267274 22:0.127715 23:-0.562422 24:-0.0635713 25:0.478228 26:-0.242214 27:0.19647 28:-0.262796 29:-0.00705147 30:0.0209756 
9.5555461143231284 1:0.532497 2:0.150633 3:0.217762 4:0.122186 5:0.496409 6:0.177135 7:-0.0813666 8:0.281983 9:-0.170716 10:0.442685 11:-0.0129565 12:-0.109924 13:-0.0461979 14:0.362011 15:0.406143 16:0.134502 17:-0.240472 18:0.339404 19:-0.0141373 20:0.156853 21:0.238066 22:0.141503 23:-0.550751 24:-0.094677 25:0.409165 26:-0.186081 27:0.133975 28:-0.190824 29:-0.00895609 30:-0.0366487 
0.83476756212572867 1:0.729566 2:-0.136227 3:0.0503138 4:-0.0558246 5:0.666739 6:0.191791 7:-0.208302 8:0.451011 9:-0.722413 10:0.000792336 11:-0.427753 12:-0.451432 13:-0.0788406 14:0.557438 15:0.0764198 16:0.450936 17:1 18:-0.0934113 19:-0.365038 20:0.165419 21:0.11652 22:-0.391021 23:-0.50306 24:-0.037445 25:1 26:-0.731632 27:-0.307593 28:0.172732 29:0.331928 30:-0.449161 
0.83475693908782544 1:0.157665 2:0.433672 3:0.197598 4:0.0245419 5:0.0988687 6:0.756409 7:0.120103 8:0.211704 9:0.259253 10:0.43191 11:-0.159477 12:-0.299139 13:-0.0456249 14:0.486851 15:0.200909 16:0.126831 17:-0.0955788 18:0.64903 19:0.530433 20:0.363898 21:0.456595 22:0.168537 23:-0.761642 24:-0.0654029 25:0.622546 26:-0.510372 27:0.282223 28:-0.212223 29:0.220849 30:-0.932531 
0.83453942948055404 1:0.474211 2:0.223318 3:-0.152022 4:0.441623 5:0.891195 6:-0.148779 7:0.116371 8:-0.0697149 9:-0.27452 10:0.789527 11:-0.0517462 12:-0.159828 13:-0.0949967 14:0.258593 15:0.295139 16:-0.251985 17:-0.149524 18:0.441129 19:0.0448791 20:0.06679 21:0.155912 22:-0.282585 23:-0.139897 24:-0.0239052 25:0.291548 26:-0.448198 27:0.183982 28:-0.346227 29:-0.233644 30:0.420653 
0.8347714663301059 1:0.651591 2:0.418721 3:0.149634 4:-0.108901 5:0.768028 6:0.243671 7:0.322994 8:0.091542 9:-0.0966758 10:0.405157 11:-0.194601 12:-0.395047 13:-0.0405775 14:0.736787 15:0.356202 16:0.178336 17:0.0782315 18:0.0182544 19:0.286155 20:0.0908854 21:0.161005 22:0.00655322 23:-0.163847 24:0.0123881 25:0.414682 26:0.00725167 27:0.222591 28:0.0162925 29:-0.0916982 30:0.460881 
0.7496947297090365 1:0.430952 2:0.217115 3:0.227361 4:-0.0894503 5:0.585617 6:0.0722024 7:-0.408116 8:-0.00912598 9:-0.491261 10:0.250738 11:-0.164623 12:-0.0143158 13:0.164514 14:0.452237 15:0.381118 16:0.258427 17:-0.355383 18:0.286495 19:-0.183396 20:0.0496985 21:0.376842 22:0.200344 23:-0.429063 24:0.361481 25:0.499262 26:-0.202361 27:0.351345 28:-0.215012 29:-0.0396482 30:0.0911942 
0.98198634904062043 1:0.280602 2:0.181357 3:0.404812 4:0.0164005 5:0.702764 6:0.361281 7:0.0823228 8:0.427114 9:-0.279661 10:0.552402 11:-0.270994 12:0.0895837 13:-0.0812211 14:0.121456 15:0.537955 16:0.201678 17:-0.229713 18:0.2669 19:0.0763188 20:0.141324 21:0.361324 22:0.0869298 23:-0.519835 24:-0.148536 25:0.565423 26:-0.191984 27:0.335305 28:-0.192364 29:-0.0837017 30:0.00752312 
0.90093959785466082 1:0.677737 2:0.273391 3:0.262796 4:0.306414 5:0.622292 6:0.00302806 7:0.0977146 8:0.235638 9:-0.0207334 10:0.500627 11:-0.263663 12:0.0915159 13:0.0108486 14:0.255303 15:0.392258 16:0.270382 17:-0.225717 18:0.526669 19:0.118812 20:0.288172 21:0.271318 22:0.191112 23:-0.687645 24:-0.201331 25:0.56353 26:-0.250531 27:0.373201 28:-0.18883 29:0.174469 30:-0.112797 
0.83086565803795775 1:0.351776 2:0.185226 3:0.379725 4:0.150654 5:0.391323 6:-0.0627818 7:-0.0613806 8:0.344456 9:-0.20482 10:0.408903 11:-0.119808 12:0.0373792 13:-0.243112 14:0.52372 15:0.571486 16:0.245528 17:-0.144853 18:0.135482 19:-0.0176757 20:0.117996 21:0.161072 22:-0.0179761 23:-1 24:-0.0379942 25:0.429351 26:-0.287807 27:0.597618 28:-0.244917 29:0.0213856 30:-0.12968 
0.84087539219276031 1:0.603763 2:0.17001 3:0.373326 4:-0.174084 5:0.575799 6:0.10072 7:0.16791 8:0.383347 9:-0.336446 10:0.452669 11:-0.0740869 12:-0.107472 13:-0.148314 14:0.173725 15:0.568433 16:0.189891 17:-0.286345 18:0.210639 19:0.0149651 20:0.0836486 21:0.290178 22:0.0410753 23:-0.773237 24:0.06436 25:0.313766 26:-0.32284 27:0.452109 28:-0.140634 29:-0.0118494 30:-0.548305 
0.55860536319633702 1:0.756371 2:0.161622 3:0.253156 4:0.0266099 5:0.419439 6:0.395734 7:0.189599 8:0.109982 9:-0.168814 10:0.250076 11:-0.171168 12:0.0554892 13:-0.00688781 14:0.277797 15:0.410195 16:0.229948 17:-0.144016 18:0.323831 19:0.0473462 20:0.179622 21:0.314676 22:0.158916 23:-0.666052 24:-0.00725865 25:0.445484 26:-0.236147 27:-0.0362283 28:-0.280327 29:0.194824 30:0.1465 
0.8660878820332869 1:0.660795 2:0.236662 3:0.158473 4:0.075445 5:0.567555 6:0.0943409 7:-0.186495 8:0.151378 9:-0.40096 10:0.351293 11:0.227139 12:-0.214281 13:-0.0812211 14:0.503512 15:0.450602 16:0.0810487 17:0.0949713 18:0.419766 19:0.0577179 20:0.214405 21:0.298481 22:0.188577 23:-0.832161 24:0.0961287 25:0.559162 26:-0.165349 27:-0.0572705 28:-0.369993 29:-0.126374 30:0.141178 
0.79429418877594227 1:0.714116 2:0.389423 3:0.290167 4:0.122631 5:0.550202 6:-0.0976381 7:-0.230854 8:0.571738 9:-0.231515 10:0.449658 11:-0.172621 12:-0.135307 13:-0.0622438 14:0.574215 15:0.350822 16:0.0509663 17:-0.160958 18:0.401854 19:-0.0155981 20:0.132127 21:0.343511 22:0.304924 23:-0.620966 24:-0.350593 25:0.449069 26:-0.178605 27:0.0930819 28:-0.0822728 29:-0.0757197 30:-0.0948052 
0.35859305718226131 1:0.657494 2:-0.213879 3:0.163145 4:-0.037055 5:0.367516 6:0.0686495 7:-0.0500466 8:0.450221 9:-0.323561 10:0.197292 11:-0.100453 12:-0.144915 13:0.0692528 14:0.427791 15:0.569723 16:0.218427 17:-0.320459 18:0.369256 19:0.109122 20:0.0992599 21:0.27308 22:0.256553 23:-0.468409 24:-0.236414 25:0.532816 26:-0.210872 27:0.0679107 28:-0.165891 29:0.0116214 30:0.129965 
1.5745170225887581 1:0.610551 2:0.327413 3:0.0778591 4:0.0930236 5:0.362302 6:-0.0115066 7:-0.282579 8:0.502531 9:-0.205111 10:0.472938 11:-0.377233 12:0.13701 13:0.0660128 14:0.510722 15:0.403689 16:0.270757 17:-0.212181 18:0.19923 19:0.0869502 20:0.232607 21:0.277013 22:0.151879 23:-0.542794 24:0.0224534 25:0.377542 26:-0.163595 27:0.0554442 28:-0.242641 29:0.110832 30:-0.141368 
0.68800845234875385 1:0.686412 2:0.166629 3:0.316754 4:-0.135864 5:0.333773 6:0.0863468 7:0.0827892 8:0.571738 9:-0.229671 10:0.219765 11:-0.0988656 12:-0.152696 13:-0.0143972 14:0.487038 15:0.395129 16:0.361348 17:-0.208514 18:0.384869 19:-0.0309122 20:0.129633 21:0.234989 22:0.103621 23:-0.557194 24:-0.162932 25:0.533712 26:-0.329237 27:0.302094 28:-0.579963 29:-0.0242222 30:-0.0188407 
0.48963210226322806 1:0.722699 2:0.291398 3:0.106485 4:0.184686 5:0.582725 6:0.199798 7:-0.0340019 8:0.425628 9:-0.404901 10:0.450191 11:-0.145974 12:-0.0136659 13:-0.0512012 14:0.557298 15:0.427551 16:0.337079 17:-0.254688 18:0.219909 19:-0.0260818 20:0.0331689 21:0.147928 22:0.156217 23:-0.454609 24:-0.121994 25:0.562393 26:-0.209118 27:0.0897667 28:-0.291951 29:0.0240884 30:-0.023969 
0.79934150137590443 1:0.493952 2:0.180482 3:0.201754 4:0.018233 5:0.538518 6:-0.0089496 7:-0.193358 8:0.553674 9:-0.190559 10:0.441821 11:-0.216729 12:-0.112419 13:0.320256 14:0.429187 15:0.405743 16:0.274157 17:-0.185339 18:0.542071 19:-0.142883 20:0.0825384 21:0.250627 22:0.239012 23:-0.616195 24:-0.217977 25:0.486288 26:-0.287414 27:0.191698 28:-0.223652 29:0.0116858 30:0.0382262 
0.45094998079595416 1:0.561829 2:0.0962847 3:0.256137 4:0.0485393 5:0.442086 6:0.121567 7:-0.285844 8:0.403669 9:-0.183139 10:0.348354 11:0.0177686 12:-0.191463 13:0.00482918 14:0.355361 15:0.484652 16:0.27185 17:-0.0858319 18:0.259527 19:0.0452037 20:0.187181 21:0.305975 22:0.268899 23:-0.271811 24:-0.0884587 25:0.408736 26:-0.18544 27:0.207206 28:-0.373705 29:0.080663 30:-0.0721254 
0.20586948361769647 1:0.672455 2:0.237844 3:0.256294 4:-0.00998691 5:0.430949 6:0.172882 7:-0.372854 8:0.375388 9:-0.285161 10:0.443117 11:-0.229139 12:-0.192271 13:-0.141283 14:0.447341 15:0.478001 16:0.191732 17:-0.241876 18:0.427467 19:-0.0398555 20:0.241297 21:0.356005 22:0.0943338 23:-0.727808 24:-0.0417155 25:0.517654 26:-0.137523 27:0.2693 28:-0.196612 29:-0.0384414 30:0.139943 
2.4213548541669745 1:0.597425 2:0.2621 3:0.234397 4:0.0819241 5:0.500167 6:0.145008 7:0.0169543 8:0.364279 9:-0.055209 10:0.28563 11:-0.0580245 12:-0.0136659 13:-0.0774521 14:0.487131 15:0.442593 16:-0.0245693 17:-0.27267 18:0.375613 19:-0.108619 20:0.184509 21:0.184813 22:-0.0163106 23:-0.543218 24:-0.176313 25:0.561825 26:-0.274417 27:0.222888 28:-0.316965 29:-0.032524 30:0.254482 
4.4520617614350533 1:0.534729 2:0.208479 3:0.170223 4:0.0366309 5:0.60179 6:0.150507 7:-0.238246 8:0.36032 9:-0.224435 10:0.240611 11:-0.0716209 12:-0.173213 13:0.119528 14:0.474997 15:0.606724 16:0.200659 17:-0.234641 18:0.312678 19:-0.00409025 20:0.145655 21:0.239897 22:0.176213 23:-0.616404 24:-0.00742802 25:0.507366 26:-0.204846 27:0.223543 28:-0.432439 29:-0.0582291 30:0.171492 
3.2138304030989384 1:0.568819 2:0.091331 3:0.0863842 4:0.00434555 5:0.368933 6:0.151948 7:-0.109282 8:0.214282 9:-0.205005 10:0.481322 11:-0.0480139 12:-0.0479536 13:0.00279127 14:0.413114 15:0.405579 16:0.143296 17:-0.21863 18:0.313562 19:-1.62311e-05 20:0.153194 21:0.288428 22:-0.00429037 23:-0.490933 24:-0.0499202 25:0.502569 26:-0.148193 27:0.204288 28:-0.322558 29:0.0450131 30:-0.127431 
4.9156993148304462 1:0.498719 2:0.161578 3:0.239662 4:0.0571466 5:0.437108 6:0.161631 7:-0.35021 8:0.317396 9:-0.228708 10:0.390364 11:-0.07506 12:-0.179238 13:0.0495702 14:0.5247 15:0.441396 16:0.14412 17:-0.221991 18:0.410938 19:-0.00113618 20:0.209156 21:0.346469 22:0.127064 23:-0.642577 24:0.0143237 25:0.416954 26:-0.192152 27:0.260387 28:-0.175748 29:0.125952 30:-0.002344 
16.143048980853624 1:0.562755 2:0.14947 3:0.139156 4:0.0946859 5:0.451294 6:0.127407 7:-0.133722 8:0.398212 9:-0.210461 10:0.347835 11:-0.0772727 12:-0.0647813 13:-0.0778929 14:0.490258 15:0.452787 16:0.151041 17:-0.238488 18:0.389604 19:-0.0230547 20:0.245066 21:0.296346 22:0.133125 23:-0.490838 24:-0.00849262 25:0.551196 26:-0.253359 27:0.167121 28:-0.277474 29:-0.0482844 30:-0.140323 
2.4205134050232142 1:0.547339 2:0.0843468 3:0.34545 4:0.110393 5:0.525336 6:0.174632 7:-0.181089 8:0.266892 9:-0.275206 10:0.322279 11:-0.0621301 12:-0.13499 13:-0.00150099 14:0.3986 15:0.463571 16:0.171673 17:-0.196354 18:0.462022 19:-0.00782341 20:0.135746 21:0.232575 22:0.100525 23:-0.563296 24:-0.197798 25:0.462842 26:-0.195739 27:0.211533 28:-0.254851 29:0.0397063 30:-0.288343 
6.0161773212077172 1:0.563212 2:0.0944327 3:0.224695 4:0.0273168 5:0.533149 6:0.178656 7:-0.105877 8:0.323963 9:-0.292666 10:0.32117 11:0.00327913 12:-0.0546109 13:0.0117919 14:0.489091 15:0.435079 16:0.190394 17:-0.199263 18:0.368915 19:-0.0882487 20:0.250562 21:0.367226 22:0.0658038 23:-0.554875 24:-0.0870796 25:0.460733 26:-0.195615 27:0.206154 28:-0.182654 29:-0.0185374 30:-0.0443142 
16.498695515368599 1:0.559816 2:0.198773 3:0.253016 4:0.0156675 5:0.630871 6:0.151377 7:-0.318354 8:0.271201 9:-0.210045 10:0.314975 11:-0.0822167 12:-0.102438 13:0.0426714 14:0.445325 15:0.424989 16:0.237064 17:-0.182774 18:0.335454 19:0.000892712 20:0.188074 21:0.207573 22:0.112817 23:-0.543971 24:-0.19475 25:0.474769 26:-0.207432 27:0.23996 28:-0.232439 29:0.0622129 30:-0.00155527 
1.2161200513844428 1:0.516321 2:0.164998 3:0.213014 4:-3.9267e-05 5:0.539475 6:0.181132 7:-0.0925606 8:0.336453 9:-0.209433 10:0.351812 11:-0.139203 12:-0.243229 13:-0.0294027 14:0.520429 15:0.419318 16:0.174993 17:-0.258373 18:0.347305 19:0.0213277 20:0.186375 21:0.25129 22:0.0697683 23:-0.514317 24:0.029204 25:0.466919 26:-0.237629 27:0.166581 28:-0.239361 29:-0.0124309 30:0.136617 
12.018465302713253 1:0.586016 2:0.148325 3:0.147629 4:0.0537435 5:0.514369 6:0.206312 7:-0.228498 8:0.360094 9:-0.215136 10:0.380068 11:-0.0709144 12:-0.0536273 13:-0.0366983 14:0.46711 15:0.466352 16:0.186626 17:-0.200655 18:0.370888 19:-0.0625872 20:0.113117 21:0.248054 22:0.168356 23:-0.547261 24:-0.0574595 25:0.487942 26:-0.333183 27:0.169896 28:-0.187193 29:-0.0417999 30:0.0407349 
7.3225989971803687 1:0.567762 2:0.104295 3:0.257863 4:0.0521479 5:0.465912 6:0.166516 7:-0.249021 8:0.333706 9:-0.191073 10:0.360657 11:-0.0875007 12:-0.0689443 13:-0.0632577 14:0.525936 15:0.441283 16:0.20764 17:-0.213027 18:0.365773 19:-0.00217497 20:0.144298 21:0.219723 22:0.175308 23:-0.530094 24:-0.150302 25:0.486441 26:-0.257395 27:0.178078 28:-0.326044 29:0.0199593 30:0.0271999 
15.464540330347736 1:0.503539 2:0.27859 3:0.241213 4:0.00866492 5:0.530725 6:0.113411 7:-0.246992 8:0.296039 9:-0.217424 10:0.328776 11:-0.0883764 12:-0.0615493 13:0.0124399 14:0.415181 15:0.438826 16:0.162412 17:-0.183341 18:0.367025 19:-0.0166694 20:0.176678 21:0.322382 22:0.12176 23:-0.46398 24:-0.104186 25:0.550186 26:-0.22035 27:0.191442 28:-0.23774 29:-0.0319424 30:-0.0113969 
21.58322452513227 1:0.587389 2:0.179065 3:0.195096 4:0.0447526 5:0.379302 6:0.148555 7:-0.192358 8:0.356673 9:-0.158533 10:0.378709 11:-0.0508931 12:-0.0264184 13:0.0480494 14:0.399463 15:0.446841 16:0.211521 17:-0.224354 18:0.374926 19:-0.0537867 20:0.148122 21:0.297049 22:0.101122 23:-0.539857 24:-0.109823 25:0.474087 26:-0.221586 27:0.176578 28:-0.289649 29:0.0279442 30:-0.0857143 
1.3097010233434905 1:0.579704 2:0.207074 3:0.159711 4:0.0469293 5:0.484565 6:0.118754 7:-0.215998 8:0.345223 9:-0.134476 10:0.3368 11:-0.0777526 12:-0.0336202 13:-0.0140181 14:0.339797 15:0.418337 16:0.160105 17:-0.173446 18:0.326013 19:-0.0320467 20:0.203098 21:0.253332 22:0.134211 23:-0.586771 24:-0.097895 25:0.507631 26:-0.238558 27:0.221141 28:-0.256349 29:-0.038674 30:0.0332151 
2.6100682131054458 1:0.49695 2:0.225304 3:0.189801 4:0.0634817 5:0.4873 6:0.105767 7:-0.171423 8:0.338581 9:-0.196316 10:0.382899 11:-0.0708744 12:-0.109924 13:0.0490853 14:0.413504 15:0.413339 16:0.16813 17:-0.213492 18:0.339661 19:-0.0680247 20:0.163528 21:0.277526 22:0.153159 23:-0.466584 24:-0.0493346 25:0.457401 26:-0.213075 27:0.229677 28:-0.233622 29:0.00633614 30:0.0255147 
1.9689743433763878 1:0.546811 2:0.165523 3:0.193497 4:0.0380301 5:0.595711 6:0.117691 7:-0.195872 8:0.320068 9:-0.206155 10:0.347245 11:-0.103807 12:-0.0449675 13:-0.0194754 14:0.497328 15:0.437856 16:0.192599 17:-0.24814 18:0.431574 19:0.0295082 20:0.217283 21:0.280099 22:0.118411 23:-0.538312 24:-0.145705 25:0.463044 26:-0.228287 27:0.140923 28:-0.281495 29:-0.0286566 30:-0.0918277 
13.747771456913464 1:0.58591 2:0.183952 3:0.182113 4:0.0533377 5:0.5073 6:0.127582 7:-0.132626 8:0.335608 9:-0.255398 10:0.371264 11:-0.0884764 12:-0.0855542 13:-0.0375799 14:0.363108 15:0.415811 16:0.185293 17:-0.190612 18:0.340645 19:-0.0396764 20:0.195696 21:0.295139 22:0.122285 23:-0.549198 24:-0.0769877 25:0.474834 26:-0.247917 27:0.236089 28:-0.255547 29:0.0422652 30:0.00620526 
2.1760177908936473 1:0.570427 2:0.189035 3:0.241283 4:0.0511728 5:0.543183 6:0.164107 7:-0.170016 8:0.406454 9:-0.167615 10:0.412029 11:-0.0745668 12:-0.0822484 13:-0.0153692 14:0.462653 15:0.445823 16:0.164105 17:-0.22187 18:0.350071 19:-0.0054212 20:0.17965 21:0.248199 22:0.188324 23:-0.552842 24:-0.0352528 25:0.447213 26:-0.199483 27:0.173207 28:-0.244444 29:-0.0270137 30:0.027203 
26.282237263641452 1:0.570263 2:0.189626 3:0.270711 4:0.0458351 5:0.493104 6:0.123007 7:-0.11959 8:0.34473 9:-0.259304 10:0.333458 11:-0.0937111 12:-0.103278 13:0.0185739 14:0.40735 15:0.440425 16:0.167724 17:-0.216497 18:0.388691 19:0.0359033 20:0.211198 21:0.248372 22:0.197013 23:-0.526588 24:-0.0668014 25:0.478062 26:-0.202024 27:0.1414 28:-0.244251 29:0.049811 30:0.0255021 
78.732834578460725 1:0.583758 2:0.155218 3:0.194474 4:0.0394581 5:0.514294 6:0.138584 7:-0.115275 8:0.302192 9:-0.244003 10:0.342995 11:-0.104183 12:-0.0682066 13:0.0153449 14:0.400583 15:0.468369 16:0.171148 17:-0.199468 18:0.374619 19:-0.0287259 20:0.160266 21:0.257117 22:0.168646 23:-0.540743 24:-0.0123397 25:0.48817 26:-0.239315 27:0.142908 28:-0.236605 29:-0.0108171 30:-0.00780488 
57.410615266903164 1:0.572797 2:0.202633 3:0.229881 4:0.0153927 5:0.506859 6:0.141405 7:-0.144496 8:0.314517 9:-0.149246 10:0.374992 11:-0.0676353 12:-0.0924249 13:0.0270663 14:0.445768 15:0.471131 16:0.18692 17:-0.19092 18:0.393183 19:-0.0607531 20:0.175763 21:0.260804 22:0.105105 23:-0.544267 24:-0.0192112 25:0.488982 26:-0.248872 27:0.167913 28:-0.2285 29:0.0134763 30:-0.00717137 
48.906196212119355 1:0.561392 2:0.223854 3:0.186245 4:0.0356545 5:0.481909 6:0.154353 7:-0.169944 8:0.356504 9:-0.218496 10:0.366549 11:-0.0887257 12:-0.113367 13:0.020637 14:0.39993 15:0.475384 16:0.158577 17:-0.19289 18:0.352631 19:-0.0330515 20:0.161006 21:0.253624 22:0.191112 23:-0.539994 24:-0.0929349 25:0.460999 26:-0.237726 27:0.22138 28:-0.275026 29:0.013642 30:0.0789357 
27.788703335756999 1:0.577499 2:0.118376 3:0.219144 4:0.021911 5:0.507957 6:0.141521 7:-0.201982 8:0.359829 9:-0.206227 10:0.394598 11:-0.0920874 12:-0.10479 13:0.0678642 14:0.430792 15:0.453056 16:0.194956 17:-0.21446 18:0.371422 19:-0.0244895 20:0.18655 21:0.258989 22:0.163177 23:-0.548987 24:-0.0609047 25:0.447112 26:-0.232288 27:0.177022 28:-0.225468 29:-0.0471794 30:-0.00557491 
52.628931714123823 1:0.552246 2:0.157949 3:0.198745 4:0.0226309 5:0.537924 6:0.153029 7:-0.156287 8:0.367335 9:-0.200211 10:0.386765 11:-0.0949376 12:-0.0980608 13:-0.0680846 14:0.444716 15:0.40816 16:0.167221 17:-0.197358 18:0.382929 19:0.0113943 20:0.180731 21:0.310922 22:0.169406 23:-0.554324 24:-0.0742197 25:0.480531 26:-0.240674 27:0.176562 28:-0.276437 29:-0.0176214 30:0.0240893 
123.66773632358296 1:0.565315 2:0.169118 3:0.214161 4:0.0443534 5:0.550576 6:0.13657 7:-0.192775 8:0.377721 9:-0.224063 10:0.404855 11:-0.0669022 12:-0.0979308 13:-0.0373154 14:0.446027 15:0.40289 16:0.193199 17:-0.19296 18:0.360618 19:-0.00756371 20:0.165419 21:0.263905 22:0.133586 23:-0.534298 24:-0.0646601 25:0.466566 26:-0.270808 27:0.155593 28:-0.227965 29:0.0105029 30:-0.0288248 
79.968070682117585 1:0.546943 2:0.179982 3:0.234432 4:0.0448089 5:0.522873 6:0.149061 7:-0.141395 8:0.331817 9:-0.242238 10:0.367045 11:-0.0823327 12:-0.0658177 13:-0.0162067 14:0.400817 15:0.418991 16:0.172096 17:-0.196463 18:0.387607 19:-0.0414722 20:0.203701 21:0.264748 22:0.154613 23:-0.518947 24:-0.0244858 25:0.467562 26:-0.248709 27:0.169941 28:-0.268349 29:0.0343705 30:0.0512195 
97.350141570147585 1:0.546653 2:0.119848 3:0.220859 4:0.0566099 5:0.548805 6:0.140517 7:-0.170294 8:0.335667 9:-0.200925 10:0.376035 11:-0.115263 12:-0.0960899 13:-0.000298876 14:0.427425 15:0.447838 16:0.202112 17:-0.20127 18:0.369703 19:-0.0135205 20:0.176377 21:0.284594 22:0.127426 23:-0.509124 24:-0.0126784 25:0.490071 26:-0.24407 27:0.17943 28:-0.260812 29:-0.0147717 30:0.0143396 
47.522434958423105 1:0.569658 2:0.143501 3:0.186768 4:0.0429961 5:0.526351 6:0.140559 7:-0.16615 8:0.304469 9:-0.233487 10:0.381033 11:-0.107945 12:-0.0831442 13:0.0229976 14:0.414575 15:0.492285 16:0.190379 17:-0.209953 18:0.338234 19:-0.0276546 20:0.21043 21:0.305166 22:0.176448 23:-0.547405 24:-0.0992015 25:0.459509 26:-0.248314 27:0.165574 28:-0.238729 29:0.000583018 30:0.011229 
43.128191914315828 1:0.563877 2:0.244338 3:0.196386 4:0.0332199 5:0.534871 6:0.151247 7:-0.136147 8:0.332078 9:-0.21392 10:0.392458 11:-0.121048 12:-0.131565 13:0.00960767 14:0.469467 15:0.441396 16:0.180837 17:-0.202302 18:0.381746 19:-0.0179679 20:0.19193 21:0.253306 22:0.141716 23:-0.534832 24:-0.106799 25:0.458865 26:-0.227478 27:0.197804 28:-0.253228 29:-0.0223902 30:0.00659202 
47.471879337484424 1:0.574491 2:0.186857 3:0.193288 4:0.0473115 5:0.555239 6:0.149618 7:-0.132206 8:0.381654 9:-0.202824 10:0.377836 11:-0.0933863 12:-0.0802828 13:-0.041922 14:0.463423 15:0.46617 16:0.173354 17:-0.209152 18:0.370083 19:-0.049802 20:0.163651 21:0.309371 22:0.11832 23:-0.511918 24:-0.0480692 25:0.468618 26:-0.241147 27:0.20397 28:-0.244067 29:0.0323059 30:0.03363 
14.907985052415681 1:0.564772 2:0.212764 3:0.219841 4:0.0505144 5:0.520657 6:0.143387 7:-0.170469 8:0.346203 9:-0.193163 10:0.37801 11:-0.1061 12:-0.111769 13:-0.0103196 14:0.358231 15:0.469187 16:0.191299 17:-0.211514 18:0.377517 19:-0.0493556 20:0.19841 21:0.241501 22:0.150211 23:-0.537945 24:-0.0159932 25:0.474005 26:-0.234099 27:0.172465 28:-0.278658 29:0.0117555 30:-0.0403231 
221.32780848681969 1:0.567655 2:0.166491 3:0.219212 4:0.0387683 5:0.520462 6:0.143105 7:-0.176779 8:0.339767 9:-0.208576 10:0.386732 11:-0.11273 12:-0.100532 13:-0.0373154 14:0.450972 15:0.487488 16:0.180822 17:-0.197208 18:0.360836 19:-0.0376143 20:0.18182 21:0.276086 22:0.140199 23:-0.530873 24:-0.0735083 25:0.480867 26:-0.231757 27:0.17436 28:-0.257014 29:0.0283658 30:0.0242667 
0.83488488265731042 1:0.953123 2:1 3:0.439156 4:0.950393 5:1 6:0.660319 7:0.0767257 8:0.462113 9:-0.399589 10:-0.14226 11:-0.352039 12:-0.558054 13:0.0262067 14:0.0404854 15:0.854793 16:1 17:0.203375 18:0.327524 19:0.385976 20:-1 21:0.0324292 22:-0.746741 23:-0.04866 24:1 25:0.717352 26:-1 27:0.480496 28:-1 29:0.458273 30:-0.634146 
0.83444915807981501 1:0.0426515 2:0.0943434 3:-0.214435 4:-0.28966 5:0.786916 6:-0.0111029 7:-1 8:0.270863 9:-0.577279 10:0.57646 11:-0.604772 12:0.220797 13:-0.166101 14:0.361755 15:0.414721 16:-0.0630712 17:-0.298819 18:0.335354 19:-0.637721 20:-0.0305647 21:-0.229392 22:-1 23:-0.596598 24:0.102589 25:0.691725 26:0.0878633 27:0.257012 28:-0.369328 29:0.0580983 30:0.1637 
0.83475465193614307 1:0.485462 2:0.666853 3:-0.167538 4:-0.213613 5:0.415721 6:0.341767 7:-0.267934 8:0.73864 9:-0.44928 10:0.299532 11:0.0670488 12:0.229756 13:-0.248622 14:-1 15:0.160382 16:0.156899 17:-0.258765 18:0.482059 19:-0.452199 20:0.138089 21:0.655415 22:0.634685 23:-0.105683 24:0.0263247 25:0.686171 26:-0.0842656 27:-0.00956824 28:-0.278544 29:-0.372928 30:-0.955971 
0.8348988585476439 1:0.58941 2:0.8081 3:0.260146 4:-0.0938482 5:-0.0719134 6:0.0932104 7:-0.120662 8:0.038856 9:-0.169208 10:0.364418 11:-0.187523 12:-0.755314 13:-0.0773859 14:0.671917 15:0.688687 16:0.171369 17:0.0959163 18:0.647747 19:-0.00998215 20:0.0948465 21:0.361218 22:-0.0188993 23:-0.830641 24:0.0736995 25:0.662816 26:-0.117657 27:0.513449 28:-0.00948367 29:0.099055 30:-0.202756 
0.83479694781254621 1:0.585105 2:0.883298 3:0.258368 4:0.0264921 5:0.742646 6:-0.100599 7:-0.725513 8:0.671089 9:0.292152 10:0.220918 11:-0.396428 12:-0.510451 13:-0.455808 14:0.618761 15:0.366397 16:-0.103521 17:-0.141829 18:0.528237 19:0.142347 20:0.00644189 21:0.390291 22:0.241781 23:0.173921 24:0.0185338 25:0.33043 26:-0.106302 27:-0.0189578 28:-0.397017 29:0.1459 30:-0.271745 
0.83480225109903883 1:0.567698 2:-0.123061 3:0.198942 4:-0.00227749 5:0.707054 6:0.00316264 7:-0.703591 8:-0.192774 9:-0.428033 10:0.395822 11:-0.0291922 12:0.494643 13:0.132533 14:0.908995 15:0.38895 16:0.0972135 17:-0.0506919 18:0.191957 19:-0.263269 20:0.255441 21:-0.0837589 22:0.167087 23:-0.759361 24:0.366078 25:0.629237 26:-0.30556 27:0.550769 28:-0.46162 29:-0.052428 30:-0.306747 
0.8347093932394245 1:0.4281 2:0.154116 3:0.370833 4:0.0152618 5:0.724348 6:0.200498 7:-0.0875933 8:-0.340672 9:-0.644277 10:0.725564 11:-0.175806 12:-0.170262 13:0.0492837 14:0.452227 15:0.0146297 16:0.377079 17:-0.16814 18:0.477424 19:0.120873 20:-0.394326 21:-0.337091 22:0.258237 23:-0.551397 24:-0.0394943 25:0.318942 26:-0.024116 27:0.286174 28:-0.84583 29:-0.0739314 30:0.726322 
0.8344199690666857 1:0.618328 2:-0.564655 3:0.0108089 4:0.0544634 5:0.608303 6:0.0955656 7:-0.198461 8:0.91495 9:-0.505312 10:0.216884 11:0.0954412 12:-0.0448797 13:-0.129204 14:0.787656 15:0.847342 16:-0.0509363 17:-0.171974 18:0.151455 19:-0.189645 20:-0.176809 21:0.541482 22:-0.0552136 23:-0.821327 24:-0.179821 25:0.835763 26:0.170836 27:0.380645 28:-0.803194 29:0.228409 30:-0.394995 
0.83303822671907868 1:0.618262 2:0.363093 3:0.470886 4:-0.0709948 5:0.265322 6:0.00222058 7:-0.193349 8:0.339552 9:-0.319054 10:0.215299 11:0.0507865 12:0.567539 13:-0.170421 14:0.553634 15:0.37065 16:0.0595206 17:-0.293189 18:0.34083 19:0.0216361 20:0.124603 21:0.215014 22:0.0663469 23:-0.521893 24:-0.222357 25:0.688948 26:-0.173894 27:0.441985 28:-0.528086 29:0.154144 30:-0.194267 
0.83451324189581055 1:0.5164 2:0.611068 3:-0.117852 4:-0.128534 5:0.0185932 6:0.0132427 7:-0.096805 8:0.381127 9:-0.0113091 10:0.369198 11:0.1241 12:-0.227103 13:-0.141261 14:1 15:0.517001 16:0.158292 17:-0.270834 18:0.303822 19:0.022334 20:0.015625 21:0.112143 22:0.520456 23:-0.537073 24:0.334382 25:0.331061 26:0.00702681 27:0.165364 28:-0.247041 29:-0.14888 30:-0.297814 
0.83276971668209698 1:0.482372 2:0.223028 3:0.274111 4:0.106976 5:0.382056 6:0.0820806 7:-0.369823 8:0.370063 9:-0.0017135 10:0.321285 11:-0.270061 12:0.235201 13:-0.249724 14:0.856259 15:0.50179 16:0.436854 17:-0.123658 18:0.61409 19:-0.125743 20:0.309211 21:0.441077 22:0.328313 23:-0.548171 24:-0.0827922 25:0.801174 26:-0.296993 27:-0.0197519 28:-0.228678 29:0.0588107 30:0.418118 
0.85785439872839564 1:0.584682 2:-0.212317 3:0.195241 4:0.0360589 5:0.515119 6:-0.0611668 7:0.145756 8:0.110547 9:-0.325548 10:0.278312 11:-0.141122 12:-0.0653785 13:0.143443 14:0.655093 15:0.223444 16:0.291056 17:-0.2503 18:0.373585 19:0.0870963 20:0.267256 21:0.0413157 22:0.10172 23:-0.483121 24:-0.160102 25:0.67948 26:-0.212165 27:-0.0322581 28:-0.101856 29:0.156732 30:-0.00748179 
0.84163794239416501 1:0.725472 2:0.401317 3:0.131015 4:0.000510471 5:0.5393 6:0.272821 7:-0.197178 8:0.366902 9:-0.38828 10:0.420327 11:-0.0692349 12:0.176884 13:-0.0257218 14:0.659503 15:0.285761 16:0.241813 17:0.130611 18:0.280334 19:-0.00553482 20:0.231154 21:0.0131972 22:0.320854 23:-0.309447 24:-0.17157 25:0.355589 26:-0.0819045 27:0.186849 28:-0.38327 29:-0.18581 30:-0.0910358 
0.83878735289542727 1:0.478371 2:0.226643 3:0.400279 4:-0.0167801 5:0.70912 6:0.085499 7:-0.184426 8:0.443522 9:-0.219126 10:0.14543 11:-0.0461344 12:-0.528544 13:-0.232753 14:0.369922 15:0.297356 16:-0.0731086 17:-0.197351 18:0.446506 19:0.0468917 20:0.211294 21:0.0483454 22:0.0348298 23:-0.453298 24:-0.0237116 25:0.64691 26:-0.184507 27:0.473945 28:0.29675 29:-0.0400698 30:-0.159772 
0.75828718572703813 1:0.484115 2:0.0139016 3:0.385338 4:-0.0183246 5:0.496881 6:0.2302 7:-0.291325 8:0.408881 9:-0.317221 10:0.416942 11:-0.106258 12:0.0546812 13:0.0342517 14:0.905029 15:0.259609 16:0.0958052 17:-0.300425 18:0.355975 19:0.00217497 20:0.057977 21:0.290444 22:0.0511767 23:-0.284357 24:0.143987 25:0.347472 26:-0.320277 27:0.315057 28:-0.389236 29:0.06041 30:0.327209 
0.9823907073870134 1:0.613918 2:0.238648 3:0.422071 4:0.0066623 5:0.573064 6:0.213579 7:-0.311707 8:0.32099 9:-0.248081 10:0.419477 11:-0.047574 12:-0.129967 13:0.172449 14:0.681017 15:0.245616 16:-0.0359551 17:-0.301978 18:0.298417 19:-0.0160039 20:0.142887 21:0.390596 22:0.0561007 23:-0.68468 24:-0.0481007 25:0.471731 26:-0.163224 27:0.22001 28:-0.322072 29:-0.0387903 30:0.0254387 
1.0738756141725314 1:0.676694 2:-0.0158652 3:0.296426 4:-0.0430759 5:0.440059 6:0.173716 7:0.0189832 8:0.596575 9:-0.23852 10:0.357329 11:0.00137297 12:-0.246531 13:0.288957 14:0.309649 15:0.498283 16:0.0402397 17:-0.221276 18:0.334113 19:-0.0722772 20:0.280811 21:0.0304397 22:-0.000398262 23:-0.614313 24:-0.0981853 25:0.457502 26:-0.118556 27:0.106958 28:-0.12747 29:0.0162751 30:0.190941 
0.25321437071253933 1:0.522012 2:0.369184 3:0.205418 4:0.0681021 5:0.577511 6:0.0972882 7:-0.154471 8:0.586603 9:-0.293677 10:0.38582 11:-0.0742469 12:-0.302477 13:-0.169473 14:0.400117 15:0.378955 16:0.295521 17:-0.204548 18:0.482145 19:-0.110891 20:0.132936 21:0.238133 22:0.367125 23:-0.68812 24:-0.0542729 25:0.604481 26:-0.157063 27:0.346164 28:-0.314226 29:0.0593341 30:0.0326798 
0.45142532331487562 1:0.661072 2:0.239027 3:0.029463 4:0.0289372 5:0.701761 6:0.161416 7:-0.234492 8:0.203161 9:-0.237543 10:0.249139 11:-0.1253 12:-0.204743 13:0.102248 14:0.205064 15:0.232349 16:0.194613 17:-0.135525 18:0.408157 19:0.0131634 20:0.169714 21:0.490815 22:-0.00463432 23:-0.526455 24:-0.0501428 25:0.395531 26:-0.0632413 27:0.23871 28:-0.280409 29:-0.129049 30:0.128476 
1.0549196649337071 1:0.45002 2:0.220774 3:0.458333 4:0.0620157 5:0.504641 6:0.162291 7:-0.101143 8:0.647756 9:-0.308927 10:0.416798 11:-0.0307251 12:0.0144739 13:-0.211439 14:0.195426 15:0.381899 16:0.0872659 17:-0.264556 18:0.234669 19:-0.0784613 20:0.0994518 21:0.206738 22:0.298552 23:-0.570652 24:-0.149746 25:0.511242 26:-0.156164 27:0.158452 28:-0.283699 29:-0.0469759 30:-0.24273 
0.88575192652697965 1:0.6349 2:0.0373089 3:0.320851 4:-0.052788 5:0.558859 6:0.179598 7:-0.244683 8:0.450259 9:-0.0718129 10:0.377793 11:0.0228739 12:-0.146706 13:0.0401587 14:0.480714 15:0.417065 16:0.217648 17:-0.211044 18:0.503965 19:0.0236975 20:0.0728207 21:0.184734 22:0.309287 23:-0.626858 24:-0.00116138 25:0.461983 26:-0.209208 27:0.0364864 28:-0.229683 29:-0.00343995 30:-0.15803 
0.75846503458653658 1:0.590387 2:0.0723642 3:0.169857 4:0.0236257 5:0.46245 6:0.186394 7:-0.298368 8:0.129175 9:-0.363263 10:0.45506 11:-0.0682485 12:-0.0509749 13:0.000106458 14:0.576525 15:0.53592 16:0.211506 17:-0.195826 18:0.625214 19:-0.0385757 20:0.139926 21:0.302872 22:0.240659 23:-0.576715 24:0.176337 25:0.355135 26:-0.135454 27:0.116089 28:-0.133177 29:0.115193 30:-0.216218 
0.088174793522131548 1:0.547775 2:0.107464 3:0.228855 4:-0.0554319 5:0.5338 6:0.207752 7:-0.18128 8:0.446571 9:-0.295802 10:0.348354 11:-0.115223 12:-0.146302 13:-0.0986996 14:0.214864 15:0.33214 16:0.252225 17:-0.270375 18:0.409997 19:-0.109236 20:0.196368 21:0.206274 22:0.15693 23:-0.376601 24:-0.204016 25:0.515382 26:-0.228467 27:0.209866 28:-0.129707 29:0.0274498 30:0.0944251 
0.61473878614423305 1:0.522343 2:0.110521 3:0.101586 4:0.135209 5:0.499046 6:0.198775 7:-0.406483 8:0.512598 9:-0.212507 10:0.326745 11:0.0833111 12:-0.0395574 13:-0.175975 14:0.359375 15:0.386461 16:0.229678 17:-0.194396 18:0.33223 19:-0.0296624 20:0.138967 21:0.211592 22:0.0250724 23:-0.311728 24:-0.137334 25:0.401023 26:-0.200292 27:0.229856 28:-0.105958 29:0.0233891 30:0.0647133 
2.2112184168009561 1:0.555595 2:0.185686 3:0.1034 4:0.0262696 5:0.378692 6:0.0308324 7:-0.101819 8:0.31495 9:-0.191741 10:0.362443 11:-0.0407358 12:-0.145494 13:-0.00542209 14:0.632248 15:0.497955 16:0.13994 17:-0.185123 18:0.371593 19:-0.0558189 20:0.265639 21:0.303468 22:0.0441347 23:-0.376887 24:-0.0906847 25:0.457514 26:-0.282287 27:0.267077 28:-0.404653 29:0.0749346 30:-0.146278 
1.8350095926962242 1:0.571015 2:0.1492 3:0.205704 4:0.0223953 5:0.541257 6:0.0680708 7:-0.247598 8:0.363664 9:-0.276679 10:0.35318 11:-0.0866769 12:-0.101569 13:-0.00849019 14:0.508879 15:0.362108 16:0.0149813 17:-0.191931 18:0.400542 19:-0.0245155 20:0.240666 21:0.240493 22:0.181064 23:-0.527115 24:-0.00718606 25:0.415098 26:-0.262106 27:0.0388486 28:-0.174743 29:0.0735388 30:0.171112 
6.8195678080586593 1:0.605546 2:0.128506 3:0.266283 4:0.0826832 5:0.53852 6:0.0684207 7:-0.32409 8:0.360615 9:-0.172567 10:0.462062 11:-0.15184 12:-0.19524 13:0.0474322 14:0.408097 15:0.447375 16:0.193176 17:-0.260938 18:0.351492 19:-0.0598766 20:0.217654 21:0.195411 22:0.184504 23:-0.552804 24:-0.214711 25:0.550325 26:-0.24344 27:0.130481 28:-0.310772 29:-0.0574149 30:0.0693063 
2.0282308141592282 1:0.52975 2:-0.0436907 3:0.302075 4:0.0285445 5:0.406552 6:0.130718 7:-0.0589086 8:0.278991 9:-0.19743 10:0.351523 11:0.0068915 12:-0.0260495 13:0.0231629 14:0.43906 15:0.426808 16:0.209019 17:-0.280297 18:0.336167 19:-0.0904074 20:0.0559211 21:0.314411 22:0.170076 23:-0.513984 24:-0.127147 25:0.472595 26:-0.245421 27:0.219097 28:-0.314209 29:-0.0154405 30:-0.137219 
4.3278038110374677 1:0.562338 2:0.316233 3:0.255143 4:0.0345353 5:0.59756 6:0.223081 7:-0.214622 8:0.36645 9:-0.177467 10:0.393272 11:-0.116156 12:0.0324258 13:-0.030659 14:0.542177 15:0.525961 16:0.168205 17:-0.192999 18:0.35342 19:0.0555429 20:0.233046 21:0.252616 22:0.215912 23:-0.5092 24:-0.250496 25:0.450458 26:-0.186486 27:0.3627 28:-0.243211 29:0.0179863 30:0.126639 
0.92707231784243704 1:0.59007 2:0.145509 3:0.182043 4:0.0897906 5:0.540622 6:0.211224 7:-0.121549 8:0.380167 9:-0.227788 10:0.356321 11:-0.116209 12:-0.187353 13:-0.00374036 14:0.547124 15:0.40338 16:0.206906 17:-0.247722 18:0.424044 19:-0.041688 20:0.179956 21:0.253624 22:0.12042 23:-0.527474 24:-0.0574038 25:0.494174 26:-0.241334 27:0.0989181 28:-0.28485 29:0.0295289 30:0.04707 
9.3819464226050222 1:0.611184 2:0.19335 3:0.187622 4:0.00810209 5:0.629375 6:0.0922684 7:-0.191318 8:0.248735 9:-0.266347 10:0.362011 11:-0.103299 12:-0.0221324 13:-0.02149 14:0.379419 15:0.430846 16:0.273124 17:-0.169436 18:0.367141 19:-0.078088 20:0.168313 21:0.306002 22:0.135594 23:-0.573199 24:-0.035277 25:0.476588 26:-0.209691 27:0.208337 28:-0.240366 29:0.0245333 30:0.185176 
3.6737770536322838 1:0.576614 2:0.144818 3:0.298152 4:0.0291937 5:0.541098 6:0.15972 7:-0.137383 8:0.335864 9:-0.297995 10:0.445091 11:-0.120075 12:-0.162709 13:-0.0679744 14:0.550904 15:0.373648 16:0.241948 17:-0.208161 18:0.395522 19:-0.0241844 20:0.194039 21:0.259566 22:0.156684 23:-0.576088 24:-0.16707 25:0.465556 26:-0.24836 27:0.222233 28:-0.295064 29:0.00546089 30:-0.195724 
6.173079177366434 1:0.546336 2:0.216222 3:0.30333 4:0.0404374 5:0.517214 6:0.15363 7:-0.204035 8:0.398532 9:-0.270956 10:0.448275 11:-0.035124 12:-0.101449 13:-0.0226802 14:0.355548 15:0.450239 16:0.152704 17:-0.187688 18:0.36441 19:-0.0688849 20:0.252029 21:0.268594 22:0.138912 23:-0.547837 24:0.00319381 25:0.433617 26:-0.266682 27:0.166416 28:-0.312848 29:0.0137918 30:-0.00553057 
3.5475069680032343 1:0.524257 2:0.146 3:0.207709 4:0.0976178 5:0.42424 6:0.146145 7:-0.0972715 8:0.328315 9:-0.166107 10:0.385531 11:-0.0921634 12:-0.0434569 13:-0.0409742 14:0.461883 15:0.390677 16:0.158801 17:-0.197759 18:0.323602 19:-0.180003 20:0.207662 21:0.256687 22:0.161961 23:-0.60211 24:-0.0935398 25:0.444941 26:-0.193457 27:0.167996 28:-0.235163 29:0.0427741 30:0.107412 
5.8233118969067315 1:0.611541 2:0.0644873 3:0.219395 4:0.0070288 5:0.506843 6:0.117408 7:-0.150669 8:0.416483 9:-0.277844 10:0.402867 11:-0.0740603 12:-0.073817 13:0.0562927 14:0.464147 15:0.36 16:0.226712 17:-0.180493 18:0.341058 19:-0.0165395 20:0.179775 21:0.238053 22:0.116546 23:-0.504809 24:-0.0910235 25:0.527589 26:-0.239178 27:0.240854 28:-0.217054 29:-0.00555394 30:0.0537219 
6.2529458367849751 1:0.548132 2:0.234564 3:0.218907 4:0.0866099 5:0.548529 6:0.170567 7:-0.13799 8:0.345451 9:-0.224016 10:0.390609 11:-0.0734737 12:-0.091173 13:-0.0411726 14:0.558908 15:0.438646 16:0.187867 17:-0.15514 18:0.394937 19:-0.110274 20:0.172016 21:0.225227 22:0.111785 23:-0.596864 24:-0.00571014 25:0.523184 26:-0.244788 27:0.182451 28:-0.274313 29:0.00576621 30:0.0476718 
18.325167979651876 1:0.590823 2:0.239094 3:0.267695 4:0.0872644 5:0.530625 6:0.10679 7:-0.136567 8:0.347324 9:-0.315216 10:0.405143 11:-0.0856545 12:-0.0662568 13:0.0474983 14:0.437452 15:0.523707 16:0.18733 17:-0.203076 18:0.324344 19:-0.0289985 20:0.198684 21:0.251369 22:0.120167 23:-0.547881 24:-0.00890394 25:0.502316 26:-0.219372 27:0.157896 28:-0.223182 29:-0.0205874 30:-0.021777 
25.059901680462414 1:0.556436 2:0.204775 3:0.166597 4:0.043856 5:0.483266 6:0.155976 7:-0.200583 8:0.364787 9:-0.22291 10:0.445711 11:-0.126446 12:-0.111804 13:0.0491514 14:0.39902 15:0.402144 16:0.182079 17:-0.142167 18:0.325856 19:-0.00524266 20:0.158155 21:0.271895 22:0.160722 23:-0.507242 24:-0.0719066 25:0.557622 26:-0.262927 27:0.200923 28:-0.248492 29:0.0165935 30:0.0214919 
16.077299443826522 1:0.571759 2:0.146313 3:0.190865 4:0.0600654 5:0.515433 6:0.135743 7:-0.0859142 8:0.347671 9:-0.226122 10:0.379615 11:-0.099964 12:-0.100202 13:0.0197289 14:0.438026 15:0.371213 16:0.216614 17:-0.158151 18:0.364156 19:-0.108343 20:0.209457 21:0.306227 22:0.192433 23:-0.527457 24:-4.8391e-05 25:0.469813 26:-0.234784 27:0.174815 28:-0.288125 29:0.0382524 30:-0.0185619 
2.429116468386272 1:0.579018 2:0.135044 3:0.264086 4:0.0415437 5:0.525311 6:0.149199 7:-0.080597 8:0.330846 9:-0.207267 10:0.351019 11:-0.124607 12:-0.124363 13:-0.0350452 14:0.465057 15:0.451976 16:0.170105 17:-0.178265 18:0.36568 19:-0.0242493 20:0.201001 21:0.280769 22:0.157907 23:-0.491161 24:0.00600048 25:0.501142 26:-0.216887 27:0.184532 28:-0.254884 29:0.0160875 30:-0.0503643 
28.794102436767513 1:0.555289 2:0.0945666 3:0.163616 4:0.0701832 5:0.496016 6:0.158007 7:-0.174521 8:0.365961 9:-0.230266 10:0.357459 11:-0.108424 12:-0.0847479 13:-0.0183624 14:0.391623 15:0.407233 16:0.157963 17:-0.204668 18:0.390759 19:-0.024087 20:0.211732 21:0.273127 22:0.149538 23:-0.560407 24:-0.178224 25:0.47916 26:-0.233354 27:0.202084 28:-0.255981 29:0.0338616 30:0.0450111 
72.609634359108696 1:0.568308 2:0.190838 3:0.209135 4:-0.0259817 5:0.542406 6:0.136675 7:-0.149827 8:0.358801 9:-0.184596 10:0.372389 11:-0.101124 12:-0.0942789 13:0.0186202 14:0.415209 15:0.408469 16:0.215685 17:-0.227526 18:0.354114 19:-0.026843 20:0.203303 21:0.270465 22:0.110572 23:-0.552462 24:-0.0488991 25:0.476849 26:-0.211513 27:0.180835 28:-0.245674 29:0.018565 30:-0.0708901 
13.366671553331891 1:0.588195 2:0.165556 3:0.260391 4:0.0644503 5:0.498593 6:0.113209 7:-0.144286 8:0.349879 9:-0.185915 10:0.443334 11:-0.0832685 12:-0.0786615 13:0.0354419 14:0.425715 15:0.418682 16:0.184144 17:-0.249625 18:0.373594 19:-0.03261 20:0.174372 21:0.283547 22:0.147652 23:-0.537369 24:-0.0702395 25:0.471529 26:-0.230732 27:0.21471 28:-0.240804 29:0.0240942 30:0.0656636 
31.562266526134181 1:0.575426 2:0.121299 3:0.23105 4:0.0437984 5:0.57999 6:0.132441 7:-0.192316 8:0.360263 9:-0.195682 10:0.395549 11:-0.0584111 12:-0.0833304 13:0.0034525 14:0.437356 15:0.460303 16:0.149363 17:-0.172069 18:0.379477 19:-0.0158254 20:0.192966 21:0.263174 22:0.161923 23:-0.54999 24:-0.0554295 25:0.473119 26:-0.236046 27:0.144457 28:-0.261368 29:0.0269846 30:0.0803611 
67.422908162946541 1:0.602641 2:0.154201 3:0.170485 4:0.0144241 5:0.537509 6:0.177148 7:-0.161287 8:0.345783 9:-0.273184 10:0.354333 11:-0.0983218 12:-0.0665905 13:0.0138373 14:0.477914 15:0.420936 16:0.176614 17:-0.226608 18:0.373647 19:-0.0450073 20:0.175735 21:0.264256 22:0.170583 23:-0.505702 24:-0.0424704 25:0.475689 26:-0.236499 27:0.164802 28:-0.245823 29:0.0114945 30:0.0184764 
102.16057340713057 1:0.589753 2:0.164304 3:0.212079 4:0.0721859 5:0.50931 6:0.179167 7:-0.111194 8:0.345691 9:-0.221044 10:0.385258 11:-0.0764063 12:-0.091639 13:0.0206083 14:0.447728 15:0.404834 16:0.184458 17:-0.2028 18:0.364021 19:-0.0185197 20:0.19841 21:0.281358 22:0.144421 23:-0.534577 24:-0.0871522 25:0.489446 26:-0.229479 27:0.14128 28:-0.26663 29:-0.00257924 30:0.0734558 
93.619306514781556 1:0.529354 2:0.179991 3:0.216851 4:0.0361099 5:0.523335 6:0.132696 7:-0.182813 8:0.342454 9:-0.21331 10:0.358136 11:-0.0703279 12:-0.104697 13:0.00360701 14:0.444604 15:0.440778 16:0.189721 17:-0.231482 18:0.351409 19:-0.0588541 20:0.186765 21:0.257606 22:0.167429 23:-0.510093 24:-0.0354464 25:0.476627 26:-0.223824 27:0.166541 28:-0.240577 29:0.00889794 30:0.0511562 
41.060601925042192 1:0.594863 2:0.182477 3:0.240342 4:0.0302435 5:0.503433 6:0.130503 7:-0.171267 8:0.344821 9:-0.236686 10:0.367069 11:-0.104909 12:-0.11349 13:-0.0157593 14:0.450337 15:0.435388 16:0.166067 17:-0.229376 18:0.392884 19:-0.0796949 20:0.17234 21:0.263151 22:0.163154 23:-0.543226 24:-0.0915074 25:0.474934 26:-0.246077 27:0.15861 28:-0.242602 29:0.0125938 30:0.0428888 
129.20772447607916 1:0.536815 2:0.151568 3:0.217048 4:0.0299476 5:0.483443 6:0.138682 7:-0.168598 8:0.3532 9:-0.235949 10:0.417979 11:-0.0775127 12:-0.0911557 13:-0.0197267 14:0.435029 15:0.464662 16:0.201064 17:-0.198202 18:0.401626 19:-0.0384673 20:0.197478 21:0.274452 22:0.132828 23:-0.536274 24:-0.0701718 25:0.496989 26:-0.233133 27:0.167958 28:-0.257123 29:0.0266793 30:-0.0139183 
24.365431650178984 1:0.571281 2:0.14127 3:0.217186 4:0.0683246 5:0.558721 6:0.150073 7:-0.242747 8:0.346331 9:-0.221468 10:0.371038 11:-0.098595 12:-0.0975812 13:0.0353758 14:0.433951 15:0.459715 16:0.214801 17:-0.230712 18:0.368407 19:-0.0483996 20:0.191872 21:0.273964 22:0.147679 23:-0.532055 24:-0.0487201 25:0.481525 26:-0.246305 27:0.216933 28:-0.268694 29:0.0277988 30:0.0171524 
122.81386097796947 1:0.56804 2:0.168015 3:0.179289 4:0.0388979 5:0.525307 6:0.120032 7:-0.162528 8:0.346268 9:-0.211674 10:0.371372 11:-0.098767 12:-0.0778974 13:-0.0221953 14:0.448781 15:0.428741 16:0.193711 17:-0.226419 18:0.341942 19:-0.0490083 20:0.18226 21:0.260633 22:0.154115 23:-0.540074 24:-0.0342608 25:0.474021 26:-0.252684 27:0.217171 28:-0.254957 29:0.0311864 30:0.0461514 
122.27488505781722 1:0.560989 2:0.190599 3:0.218358 4:0.0250131 5:0.535986 6:0.18922 7:-0.196875 8:0.349376 9:-0.202406 10:0.38081 11:-0.103815 12:-0.099863 13:0.0187701 14:0.434792 15:0.437534 16:0.149154 17:-0.231117 18:0.360031 19:-0.0402873 20:0.174807 21:0.262694 22:0.175308 23:-0.55364 24:-0.0894992 25:0.470581 26:-0.242053 27:0.213856 28:-0.254577 29:0.04369 30:-0.0221286 
92.095424885179426 1:0.585686 2:0.164675 3:0.20785 4:0.0545942 5:0.522574 6:0.145108 7:-0.242327 8:0.338895 9:-0.172961 10:0.377601 11:-0.0944187 12:-0.0869577 13:-0.0170862 14:0.426468 15:0.448505 16:0.201169 17:-0.20427 18:0.338135 19:-0.0544068 20:0.197889 21:0.267214 22:0.140768 23:-0.515413 24:-0.0660755 25:0.468474 26:-0.238504 27:0.192943 28:-0.263346 29:0.0106623 30:-0.0107349 
51.998694395805394 1:0.569402 2:0.120897 3:0.216918 4:0.0306335 5:0.53403 6:0.144484 7:-0.189424 8:0.334285 9:-0.186875 10:0.396787 11:-0.107985 12:-0.0927184 13:-0.000402469 14:0.457027 15:0.437485 16:0.173061 17:-0.165845 18:0.35097 19:-0.0440724 20:0.189563 21:0.274591 22:0.139488 23:-0.540211 24:-0.0164529 25:0.472519 26:-0.23438 27:0.187541 28:-0.249095 29:-0.00327275 30:-0.0219005 
300.43641935078614 1:0.58731 2:0.160602 3:0.226114 4:0.0366558 5:0.505954 6:0.144231 7:-0.172127 8:0.35462 9:-0.220476 10:0.377595 11:-0.0968062 12:-0.0824943 13:-0.0126119 14:0.437538 15:0.443014 16:0.173146 17:-0.197596 18:0.374367 19:-0.0268479 20:0.180571 21:0.270071 22:0.144949 23:-0.515066 24:-0.0630801 25:0.473986 26:-0.249952 27:0.190122 28:-0.258008 29:-0.0108316 30:0.020095 
-1.1652612064185097 1:0.558582 2:-0.738034 3:0.384693 4:0.687173 5:0.113822 6:0.366799 7:0.851912 8:0.533333 9:0.287183 10:-1 11:0.0498534 12:-1 13:-0.870399 14:0.267553 15:0.655248 16:-0.601049 17:-0.042052 18:-0.139333 19:0.445545 20:0.366913 21:-0.0781882 22:-0.288378 23:0.697396 24:-0.595209 25:0.0325065 26:-0.794705 27:-0.0479404 28:0.174191 29:0.598866 30:-0.166424 
-1.165057344832849 1:0.821999 2:-0.438358 3:-0.166841 4:1 5:-0.531727 6:-0.0923895 7:-0.363993 8:1 9:-1 10:0.306533 11:-0.131778 12:-0.155665 13:0.12451 14:-0.295765 15:0.149478 16:-0.193109 17:-0.0317921 18:0.854963 19:1 20:-0.0127467 21:0.475695 22:-0.216148 23:-0.789394 24:-0.936366 25:0.950514 26:-0.183979 27:0.973598 28:0.0513091 29:-0.101425 30:-0.960722 
-1.1654122422829836 1:1 2:-0.00401651 3:0.269735 4:-0.392277 5:0.121495 6:0.181885 7:-0.279991 8:0.965378 9:-0.535984 10:0.90175 11:-0.368835 12:-0.704549 13:0.0872162 14:0.419972 15:1 16:0.163266 17:0.00627742 18:0.0683115 19:-0.0832982 20:0.0647478 21:-0.0952981 22:-0.352462 23:-0.515782 24:-0.582628 25:0.670264 26:-0.613694 27:-0.47871 28:-0.584178 29:-0.381797 30:0.367437 
-1.1656089026236991 1:0.650905 2:0.275957 3:-0.0113319 4:0.303141 5:0.687831 6:-0.226432 7:-0.656017 8:0.549158 9:0.193797 10:0.399049 11:0.119168 12:-0.337432 13:0.924399 14:0.552514 15:0.480963 16:0.550562 17:-0.308377 18:0.379991 19:-0.393605 20:0.184483 21:0.358883 22:1 23:-0.361813 24:0.17099 25:0.539241 26:-0.0220923 27:0.122164 28:-0.751641 29:0.218959 30:-0.445676 
-1.1652282568388628 1:0.698138 2:0.287002 3:-0.00226639 4:0.189529 5:0.386149 6:0.180728 7:-0.206437 8:0.669395 9:0.279815 10:0.309875 11:-0.200107 12:0.0331811 13:-0.460216 14:0.370482 15:0.312767 16:0.297318 17:-0.0327371 18:0.112664 19:-0.140107 20:0.272135 21:0.517342 22:0.316383 23:-0.960844 24:-0.155916 25:0.41193 26:-0.278577 27:0.434839 28:-0.123969 29:-0.0160512 30:0.303326 
-1.1650551832039395 1:0.584075 2:-0.199152 3:0.286715 4:0.191754 5:0.288342 6:-0.0699145 7:-0.273951 8:0.25564 9:-0.48218 10:0.622704 11:0.192349 12:-0.169717 13:0.0781133 14:0.800257 15:0.383117 16:0.560899 17:-0.482956 18:0.62664 19:0.18049 20:0.631853 21:0.42715 22:-0.0881608 23:-0.310207 24:-0.343334 25:0.562419 26:-0.0226544 27:0.266819 28:-0.0728702 29:0.123553 30:-0.313272 
-1.1926532164383887 1:0.553104 2:0.429209 3:0.189888 4:-0.0798429 5:0.690939 6:0.318619 7:-0.31194 8:0.30524 9:-0.227102 10:0.395693 11:-0.234338 12:-0.302125 13:-0.107582 14:0.278147 15:0.541227 16:0.0961648 17:-0.257496 18:0.436552 19:-0.166239 20:0.205167 21:0.00285165 22:0.126991 23:-0.443148 24:0.052722 25:0.503213 26:-0.0300748 27:0.318372 28:-0.106606 29:0.16182 30:0.232784 
-1.1651663612811924 1:0.754391 2:0.611737 3:0.105962 4:-0.0752225 5:0.476222 6:0.128053 7:-0.134701 8:0.655659 9:-0.188965 10:0.128575 11:0.0617169 12:-0.146742 13:0.233194 14:0.250169 15:0.226897 16:0.063236 17:-0.111765 18:0.364272 19:0.108473 20:0.0807977 21:0.438026 22:0.204345 23:-0.776278 24:0.307283 25:0.513817 26:-0.00320423 27:0.20268 28:-0.399433 29:0.129136 30:-0.766867 
-1.2303862644647503 1:0.385712 2:0.344126 3:0.157967 4:-0.030589 5:0.546208 6:0.0400511 7:-0.287243 8:0.23402 9:0.0442084 10:0.308348 11:-0.160344 12:-0.192991 13:0.162618 14:0.495088 15:0.0498864 16:0.199281 17:-0.189922 18:0.317727 19:0.0127577 20:0.113788 21:0.367372 22:0.13773 23:-0.419331 24:0.241471 25:0.488829 26:-0.181753 27:0.0875236 28:-0.105325 29:-0.0605263 30:0.214634 
-1.2341040711808644 1:0.644606 2:0.0914426 3:0.185443 4:0.0718194 5:0.799115 6:0.231801 7:-0.200956 8:0.154765 9:-0.237954 10:0.446777 11:-0.216036 12:-0.0412261 13:0.250386 14:0.495975 15:0.657065 16:0.261528 17:-0.339048 18:0.529236 19:-0.278364 20:0.247382 21:0.358499 22:0.0817886 23:-0.514708 24:0.187031 25:0.608281 26:-0.242011 27:0.0776576 28:-0.150069 29:0.0255161 30:-0.243902 
-1.2856789392749475 1:0.471187 2:0.266139 3:0.354951 4:0.0559162 5:0.537596 6:0.0765359 7:-0.0913946 8:0.24674 9:-0.15096 10:0.281755 11:-0.167515 12:-0.0351836 13:-0.149129 14:0.4098 15:0.540881 16:0.105213 17:-0.145663 18:0.317056 19:0.0496348 20:0.111719 21:0.260871 22:0.0752896 23:-0.444573 24:0.0688604 25:0.61068 26:0.04559 27:0.0300149 28:-0.333695 29:-0.131957 30:-0.168641 
-1.9334319643611444 1:0.595867 2:0.287582 3:0.304759 4:-0.00697644 5:0.366906 6:0.126977 7:-0.161889 8:0.174165 9:-0.501542 10:0.386307 11:-0.0883818 12:0.109608 13:-0.0595107 14:0.441591 15:0.70995 16:0.200255 17:-0.252055 18:0.429792 19:-0.127804 20:0.169612 21:0.178487 22:0.0245836 23:-0.495647 24:0.113356 25:0.538093 26:-0.189274 27:-0.0352357 28:-0.324552 29:0.0657604 30:-0.016541 
-1.0205222137282186 1:0.520362 2:0.186092 3:0.306764 4:0.192932 5:0.537301 6:0.125523 7:-0.345896 8:0.312052 9:-0.331306 10:0.386473 11:-0.135044 12:0.0749868 13:-0.065043 14:0.341804 15:0.616611 16:0.131371 17:-0.331097 18:0.457131 19:-0.070573 20:0.120943 21:0.402082 22:0.168755 23:-0.620699 24:-0.0563683 25:0.543672 26:-0.187183 27:0.155653 28:-0.240026 29:-0.107284 30:-0.000750713 
-1.2932296376720109 1:0.542216 2:0.0643088 3:0.203832 4:0.070877 5:0.3576 6:0.211009 7:-0.127146 8:0.262132 9:-0.146744 10:0.425585 11:-0.229939 12:-0.132461 13:-0.0254794 14:0.255326 15:0.450254 16:0.239596 17:-0.211772 18:0.273488 19:-0.0312173 20:0.258621 21:0.365807 22:0.225253 23:-0.506653 24:-0.0724292 25:0.4204 26:-0.232221 27:0.243712 28:-0.184421 29:0.0296743 30:-0.273456 
-0.2846807474923011 1:0.492883 2:0.182847 3:0.229303 4:0.00459424 5:0.390005 6:0.150133 7:-0.37423 8:0.092671 9:-0.144465 10:0.422301 11:-0.043735 12:-0.098514 13:-0.00669826 14:0.419333 15:0.63871 16:0.120869 17:-0.0872899 18:0.38775 19:-0.0693232 20:0.238295 21:0.288666 22:-0.0414555 23:-0.52038 24:-0.0105008 25:0.432999 26:-0.271168 27:0.419553 28:-0.312005 29:0.0261849 30:-0.0191511 
-1.2059988793337866 1:0.700647 2:0.0958608 3:0.152266 4:0.0964398 5:0.457255 6:0.122078 7:-0.0957323 8:0.257842 9:-0.245768 10:0.377866 11:-0.211544 12:-0.211242 13:-0.105003 14:0.41839 15:0.390368 16:0.145618 17:-0.219062 18:0.468796 19:0.0260672 20:0.125905 21:0.366921 22:0.202552 23:-0.581638 24:-0.108517 25:0.481993 26:-0.255259 27:0.152873 28:-0.422064 29:-0.0484879 30:-0.2758 
-2.3285847578702992 1:0.547854 2:0.0899029 3:0.283124 4:0.0893979 5:0.565804 6:0.0551376 7:-0.0461054 8:0.384288 9:-0.288845 10:0.420485 11:-0.116529 12:-0.154154 13:0.111373 14:0.274904 15:0.615738 16:0.184763 17:-0.193999 18:0.33514 19:-0.0164908 20:0.211047 21:0.31766 22:-0.0619117 23:-0.485725 24:-0.0111541 25:0.39875 26:-0.163899 27:0.275494 28:-0.367545 29:0.0532277 30:0.162939 
-2.0354035606928993 1:0.657573 2:0.209506 3:0.081189 4:0.0465681 5:0.466109 6:0.160689 7:-0.0461754 8:0.32496 9:-0.230778 10:0.471742 11:-0.174167 12:-0.160759 13:0.0780031 14:0.463026 15:0.33025 16:0.158142 17:-0.215376 18:0.32356 19:-0.0888817 20:0.119504 21:0.362517 22:0.171977 23:-0.584167 24:-0.0423445 25:0.534836 26:-0.243343 27:0.128893 28:-0.308892 29:0.0787147 30:-0.073044 
-2.3497451185161431 1:0.526819 2:0.352962 3:0.187448 4:0.0409563 5:0.522292 6:0.115107 7:-0.160571 8:0.294364 9:-0.193095 10:0.369211 11:-0.128952 12:-0.0222203 13:-0.0743663 14:0.280247 15:0.458137 16:0.169579 17:-0.146568 18:0.327924 19:-0.108781 20:0.204564 21:0.210929 22:0.0441347 23:-0.463372 24:0.179047 25:0.512428 26:-0.28684 27:0.0876427 28:-0.160233 29:0.00134632 30:-0.0707634 
-1.7491673920953521 1:0.627017 2:0.0881401 3:0.213902 4:0.0807461 5:0.740285 6:0.175439 7:-0.147924 8:0.295437 9:-0.284407 10:0.369149 11:-0.00881098 12:-0.117794 13:-0.126251 14:0.488671 15:0.437705 16:0.214846 17:-0.175687 18:0.273702 19:-0.070362 20:0.159046 21:0.304304 22:0.119189 23:-0.51685 24:-0.0540576 25:0.48253 26:-0.24367 27:0.183857 28:-0.120062 29:-0.0165746 30:-0.0627178 
-2.3299584139965295 1:0.602852 2:0.178657 3:0.21314 4:-0.00206806 5:0.561259 6:0.193406 7:-0.0750233 8:0.283639 9:-0.259424 10:0.329756 11:-0.123114 12:-0.138152 13:0.00610536 14:0.427486 15:0.484289 16:0.18233 17:-0.20592 18:0.315502 19:-0.0776497 20:0.203742 21:0.304596 22:0.00409124 23:-0.529188 24:0.0497218 25:0.415325 26:-0.190489 27:0.161983 28:-0.302602 29:0.106906 30:0.010515 
-4.058316205714176 1:0.493913 2:0.193194 3:0.215917 4:0.0456662 5:0.452179 6:0.171267 7:-0.265602 8:0.504055 9:-0.225045 10:0.482461 11:-0.10691 12:-0.0733532 13:-0.0834693 14:0.429425 15:0.533866 16:0.102727 17:-0.145569 18:0.363524 19:-0.0474355 20:0.147423 21:0.292592 22:0.135011 23:-0.464722 24:0.03143 25:0.446923 26:-0.291911 27:0.233132 28:-0.254279 29:0.111486 30:0.00573171 
-5.1426651093597382 1:0.533606 2:0.111124 3:0.161663 4:0.0127356 5:0.516893 6:0.144955 7:-0.203801 8:0.332965 9:-0.222829 10:0.43675 11:-0.169168 12:0.0507992 13:-0.0644699 14:0.501645 15:0.481145 16:0.226202 17:-0.200499 18:0.33929 19:-0.00339231 20:0.0994655 21:0.288892 22:0.157419 23:-0.562117 24:-0.19729 25:0.44051 26:-0.260408 27:0.226918 28:-0.261707 29:-0.0473539 30:0.0621793 
-0.77105491479264898 1:0.608808 2:0.132991 3:0.176569 4:0.0446073 5:0.565253 6:0.148507 7:-0.220989 8:0.262809 9:-0.247927 10:0.339221 11:-0.130552 12:-0.102034 13:0.00936081 14:0.337977 15:0.461194 16:0.145963 17:-0.119447 18:0.347661 19:-0.0635773 20:0.241502 21:0.23869 22:0.129906 23:-0.603935 24:0.00200823 25:0.509954 26:-0.305818 27:0.170708 28:-0.221804 29:0.0426432 30:-0.159233 
-5.8043094176660484 1:0.485382 2:0.128863 3:0.14083 4:0.0497866 5:0.555652 6:0.0816634 7:-0.252542 8:0.433362 9:-0.271247 10:0.356191 11:-0.144761 12:-0.0502723 13:-0.051091 14:0.361685 15:0.39353 16:0.249303 17:-0.238043 18:0.340887 19:-0.0495699 20:0.138336 21:0.224285 22:0.135215 23:-0.482228 24:-0.111009 25:0.504298 26:-0.237649 27:0.169832 28:-0.301889 29:0.0613114 30:-0.152898 
-5.662229280107443 1:0.565483 2:0.223519 3:0.286506 4:0.0498613 5:0.578121 6:0.089819 7:-0.236567 8:0.331145 9:-0.222435 10:0.381559 11:-0.0786857 12:-0.137449 13:0.0541106 14:0.343857 15:0.434266 16:0.238157 17:-0.160229 18:0.398075 19:-0.00267814 20:0.182339 21:0.2202 22:0.172737 23:-0.63429 24:-0.0790636 25:0.465619 26:-0.212952 27:0.171281 28:-0.237513 29:0.0312591 30:0.00777973 
-1.3979034825305026 1:0.54792 2:0.148051 3:0.227533 4:0.0644241 5:0.421328 6:0.163206 7:-0.120406 8:0.404779 9:-0.141929 10:0.414089 11:-0.0489603 12:-0.117688 13:0.0308574 14:0.384996 15:0.406833 16:0.135925 17:-0.284455 18:0.32085 19:-0.0574744 20:0.146532 21:0.201976 22:0.0538016 23:-0.620186 24:-0.0560779 25:0.529748 26:-0.232651 27:0.162747 28:-0.287217 29:0.00927014 30:-0.140576 
-9.9996296617057272 1:0.567396 2:0.071784 3:0.205521 4:0.0507657 5:0.523323 6:0.0978669 7:-0.0658349 8:0.333147 9:-0.253119 10:0.360268 11:-0.121408 12:-0.0557351 13:0.0792153 14:0.548197 15:0.367197 16:0.104824 17:-0.180169 18:0.404991 19:-0.0189417 20:0.242804 21:0.229604 22:0.128331 23:-0.560635 24:-0.0806146 25:0.553254 26:-0.216426 27:0.126114 28:-0.257479 29:-0.0153533 30:0.0917643 
-14.995024426438109 1:0.610934 2:0.22314 3:0.194899 4:0.0577749 5:0.406394 6:0.153025 7:-0.266301 8:0.396971 9:-0.231045 10:0.393488 11:-0.0422287 12:-0.129036 13:0.00291206 14:0.364952 15:0.451199 16:0.195423 17:-0.157138 18:0.321877 19:-0.0440789 20:0.246245 21:0.202653 22:0.16928 23:-0.470785 24:-0.119477 25:0.534962 26:-0.220485 27:0.200546 28:-0.284721 29:0.0123162 30:0.0907824 
-3.0493349787712964 1:0.597306 2:0.242263 3:0.165289 4:0.0234948 5:0.587152 6:0.173447 7:-0.197668 8:0.320124 9:-0.196984 10:0.356854 11:-0.0970088 12:-0.12157 13:-0.0884285 14:0.504095 15:0.466461 16:0.236689 17:-0.231684 18:0.358949 19:-0.0186496 20:0.164912 21:0.254699 22:0.134721 23:-0.612773 24:-0.144254 25:0.48625 26:-0.211693 27:0.17202 28:-0.266345 29:0.0445188 30:-0.0439658 
-7.9578336457605952 1:0.568716 2:0.204485 3:0.280788 4:-0.00386126 5:0.541606 6:0.179086 7:-0.14466 8:0.322006 9:-0.204094 10:0.369953 11:-0.0997467 12:-0.128386 13:4.60657e-05 14:0.476841 15:0.433995 16:0.178548 17:-0.163807 18:0.360531 19:-0.0472959 20:0.162418 21:0.286664 22:0.100742 23:-0.606178 24:0.0146625 25:0.486943 26:-0.216212 27:0.222452 28:-0.252625 29:0.0203111 30:-0.0167406 
-1.9097011460070799 1:0.577869 2:0.161765 3:0.249128 4:0.0839398 5:0.524734 6:0.1705 7:-0.081833 8:0.359723 9:-0.183225 10:0.371346 11:-0.138656 12:-0.103787 13:-0.105951 14:0.446517 15:0.453116 16:0.174737 17:-0.176497 18:0.35811 19:-0.101461 20:0.199561 21:0.305033 22:0.114283 23:-0.562022 24:-0.160489 25:0.460746 26:-0.248863 27:0.23736 28:-0.254112 29:0.0500727 30:-0.0970542 
-27.663328033400678 1:0.560246 2:0.141247 3:0.261593 4:0.0554843 5:0.564073 6:0.138773 7:-0.177062 8:0.395804 9:-0.254438 10:0.421235 11:-0.0922087 12:-0.0624978 13:-0.0355521 14:0.483911 15:0.364089 16:0.196261 17:-0.205218 18:0.323802 19:-0.0243256 20:0.165803 21:0.288481 22:0.147018 23:-0.482608 24:-0.0514953 25:0.466956 26:-0.248493 27:0.196613 28:-0.20368 29:0.0306921 30:-0.0764016 
-3.2941363475221759 1:0.567879 2:0.128595 3:0.286454 4:0.0125131 5:0.554668 6:0.1122 7:-0.0769823 8:0.391871 9:-0.177399 10:0.375507 11:-0.0914343 12:-0.0841718 13:0.0496584 14:0.449684 15:0.455549 16:0.23182 17:-0.224448 18:0.296777 19:-0.0723584 20:0.175266 21:0.276875 22:0.164321 23:-0.54721 24:-0.020179 25:0.478362 26:-0.232784 27:0.120258 28:-0.200389 29:-0.00665891 30:-0.0492556 
-3.7267221799363184 1:0.528694 2:0.0934732 3:0.233734 4:0.0625785 5:0.51067 6:0.167055 7:-0.24333 8:0.351184 9:-0.178718 10:0.377191 11:-0.0814743 12:-0.0728438 13:-0.015032 14:0.411555 15:0.459773 16:0.20364 17:-0.196414 18:0.382829 19:-0.0540042 20:0.163418 21:0.301001 22:0.111694 23:-0.514003 24:0.0304621 25:0.5312 26:-0.218337 27:0.134849 28:-0.337473 29:-0.0114568 30:0.0040133 
-15.169362355699713 1:0.607197 2:0.150401 3:0.177441 4:0.0554974 5:0.549946 6:0.160433 7:-0.236217 8:0.41304 9:-0.218125 10:0.378978 11:-0.0871381 12:-0.12403 13:-0.0474763 14:0.372862 15:0.460327 16:0.21579 17:-0.256848 18:0.40077 19:-0.02938 20:0.168962 21:0.28994 22:0.097882 23:-0.485706 24:-0.007549 25:0.470377 26:-0.2569 27:0.126591 28:-0.266118 29:0.0262867 30:0.077542 
-25.927873981574237 1:0.595788 2:0.17091 3:0.290673 4:0.0505458 5:0.603089 6:0.111513 7:-0.217304 8:0.332902 9:-0.170391 10:0.41612 11:-0.0765662 12:-0.107089 13:-0.0382852 14:0.378836 15:0.433178 16:0.182773 17:-0.165926 18:0.363487 19:-0.00913813 20:0.191314 21:0.245361 22:0.162614 23:-0.517312 24:-0.0755771 25:0.484389 26:-0.232903 27:0.202759 28:-0.246554 29:-0.087729 30:-0.0354767 
-7.197667075478507 1:0.562644 2:0.249983 3:0.209477 4:0.067945 5:0.568146 6:0.143996 7:-0.168232 8:0.309512 9:-0.178187 10:0.409249 11:-0.0781125 12:-0.100896 13:0.0461979 14:0.39608 15:0.431469 16:0.185246 17:-0.195667 18:0.343654 19:-0.0296754 20:0.198794 21:0.268365 22:0.0767198 23:-0.511177 24:-0.103557 25:0.537474 26:-0.233111 27:0.271206 28:-0.239183 29:0.0213463 30:0.0338803 
-7.4540711018625183 1:0.587429 2:0.192525 3:0.179306 4:0.0349411 5:0.479961 6:0.16116 7:-0.102262 8:0.323831 9:-0.179095 10:0.374118 11:-0.109291 12:-0.0954312 13:-0.00174124 14:0.437557 15:0.48736 16:0.165693 17:-0.191838 18:0.323759 19:-0.015939 20:0.157881 21:0.272927 22:0.166749 23:-0.51897 24:-0.0523494 25:0.511734 26:-0.25355 27:0.207821 28:-0.250609 29:0.0244083 30:-0.0365537 
-12.369735857702517 1:0.556457 2:0.222582 3:0.198576 4:0.0284869 5:0.487477 6:0.142967 7:-0.152547 8:0.40557 9:-0.225958 10:0.430714 11:-0.071421 12:-0.073882 13:0.016004 14:0.510839 15:0.494194 16:0.177742 17:-0.216308 18:0.343811 19:-0.0872423 20:0.209882 21:0.26376 22:0.118103 23:-0.531496 24:-0.0148318 25:0.462539 26:-0.246939 27:0.151305 28:-0.239994 29:0.00378453 30:-0.0673424 
-25.232275488677381 1:0.589238 2:0.184581 3:0.188093 4:0.0530288 5:0.587014 6:0.162896 7:-0.195229 8:0.383103 9:-0.202034 10:0.385424 11:-0.0981432 12:-0.0740875 13:0.00463302 14:0.445946 15:0.365161 16:0.172461 17:-0.208445 18:0.34682 19:-0.058708 20:0.174778 21:0.265218 22:0.119117 23:-0.524549 24:-0.0643044 25:0.507896 26:-0.263264 27:0.14928 28:-0.219762 29:0.00439953 30:0.0253785 
-25.894376373215366 1:0.577605 2:0.232132 3:0.204038 4:0.0270419 5:0.524778 6:0.193796 7:-0.184981 8:0.366469 9:-0.204306 10:0.362141 11:-0.0714076 12:-0.10452 13:0.00555213 14:0.424324 15:0.421245 16:0.142277 17:-0.230294 18:0.347219 19:-0.0121733 20:0.173002 21:0.276768 22:0.139071 23:-0.533138 24:-0.120324 25:0.476602 26:-0.237011 27:0.153747 28:-0.288757 29:-0.0464234 30:-0.00829585 
-197.2478515685973 1:0.541754 2:0.173759 3:0.207472 4:0.041719 5:0.522996 6:0.122751 7:-0.168486 8:0.368595 9:-0.218417 10:0.395174 11:-0.0877499 12:-0.139645 13:-0.0331717 14:0.453532 15:0.434526 16:0.160839 17:-0.203244 18:0.375901 19:-0.0429557 20:0.207401 21:0.272498 22:0.136189 23:-0.529233 24:-0.0466683 25:0.500145 26:-0.250817 27:0.167208 28:-0.2582 29:0.0123815 30:-0.0283497 
-14.119414974149066 1:0.589647 2:0.18675 3:0.240359 4:0.0281885 5:0.525069 6:0.138089 7:-0.119216 8:0.383912 9:-0.201919 10:0.35913 11:-0.104891 12:-0.0547339 13:-0.0644038 14:0.472734 15:0.429352 16:0.179443 17:-0.179791 18:0.365726 19:-0.0414056 20:0.16298 21:0.266662 22:0.147772 23:-0.506102 24:-0.0725526 25:0.470559 26:-0.239288 27:0.23206 28:-0.260313 29:0.00923379 30:0.0793792 
-22.308325769526064 1:0.57159 2:0.169146 3:0.216756 4:0.0372749 5:0.507691 6:0.142034 7:-0.273111 8:0.336668 9:-0.206102 10:0.391208 11:-0.116596 12:-0.0717899 13:-0.0149482 14:0.457314 15:0.466115 16:0.195862 17:-0.190688 18:0.36391 19:-0.0614348 20:0.175624 21:0.271285 22:0.176955 23:-0.531148 24:-0.104113 25:0.498719 26:-0.240493 27:0.15472 28:-0.253473 29:0.0390375 30:-0.0779538 
-24.319589514268408 1:0.553637 2:0.133951 3:0.200153 4:0.0433508 5:0.534099 6:0.163892 7:-0.238479 8:0.34344 9:-0.207128 10:0.398055 11:-0.0889496 12:-0.0935781 13:0.0538241 14:0.463283 15:0.448403 16:0.162697 17:-0.205643 18:0.345665 19:-0.0430758 20:0.213747 21:0.282552 22:0.154721 23:-0.559133 24:-0.0952093 25:0.461895 26:-0.239442 27:0.177959 28:-0.243956 29:0.0122402 30:-0.0159994 
-58.452985969689998 1:0.562865 2:0.189814 3:0.214071 4:0.0288901 5:0.509497 6:0.125577 7:-0.161768 8:0.32639 9:-0.205355 10:0.396341 11:-0.0955372 12:-0.0916064 13:0.0130901 14:0.381076 15:0.434154 16:0.16761 17:-0.212647 18:0.377618 19:-0.0501396 20:0.167955 21:0.259324 22:0.144296 23:-0.54736 24:-0.0669175 25:0.485412 26:-0.235598 27:0.206114 28:-0.221221 29:0.0194461 30:-0.049414 
-83.626141151791614 1:0.572236 2:0.154966 3:0.179847 4:0.0341401 5:0.518778 6:0.148649 7:-0.210401 8:0.335495 9:-0.195082 10:0.366293 11:-0.0978592 12:-0.0969015 13:0.0342297 14:0.430092 15:0.448471 16:0.221049 17:-0.191555 18:0.342199 19:-0.0472147 20:0.157717 21:0.269306 22:0.130865 23:-0.524284 24:-0.0490031 25:0.472936 26:-0.249538 27:0.197284 28:-0.280311 29:-0.00724048 30:-0.0385176 
-223.67398728890888 1:0.586491 2:0.146067 3:0.200894 4:0.0337212 5:0.510312 6:0.17085 7:-0.149324 8:0.373996 9:-0.208451 10:0.394382 11:-0.0809517 12:-0.0839311 13:0.00422526 14:0.432742 15:0.424625 16:0.198757 17:-0.208579 18:0.372925 19:-0.0475702 20:0.182 21:0.273108 22:0.143727 23:-0.514153 24:-0.0514832 25:0.46891 26:-0.234381 27:0.165689 28:-0.255208 29:-0.000157022 30:-0.0156288 
-35.42255082407484 1:0.573922 2:0.180752 3:0.220889 4:0.0364149 5:0.51404 6:0.171913 7:-0.148391 8:0.331305 9:-0.215719 10:0.371364 11:-0.109451 12:-0.0631477 13:0.0250386 14:0.425626 15:0.449577 16:0.187453 17:-0.217941 18:0.349715 19:-0.04652 20:0.183577 21:0.266583 22:0.130865 23:-0.519658 24:-0.0682023 25:0.48976 26:-0.253201 27:0.200665 28:-0.261717 29:-0.00354027 30:0.027618 
-78.919422156440774 1:0.571509 2:0.154783 3:0.227748 4:0.0420258 5:0.510017 6:0.157015 7:-0.192066 8:0.341161 9:-0.219577 10:0.365133 11:-0.088575 12:-0.0884015 13:-0.0200463 14:0.421524 15:0.413158 16:0.208899 17:-0.196327 18:0.349686 19:-0.0335043 20:0.190188 21:0.264255 22:0.160561 23:-0.555218 24:-0.0785265 25:0.489746 26:-0.249381 27:0.174708 28:-0.277669 29:0.033091 30:0.0285683 
-132.4304381470821 1:0.574232 2:0.196095 3:0.186001 4:0.0554974 5:0.518932 6:0.135144 7:-0.178666 8:0.330185 9:-0.220418 10:0.378975 11:-0.0901546 12:-0.0858054 13:0.0072052 14:0.441685 15:0.433556 16:0.184607 17:-0.195302 18:0.363069 19:-0.0463301 20:0.178914 21:0.274496 22:0.13454 23:-0.531138 24:-0.0722284 25:0.471864 26:-0.238028 27:0.1893 28:-0.277474 29:0.0224411 30:0.0531517 
-1.1651770163942297 1:-1 2:-0.0201272 3:-0.149407 4:-1 5:-1 6:-1 7:0.708022 8:0.205193 9:-0.0164496 10:-0.587409 11:-0.0170088 12:-0.116353 13:0.673132 14:0.394563 15:-0.127669 16:-0.0525843 17:-0.538306 18:-0.0269538 19:0.418925 20:0.0794819 21:0.0267259 22:0.497828 23:0.374834 24:0.8045 25:-1 26:-0.469672 27:-0.734194 28:1 29:1 30:1 
-1.1651779704835865 1:0.406972 2:-0.147607 3:0.5197 4:-0.352225 5:-0.824496 6:0.0610322 7:0.365438 8:0.628187 9:0.445168 10:0.474782 11:-0.322181 12:0.0664852 13:-0.0167093 14:0.655443 15:0.710859 16:-1 17:0.325548 18:0.60425 19:0.46064 20:0.598273 21:0.523974 22:0.722846 23:-0.24292 24:0.406726 25:0.42242 26:-0.207218 27:0.457072 28:-0.498744 29:-0.744984 30:-0.472917 
-1.1652321128870957 1:0.984418 2:-1 3:-0.828626 4:0.754843 5:0.331235 6:0.318485 7:-0.121059 8:-0.824631 9:0.357779 10:-0.242095 11:-0.942949 12:-0.471281 13:-1 14:-0.810291 15:-0.902771 16:0.126112 17:-0.732433 18:0.918711 19:0.286479 20:-0.0789474 21:-0.538166 22:0.888849 23:-0.360806 24:-0.619163 25:0.691094 26:0.22705 27:-0.244069 28:-0.147799 29:-0.00497238 30:0.870447 
-1.165352629555082 1:0.859369 2:0.637398 3:0.0828103 4:-0.414005 5:-0.266896 6:0.160097 7:-0.58722 8:0.1399 9:-0.381751 10:1 11:-0.0318315 12:-0.42965 13:-0.342297 14:0.128223 15:0.629623 16:0.227625 17:0.375903 18:0.685396 19:-0.216361 20:-0.149397 21:0.147503 22:-0.0675235 23:0.0349743 24:-0.661263 25:0.35468 26:0.172972 27:0.447146 28:-0.167804 29:-0.109683 30:-1 
-1.1651973629407943 1:0.422686 2:0.411581 3:-0.00801953 4:0.144162 5:0.753271 6:-0.111096 7:-0.822761 8:0.473723 9:-0.445853 10:0.0182237 11:-0.741402 12:0.168804 13:0.219616 14:0.637662 15:0.296865 16:0.287326 17:0.320148 18:0.604107 19:-0.324298 20:0.364857 21:0.17273 22:-0.189356 23:-0.558145 24:-0.0495113 25:-0.192703 26:-0.0801057 27:-0.131514 28:-0.727811 29:0.00155568 30:0.363003 
-1.1654124888460211 1:0.580246 2:0.0596452 3:0.248762 4:-0.0203534 5:0.0311854 6:0.333692 7:0.018097 8:0.1081 9:-0.0320425 10:0.560758 11:0.0947747 12:-0.31407 13:0.569539 14:0.665407 15:0.417301 16:0.28003 17:0.17678 18:0.241786 19:0.33777 20:0.648986 21:0.211712 22:0.524439 23:-0.518643 24:0.651343 25:0.392792 26:-0.232733 27:-0.0108983 28:-0.569101 29:-0.0640884 30:0.520431 
-1.1655771564171096 1:0.265417 2:0.199576 3:0.163947 4:0.509686 5:0.323168 6:-0.189691 7:-0.0424907 8:0.448264 9:-0.513365 10:0.682922 11:0.130099 12:-0.166046 13:-0.12257 14:0.229868 15:0.838801 16:0.402697 17:-0.427202 18:0.477424 19:0.0269274 20:0.471354 21:0.215266 22:0.121904 23:-0.0881962 24:-0.0226228 25:0.725305 26:-0.325965 27:0.467196 28:-0.436654 29:0.0154827 30:0.535318 
-1.1677579431338614 1:0.585765 2:0.151269 3:0.601987 4:0.0453861 5:0.339538 6:-0.00571967 7:0.00443097 8:0.129739 9:0.0335846 10:0.275992 11:-0.427619 12:0.167223 13:0.0345162 14:0.723019 15:0.322017 16:0.18908 17:-0.163186 18:0.304578 19:-0.0231699 20:0.261897 21:0.490285 22:-0.137944 23:-0.787113 24:0.320106 25:0.488933 26:-0.17684 27:-0.0017469 28:-0.315117 29:0.107691 30:0.261039 
-1.1656604557816501 1:0.902945 2:0.278255 3:0.257287 4:0.0314241 5:0.482873 6:-0.237467 7:-0.355877 8:-0.210274 9:-0.337971 10:0.336728 11:-0.169568 12:-0.249921 13:0.208309 14:0.564065 15:0.446234 16:0.11615 17:-0.340398 18:0.291315 19:-0.23454 20:0.174619 21:0.298534 22:0.10572 23:-0.965026 24:0.387128 25:0.795367 26:-0.345629 27:-0.228586 28:-0.0166167 29:-0.0651934 30:0.00220779 
-1.1675964162965229 1:0.947841 2:0.289122 3:-0.0693863 4:0.108168 5:0.764092 6:0.121688 7:-0.354058 8:0.313219 9:-0.237714 10:0.300944 11:0.125167 12:-0.316529 13:0.000976857 14:0.385883 15:0.266515 16:0.294622 17:-0.340263 18:0.366882 19:-0.00582698 20:0.181395 21:0.0045759 22:0.23101 23:-0.160616 24:0.202274 25:0.376027 26:-0.217314 27:0.407444 28:-0.283294 29:-0.105568 30:0.271555 
-1.1647336245710476 1:0.631414 2:0.44349 3:0.38356 4:0.0771597 5:0.685745 6:-0.000740192 7:-0.455224 8:0.429015 9:-0.0869945 10:0.143269 11:0.0862437 12:-0.345512 13:0.080119 14:0.27236 15:0.70995 16:0.282816 17:-0.425582 18:0.0638905 19:0.0359357 20:0.0376919 21:0.419723 22:0.130286 23:-0.379985 24:-0.185846 25:0.60765 26:-0.221148 27:-0.135682 28:-0.419648 29:0.103315 30:-0.604054 
-1.1657556259979707 1:0.745807 2:-0.289077 3:0.206593 4:-0.206937 5:0.76547 6:-0.0576677 7:0.0655317 8:0.272895 9:-0.170288 10:0.575308 11:-0.149493 12:-0.0376603 13:0.353978 14:0.190526 15:0.542644 16:-0.0599251 17:-0.448127 18:0.273417 19:-0.0222026 20:0.300795 21:0.20577 22:0.329363 23:-0.349211 24:-0.0374885 25:0.36887 26:-0.405475 27:0.192151 28:-0.374305 29:0.112504 30:0.282262 
-1.1650946090398269 1:0.92394 2:0.0462791 3:0.154916 4:0.347513 5:0.45088 6:0.309199 7:-0.276446 8:0.386998 9:-0.415524 10:0.418123 11:-0.240603 12:0.00214298 13:0.230108 14:0.598203 15:0.465752 16:-0.194157 17:-0.202838 18:0.56988 19:-0.218146 20:0.252234 21:0.224312 22:0.0185735 23:-0.407432 24:-0.333898 25:0.501471 26:-0.0876384 27:0.131117 28:-0.194666 29:0.239023 30:0.269338 
-1.1652291091368727 1:0.543615 2:-0.0782104 3:0.320746 4:0.00960733 5:0.447122 6:0.211103 7:0.131996 8:0.306275 9:-0.212557 10:0.366677 11:0.0211943 12:0.0916916 13:0.042451 14:0.4669 15:0.619373 16:0.172625 17:0.0147823 18:0.29401 19:-0.0658335 20:0.124548 21:0.310166 22:0.237545 23:-0.788823 24:-0.273288 25:0.619643 26:0.00702681 27:0.277797 28:-0.332058 29:0.0741204 30:0.904023 
-1.1074837870974541 1:0.326159 2:0.486333 3:0.204418 4:0.0652749 5:0.662823 6:0.271462 7:-0.196073 8:0.371455 9:-0.371813 10:0.410617 11:-0.156132 12:0.155981 13:-0.0962971 14:0.444518 15:0.532049 16:0.306052 17:-0.264003 18:0.359492 19:-0.107856 20:0.0568394 21:0.270611 22:0.11193 23:-0.541361 24:-0.327123 25:0.61737 26:-0.228411 27:0.00720596 28:-0.350815 29:-0.0211689 30:-0.0928096 
-1.1082672833456682 1:0.681289 2:0.332344 3:0.214041 4:0.13695 5:0.4824 6:0.146918 7:0.00508396 8:0.16376 9:-0.316535 10:0.223655 11:0.00827779 12:-0.126875 13:-0.115605 14:0.504492 15:0.454164 16:0.408539 17:-0.231239 18:0.624073 19:-0.107012 20:0.304564 21:0.253372 22:0.33798 23:-0.691523 24:-0.241302 25:0.503036 26:-0.254641 27:0.542035 28:0.0209938 29:-0.107589 30:0.0292461 
-1.5828213772529518 1:0.580761 2:-0.0149504 3:0.180997 4:0.0321113 5:0.463394 6:0.221842 7:-0.439599 8:0.409521 9:-0.277125 10:0.457351 11:-0.0642495 12:-0.0691727 13:0.11728 14:0.310396 15:0.406361 16:0.145783 17:-0.226527 18:0.294025 19:-0.0054212 20:0.140392 21:0.308853 22:0.319841 23:-0.733511 24:0.123784 25:0.579739 26:-0.294024 27:0.400496 28:-0.420929 29:0.0270282 30:-0.0244536 
-0.041728655741956236 1:0.513944 2:0.112016 3:0.0505579 4:0.198037 5:0.452533 6:0.00989166 7:-0.117141 8:0.307649 9:-0.137063 10:0.381446 11:-0.13687 12:-0.221237 13:-0.130946 14:0.479477 15:0.522926 16:0.255041 17:-0.14758 18:0.419738 19:0.0617108 20:0.289158 21:0.210836 22:0.171723 23:-0.533866 24:0.106992 25:0.513766 26:-0.20778 27:0.554144 28:-0.276891 29:0.139008 30:0.105892 
-1.8554080698262871 1:0.676522 2:0.396184 3:0.232636 4:0.128901 5:0.381446 6:0.169423 7:-0.304967 8:0.306821 9:-0.25999 10:0.411683 11:-0.0318049 12:-0.29668 13:0.156271 14:0.176759 15:0.488723 16:0.304315 17:-0.187661 18:0.421848 19:0.0554131 20:0.201508 21:0.415081 22:0.103476 23:-0.304315 24:-0.198282 25:0.556624 26:-0.247162 27:0.252903 28:-0.223247 29:0.0324222 30:-0.0540703 
-1.7447623076888152 1:0.731018 2:0.269753 3:0.184327 4:-0.00140052 5:0.540665 6:-0.0181011 7:-0.269333 8:0.363268 9:-0.197447 10:0.362486 11:-0.157785 12:-0.166836 13:-0.0613842 14:0.503232 15:0.566143 16:0.0491236 17:-0.0575768 18:0.367601 19:-0.0791917 20:0.11494 21:0.410173 22:0.0679942 23:-0.476468 24:0.097895 25:0.511254 26:-0.224296 27:0.0118511 28:-0.375294 29:0.0221707 30:0.147355 
-1.0558496638330594 1:0.653334 2:0.0830749 3:0.159013 4:0.0177225 5:0.742056 6:0.193917 7:-0.145429 8:0.262358 9:-0.123886 10:0.410127 11:-0.0527459 12:0.0124539 13:0.168746 14:0.328876 15:0.456463 16:0.0432659 17:-0.115532 18:0.372983 19:0.0850674 20:0.157401 21:0.294555 22:0.0227552 23:-0.388652 24:-0.216574 25:0.415578 26:-0.291371 27:0.275434 28:-0.279695 29:0.0795289 30:-0.157491 
-1.1336293334424992 1:0.655737 2:0.132099 3:0.206609 4:0.0208901 5:0.421643 6:0.23448 7:-0.1665 8:0.420359 9:-0.148886 10:0.439574 11:-0.0272861 12:-0.0190409 13:-0.0802292 14:0.278987 15:0.410032 16:0.200869 17:-0.248721 18:0.335282 19:-0.0109236 20:0.17493 21:0.267859 22:0.161903 23:-0.351283 24:-0.0522744 25:0.35189 26:-0.240239 27:0.270829 28:-0.129335 29:0.0572841 30:0.225784 
-1.2534847824885991 1:0.636115 2:0.203682 3:0.229461 4:-0.0104188 5:0.787113 6:0.12014 7:-0.242957 8:0.271484 9:-0.219512 10:0.384158 11:-0.0904719 12:0.0372036 13:0.114922 14:0.219718 15:0.50239 16:0.21618 17:-0.350523 18:0.365053 19:0.022123 20:0.175824 21:0.247894 22:0.192433 23:-0.515666 24:-0.0489402 25:0.592577 26:-0.227039 27:0.332744 28:-0.287412 29:0.0248444 30:0.103453 
-0.26404537953297497 1:0.497148 2:0.0823162 3:0.3019 4:-0.0104319 5:0.485804 6:0.0316129 7:-0.0765625 8:0.427811 9:-0.308927 10:0.429129 11:-0.0430152 12:-0.0429826 13:-0.155235 14:0.363365 15:0.437794 16:0.175931 17:-0.0944448 18:0.315317 19:-0.158205 20:0.288898 21:0.239127 22:0.237907 23:-0.477134 24:-0.258964 25:0.542195 26:-0.181292 27:0.207484 28:-0.229083 29:-0.00231172 30:-0.0191448 
-3.7473783803274689 1:0.575584 2:0.0658485 3:0.175732 4:0.00942408 5:0.629021 6:0.0826593 7:0.0155317 8:0.164587 9:-0.201871 10:0.388866 11:-0.0608371 12:-0.162884 13:0.0906326 14:0.448489 15:0.373885 16:0.281453 17:-0.126264 18:0.421477 19:-0.119981 20:0.20011 21:0.266451 22:0.0677589 23:-0.569397 24:0.0176869 25:0.383336 26:-0.163933 27:0.243831 28:-0.305098 29:0.0319279 30:-0.141242 
-1.9561030799691428 1:0.5829 2:0.0798617 3:0.225359 4:-0.144764 5:0.504433 6:0.133006 7:-0.289925 8:0.429278 9:-0.188794 10:0.406699 11:-0.134631 12:-0.132777 13:-0.22592 14:0.246156 15:0.484198 16:0.274996 17:-0.141802 18:0.45522 19:-0.0545528 20:0.208799 21:0.252497 22:0.0390297 23:-0.513513 24:-0.250181 25:0.498592 26:-0.282062 27:-0.0523077 28:-0.209451 29:0.0694824 30:0.204751 
-2.6973609809417587 1:0.578648 2:0.320495 3:0.101133 4:0.0959031 5:0.626699 6:0.173407 7:-0.141581 8:0.248452 9:-0.193763 10:0.365059 11:-0.0403492 12:-0.115405 13:0.10443 14:0.301575 15:0.398255 16:0.348315 17:-0.238758 18:0.257929 19:-0.132154 20:0.196162 21:0.367 22:0.0574946 23:-0.720585 24:-0.134309 25:0.411235 26:-0.293361 27:0.192605 28:-0.203615 29:0.0112728 30:0.222395 
-2.5925651519506392 1:0.584418 2:0.345018 3:0.239627 4:0.0496335 5:0.370762 6:0.0960501 7:-0.157591 8:0.14197 9:-0.23166 10:0.424764 11:-0.18603 12:-0.00648164 13:0.0226714 14:0.46795 15:0.49632 16:0.156704 17:-0.143449 18:0.333614 19:0.0431099 20:0.115872 21:0.194628 22:0.190587 23:-0.559456 24:0.0591096 25:0.502316 26:-0.311934 27:0.144238 28:-0.209143 29:-0.00507415 30:-0.117928 
-2.6224995561439295 1:0.599102 2:0.21109 3:0.268898 4:0.0698953 5:0.485116 6:0.155107 7:0.00333489 8:0.357298 9:-0.0468129 10:0.352071 11:-0.105411 12:-0.152029 13:0.0141856 14:0.611247 15:0.466297 16:0.254936 17:-0.197621 18:0.335054 19:0.0078721 20:0.175288 21:0.308376 22:0.198624 23:-0.610587 24:-0.106436 25:0.502102 26:-0.344887 27:0.225548 28:-0.163557 29:0.0890666 30:-0.0421603 
-2.7138723543144643 1:0.627743 2:-0.0183198 3:0.220872 4:0.0571204 5:0.602125 6:0.0606958 7:-0.26868 8:0.375049 9:-0.187868 10:0.313304 11:-0.0952053 12:-0.21883 13:-0.19784 14:0.353494 15:0.475348 16:0.192849 17:-0.200848 18:0.363133 19:-0.0692745 20:0.231456 21:0.306015 22:0.0915641 23:-0.511678 24:0.0597871 25:0.473335 26:-0.271595 27:0.317757 28:-0.18729 29:-0.00221576 30:-0.0115173 
-4.1781320018365804 1:0.531493 2:0.262077 3:0.19395 4:-0.0247251 5:0.68907 6:0.218922 7:-0.25562 8:0.325092 9:-0.207882 10:0.447338 11:-0.150587 12:-0.0533989 13:0.0215958 14:0.366912 15:0.508805 16:0.169215 17:-0.15784 18:0.409384 19:-0.0708164 20:0.266338 21:0.21012 22:0.296977 23:-0.597396 24:-0.03857 25:0.457792 26:-0.232673 27:0.226521 28:-0.258376 29:-0.0171998 30:0.0283085 
-4.9663035405046516 1:0.603499 2:0.217829 3:0.21878 4:-0.0268455 5:0.510869 6:0.216701 7:-0.257253 8:0.320312 9:-0.164565 10:0.264727 11:-0.125247 12:-0.0230985 13:-0.017851 14:0.364158 15:0.459286 16:0.234697 17:-0.1308 18:0.3417 19:-0.0603798 20:0.233018 21:0.239406 22:0.104671 23:-0.463524 24:-0.056615 25:0.529622 26:-0.191736 27:0.16911 28:-0.182167 29:-0.00293108 30:-0.0914159 
-2.4509869061010892 1:0.632735 2:0.0612964 3:0.321949 4:0.0479319 5:0.574914 6:0.132037 7:-0.128871 8:0.358553 9:-0.183071 10:0.415371 11:-0.17554 12:-0.0625681 13:0.0777827 14:0.426835 15:0.392149 16:0.198217 17:-0.146622 18:0.270151 19:-0.0865282 20:0.209896 21:0.239658 22:0.16405 23:-0.428835 24:0.0190902 25:0.511873 26:-0.222621 27:0.306283 28:-0.256763 29:-0.0409712 30:-0.118118 
-23.586897044226266 1:0.598746 2:0.157499 3:0.203567 4:-0.0129712 5:0.488185 6:0.122845 7:-0.277379 8:0.359991 9:-0.209284 10:0.428711 11:-0.127673 12:-0.147269 13:-0.0619572 14:0.406464 15:0.459215 16:0.182462 17:-0.270429 18:0.310938 19:0.0083428 20:0.258046 21:0.216327 22:0.129381 23:-0.594754 24:-0.0579869 25:0.476484 26:-0.226803 27:0.229042 28:-0.272862 29:0.0452748 30:-0.0116345 
-10.191390315547046 1:0.562786 2:0.24166 3:0.276517 4:-0.0162042 5:0.58001 6:0.159094 7:-0.19025 8:0.374523 9:-0.205862 10:0.316718 11:-0.102261 12:-0.0995503 13:-0.0326868 14:0.418922 15:0.453568 16:0.142831 17:-0.202109 18:0.320108 19:6.49245e-05 20:0.16176 21:0.248505 22:0.147876 23:-0.536225 24:-0.128526 25:0.456934 26:-0.260667 27:0.225191 28:-0.261033 29:0.0239081 30:0.0477352 
-4.2428100805614886 1:0.565464 2:0.21408 3:0.253783 4:0.0369634 5:0.632523 6:0.160729 7:-0.175352 8:0.367372 9:-0.15365 10:0.386852 11:-0.0858651 12:-0.122905 13:0.0486886 14:0.43769 15:0.480963 16:0.196024 17:-0.175079 18:0.418483 19:0.00272683 20:0.224383 21:0.239286 22:0.146274 23:-0.485744 24:-0.110162 25:0.494111 26:-0.273956 27:0.0831166 28:-0.257382 29:0.085679 30:-0.116186 
-2.9894483874357216 1:0.540394 2:0.166344 3:0.202735 4:0.0742277 5:0.587644 6:0.126358 7:-0.156765 8:0.371399 9:-0.16962 10:0.327364 11:-0.087422 12:-0.0993975 13:-0.0789508 14:0.396383 15:0.471731 16:0.309139 17:-0.120985 18:0.422461 19:-0.0656387 20:0.146423 21:0.250481 22:0.122339 23:-0.505379 24:0.0110573 25:0.444487 26:-0.214818 27:0.230174 28:-0.281333 29:-0.0424687 30:0.159519 
-8.5288956733689432 1:0.551595 2:0.14843 3:0.282322 4:0.0726178 5:0.445922 6:0.18704 7:-0.20604 8:0.263788 9:-0.187954 10:0.448073 11:-0.0909291 12:-0.0932127 13:-0.0245757 14:0.318843 15:0.48876 16:0.172761 17:-0.259548 18:0.405605 19:-0.11602 20:0.191758 21:0.24881 22:0.13657 23:-0.513351 24:0.0482942 25:0.467602 26:-0.248261 27:0.10805 28:-0.239232 29:-0.0289328 30:0.0189389 
-7.3196446467605654 1:0.56349 2:0.226621 3:0.214805 4:0.0267147 5:0.546109 6:0.157718 7:-0.242561 8:0.342824 9:-0.248047 10:0.405762 11:-0.052666 12:-0.0734744 13:-0.0278598 14:0.431562 15:0.472422 16:0.141169 17:-0.174634 18:0.340217 19:-0.00882974 20:0.168581 21:0.256115 22:0.129797 23:-0.492036 24:-0.11338 25:0.475102 26:-0.215583 27:0.143643 28:-0.144006 29:-0.0457255 30:0.0659804 
