svm_type c_svc
kernel_type rbf
gamma 100
nr_class 2
total_sv 402
rho -0.010872692282026048
label 1 2
nr_sv 202 200
SV
0.9890876603958465 1:-0.514543 2:-0.761808 3:0.278753 4:0.35316 5:0.28038 6:0.485016 7:1 8:-0.746519 9:1 10:-0.194765 11:1 12:-0.620291 13:-0.648612 14:-0.119706 15:-0.483012 16:-0.84426 17:-0.653185 18:-1 19:-0.342922 20:0.0591149 21:-1 22:-0.7539 23:0.727108 24:-0.345796 25:-0.825506 26:1 27:-1 28:0.451699 29:0.313703 30:-0.45861 
0.98911507960579648 1:0.096313 2:0.272211 3:-0.0218434 4:0.665371 5:-0.281395 6:-0.567429 7:-0.0879341 8:0.935209 9:0.550805 10:-0.0133508 11:-0.703748 12:-1 13:-0.86459 14:0.047735 15:0.121555 16:0.307059 17:-0.97815 18:-0.273073 19:1 20:0.666361 21:-0.331513 22:0.0742828 23:0.0579782 24:0.386801 25:-0.110631 26:-0.441164 27:1 28:-0.545382 29:-0.873725 30:0.210778 
0.98907451510935784 1:0.874601 2:-0.0940017 3:0.330048 4:-0.349028 5:-0.24211 6:-0.133478 7:-0.326473 8:0.537539 9:-0.78617 10:0.227489 11:-0.31189 12:-0.597144 13:0.148781 14:0.28637 15:0.614189 16:0.0672193 17:0.128684 18:0.0597254 19:0.0137289 20:0.210594 21:-0.225546 22:-0.372119 23:-0.100227 24:-0.792027 25:0.574848 26:-0.486716 27:-0.479733 28:-1 29:-0.49319 30:0.576467 
0.98903645652051231 1:0.315895 2:-0.00214431 3:0.400533 4:0.483739 5:0.422556 6:-0.282532 7:-0.445331 8:-0.243535 9:-0.408446 10:-0.292898 11:0.0847239 12:-0.256784 13:0.632227 14:0.903737 15:-0.107855 16:0.30309 17:-0.364482 18:0.374488 19:0.224692 20:0.831048 21:0.183546 22:0.424358 23:-0.246754 24:-0.25998 25:0.352368 26:0.122222 27:0.0397711 28:-0.633439 29:0.399393 30:-0.145855 
0.98916977283851593 1:0.745063 2:-0.0288612 3:0.662973 4:0.0251667 5:0.576385 6:0.376735 7:-0.461281 8:0.756749 9:0.286883 10:-0.474758 11:-0.0224909 12:0.0357055 13:0.477725 14:0.0395243 15:0.963577 16:-0.39372 17:-0.323989 18:0.158564 19:-0.591702 20:0.351662 21:-0.0762185 22:0.0437343 23:-0.446782 24:-0.61675 25:0.325203 26:-0.0859369 27:0.0339056 28:0.0298832 29:-0.150813 30:0.356888 
0.98912137954157975 1:0.526956 2:-0.120313 3:0.224502 4:-0.191859 5:-0.0179651 6:-0.171924 7:-0.0500643 8:0.296391 9:-0.710055 10:-0.187312 11:0.0765417 12:0.0884511 13:-0.0144888 14:0.256605 15:0.137102 16:0.0625973 17:-0.0565318 18:0.146019 19:-0.164747 20:0.606787 21:0.0915966 22:0.0744841 23:-0.552131 24:-0.1066 25:0.101395 26:-0.318122 27:0.451454 28:-0.289989 29:0.0899366 30:0.674298 
0.98910729843057688 1:0.443511 2:0.53625 3:0.630794 4:0.464103 5:0.141602 6:0.175355 7:-0.248829 8:0.226769 9:-0.110108 10:-0.231579 11:0.104917 12:0.364738 13:0.376845 14:0.266761 15:-0.179886 16:0.189299 17:-0.197257 18:0.103105 19:0.000754337 20:0.459505 21:0.190059 22:0.217313 23:-0.482593 24:-0.192395 25:0.466654 26:-0.223657 27:0.253362 28:0.169214 29:-0.374635 30:0.170733 
0.98912150530391951 1:0.47297 2:0.32918 3:0.123548 4:0.0347392 5:0.0618848 6:0.111002 7:-0.389401 8:0.410912 9:-0.29099 10:-0.173594 11:-0.34994 12:0.178163 13:0.0727827 14:0.153454 15:0.354009 16:0.0471741 17:0.0703394 18:0.0897571 19:-0.13471 20:0.293694 21:0.143689 22:-0.135883 23:-0.0163645 24:-0.346131 25:0.417528 26:0.0523165 27:-0.0445398 28:0.16879 29:0.00159912 30:1 
0.98912825024053486 1:0.372675 2:0.300724 3:0.243922 4:0.118756 5:0.179122 6:0.0526696 7:0.0273218 8:-0.556692 9:-0.696173 10:-0.153879 11:0.179524 12:0.115809 13:0.428097 14:-0.125878 15:0.319978 16:0.267521 17:-0.351836 18:0.216055 19:-0.414785 20:0.808897 21:0.157459 22:-0.190337 23:-0.356936 24:0.23062 25:0.321281 26:-0.413694 27:-0.0695279 28:-0.0544586 29:0.0608216 30:0.161116 
0.98907486403495515 1:0.377796 2:0.514054 3:0.204315 4:0.214318 5:0.392055 6:-0.0136238 7:-0.0391047 8:-0.429042 9:0.139667 10:0.00423159 11:-0.26707 12:0.436395 13:-0.284496 14:0.189071 15:0.0418592 16:0.0930922 17:-0.053324 18:0.373516 19:-0.300126 20:0.602385 21:-0.0689076 22:0.264318 23:-0.222665 24:-0.355042 25:0.384288 26:-0.523001 27:0.224416 28:-0.210414 29:-0.213014 30:0.505804 
0.98914997586611142 1:0.416346 2:0.121217 3:0.562813 4:-0.108857 5:0.790775 6:0.0543888 7:-0.477438 8:0.180733 9:-0.36796 10:-0.264196 11:-0.420717 12:-0.230387 13:0.0551794 14:0.443092 15:0.254966 16:-0.23371 17:-0.299117 18:0.35886 19:-0.269902 20:0.523756 21:-0.144748 22:0.179165 23:-0.185993 24:-0.654405 25:0.44441 26:-0.0347683 27:0.228898 28:-0.282431 29:-0.0191563 30:0.317411 
0.98912827629614986 1:0.357476 2:-0.131846 3:0.328769 4:-0.275394 5:0.359303 6:-0.149763 7:-0.10831 8:-0.15476 9:0.037688 10:-0.17961 11:-0.225715 12:0.119251 13:0.0218687 14:0.237797 15:-0.000434901 16:0.0571213 17:-0.127595 18:0.287751 19:-0.411919 20:0.724192 21:0.23979 22:-0.29693 23:-0.392203 24:-0.535276 25:0.304264 26:-0.206687 27:0.0815594 28:-0.207304 29:0.0866832 30:0.294898 
0.98907264413024965 1:0.47855 2:-0.412518 3:0.0220565 4:-0.0134301 5:0.145134 6:0.17571 7:-0.237319 8:0.18295 9:-0.124202 10:-0.0769559 11:-0.154212 12:0.140931 13:-0.0098849 14:0.245187 15:0.705572 16:0.170008 17:0.0295212 18:0.302555 19:-0.286095 20:0.728594 21:-0.0496218 22:-0.2384 23:-0.233182 24:-0.0506533 25:0.412458 26:-0.202202 27:-0.1165 28:-0.0591826 29:-0.0648084 30:0.127168 
0.98912820888997677 1:0.543179 2:-0.0403941 3:0.286473 4:0.219186 5:0.397307 6:0.0214464 7:-0.101364 8:-0.0603012 9:-0.594722 10:-0.0877153 11:-0.144498 12:0.214528 13:0.474882 14:0.41359 15:0.452677 16:0.17478 17:-0.285914 18:0.249177 19:-0.230073 20:0.766476 21:0.0922689 22:-0.00498742 23:-0.30456 24:-0.445226 25:0.360867 26:-0.391267 27:0.00553171 28:-0.214453 29:-0.322636 30:0.034375 
0.98881749815810904 1:0.627571 2:0.208519 3:0.524667 4:0.234036 5:0.319665 6:0.00812697 7:-0.0496527 8:0.0458198 9:-0.273079 10:-0.0984747 11:-0.486054 12:-0.0554051 13:0.18522 14:0.208737 15:0.404023 16:-0.021271 17:-0.138568 18:0.200296 19:-0.101464 20:0.630543 21:0.0832773 22:0.172169 23:-0.455304 24:0.0136013 25:0.339108 26:-0.537556 27:-0.0656175 28:-0.304512 29:0.00451061 30:0.350446 
0.98917157629040608 1:0.618722 2:0.058186 3:-0.128343 4:-0.0358928 5:0.276054 6:0.101301 7:-0.307486 8:-0.0602444 9:-0.179414 10:-0.388027 11:-0.0102781 12:0.0695395 13:0.139966 14:0.201716 15:-0.112476 16:-0.327656 17:0.00827522 18:0.16773 19:-0.0962987 20:0.341986 21:0.0956723 22:-0.144338 23:-0.346011 24:0.0326968 25:0.298448 26:-0.434235 27:0.0732332 28:-0.206672 29:0.187262 30:0.11375 
0.98907266767981006 1:0.314256 2:-0.113532 3:0.485349 4:0.07883 5:-0.0439197 6:-0.0612382 7:-0.151191 8:0.0581131 9:-0.322755 10:-0.333607 11:-0.128904 12:0.129219 13:-0.0104265 14:0.248164 15:0.0857842 16:-0.0786235 17:-0.0746165 18:0.14471 19:0.0677395 20:0.463389 21:0.0110084 22:0.0746855 23:-0.370852 24:-0.25795 25:0.297229 26:-0.221316 27:-0.0126371 28:-0.467994 29:-0.177061 30:0.235651 
0.98916533798082917 1:0.519664 2:0.246769 3:0.354662 4:-0.159174 5:0.434827 6:-0.034582 7:-0.273527 8:0.130361 9:0.0535761 10:-0.106315 11:-0.111673 12:-0.0206353 13:0.280704 14:0.236065 15:0.0208752 16:-0.0205376 17:0.172524 18:0.219379 19:0.0800603 20:0.491007 21:0.111891 22:-0.0617514 23:-0.14175 24:-0.0281407 25:0.429397 26:0.0254203 27:0.214878 28:-0.396285 29:-0.109236 30:0.0699617 
0.98907225920081798 1:0.489787 2:-0.112431 3:0.403889 4:0.133688 5:0.348047 6:0.101853 7:-0.146921 8:0.216539 9:-0.212668 10:-0.15916 11:0.0671906 12:0.427776 13:-0.00528097 14:0.244621 15:0.346398 16:-0.0355338 17:-0.177406 18:0.19189 19:0.178124 20:0.249117 21:0.171172 22:-0.214796 23:-0.288688 24:-0.480268 25:0.383242 26:-0.29836 27:0.0951621 28:-0.144214 29:0.14381 30:-0.0887117 
0.98907275706702058 1:0.392462 2:-0.152883 3:0.394406 4:-0.0206791 5:0.177179 6:-0.0103707 7:-0.151973 8:0.213981 9:-0.338717 10:-0.0854847 11:-0.10871 12:-0.131692 13:0.199045 14:0.262248 15:-0.00206578 16:0.199447 17:-0.0663412 18:0.14188 19:-0.349761 20:0.568998 21:0.148382 22:0.028314 23:-0.28116 24:-0.674573 25:0.262566 26:-0.4508 27:0.225608 28:-0.114809 29:0.00292253 30:0.0313776 
0.98915985905917958 1:0.383367 2:0.0220226 3:0.279132 4:0.0302107 5:0.283205 6:0.12642 7:-0.182517 8:0.180676 9:-0.465928 10:-0.209732 11:-0.12584 12:0.155679 13:0.292282 14:0.153511 15:-0.0134276 16:0.0445868 17:-0.0115295 18:0.247348 19:-0.449736 20:0.446457 21:0.128382 22:-0.257373 23:-0.19116 24:-0.339631 25:0.332682 26:-0.134194 27:0.20453 28:-0.0892781 29:-0.146071 30:0.182207 
0.98917089450369233 1:0.473232 2:0.226427 3:0.362547 4:-0.0951933 5:0.323902 6:-0.017429 7:-0.16123 8:-0.111509 9:-0.249464 10:-0.295686 11:-0.29609 12:0.135725 13:0.201869 14:0.200821 15:0.380593 16:-0.139362 17:0.0167829 18:0.175333 19:-0.14523 20:0.608668 21:0.204328 22:-0.0608455 23:-0.280752 24:-0.122881 25:0.306504 26:-0.0282083 27:-0.15422 28:-0.430096 29:-0.052054 30:-0.00720663 
0.98912827629605626 1:0.370217 2:0.347088 3:0.382259 4:-0.128861 5:0.359744 6:0.0949921 7:-0.0668382 8:0.362944 9:-0.465083 10:-0.286108 11:-0.105514 12:0.130106 13:0.367299 14:0.403398 15:0.331557 16:-0.0212308 17:-0.0376569 18:0.137149 19:0.0426955 20:0.583261 21:0.190861 22:-0.064922 23:-0.368404 24:-0.340034 25:0.503242 26:-0.217831 27:0.053176 28:-0.212532 29:-0.163 30:0.194024 
0.98905014024616245 1:0.457018 2:0.00851927 3:0.390783 4:0.136551 5:0.197983 6:0.0945189 7:-0.131515 8:0.142461 9:-0.229554 10:-0.27525 11:-0.183434 12:0.14527 13:0.0619499 14:0.0762741 15:0.408644 16:0.0526501 17:-0.0450023 18:0.243206 19:0.164798 20:0.472259 21:0.251261 22:0.0291897 23:-0.378015 24:-0.230305 25:0.371448 26:-0.117712 27:0.0987772 28:-0.26448 29:-0.092032 30:-0.126913 
0.98915963312699007 1:0.474674 2:0.0231237 3:0.16569 4:0.126406 5:0.394924 6:-0.011392 7:-0.159516 8:-0.0709861 9:-0.333017 10:-0.195312 11:-0.0406691 12:0.213002 13:-0.021327 14:0.268007 15:0.327372 16:0.0224416 17:-0.189354 18:0.153369 19:-0.108142 20:0.445678 21:0.0971849 22:-0.0590337 23:-0.323912 24:-0.144389 25:0.345765 26:-0.101804 27:0.0681354 28:-0.199894 29:0.0322581 30:0.163278 
0.98934042015664525 1:0.517165 2:0.17093 3:0.266468 4:0.0253631 5:0.292827 6:-0.100749 7:-0.0450733 8:0.0874908 9:-0.116706 10:-0.410661 11:-0.145627 12:0.208077 13:0.112884 14:0.211467 15:0.018592 16:0.0757599 17:-0.275314 18:0.213614 19:-0.09391 20:0.569457 21:-0.0141176 22:-0.0163211 23:-0.261582 24:-0.214841 25:0.40845 26:-0.121771 27:0.0590367 28:-0.230632 29:-0.0808216 30:0.318686 
0.98910002604868408 1:0.658542 2:0.183437 3:0.265546 4:0.0452035 5:0.246184 6:-0.0982256 7:-0.453769 8:0.230634 9:-0.273325 10:-0.0916188 11:-0.120141 12:0.157067 13:0.209749 14:0.52214 15:0.181604 16:0.17051 17:-0.312831 18:0.244852 19:0.0490822 20:0.558404 21:0.112101 22:-0.0962758 23:-0.281632 24:-0.261514 25:0.365746 26:-0.236736 27:-0.0917978 28:-0.0713907 29:-0.0446264 30:0.221173 
0.98907275722693566 1:0.413765 2:0.20991 3:0.460788 4:0.0704848 5:0.208546 6:-0.0145662 7:-0.233928 8:-0.009605 9:-0.229887 10:-0.219498 11:-0.0625957 12:0.335829 13:-0.0386594 14:0.444168 15:0.245224 16:-0.0358654 17:-0.0158996 18:0.0890813 19:-0.187076 20:0.442926 21:0.108235 22:-0.129592 23:-0.290506 24:-0.314184 25:0.319788 26:-0.186093 27:0.0255126 28:-0.448567 29:-0.0581362 30:0.178673 
0.98907461108861372 1:0.605121 2:0.0773109 3:0.138199 4:0.0776846 5:0.1661 6:0.0251451 7:-0.169766 8:0.173174 9:-0.307432 10:-0.291586 11:-0.259412 12:0.178616 13:0.233243 14:0.166025 15:0.205529 16:-0.0641547 17:-0.265272 18:0.21649 19:-0.308725 20:0.549003 21:0.43063 22:-0.18772 23:-0.206029 24:-0.381173 25:0.395414 26:-0.166269 27:0.325036 28:-0.360403 29:0.00464847 30:0.0311224 
0.98933420992346821 1:0.585785 2:0.167604 3:0.158231 4:-0.020315 5:0.261894 6:0.0810331 7:-0.00370466 8:0.356976 9:-0.373766 10:-0.190789 11:-0.0414349 12:0.120325 13:0.23392 14:0.0795017 15:0.0198967 16:0.0182969 17:-0.0918131 18:0.306441 19:0.0793563 20:0.36056 21:0.128248 22:0.144992 23:-0.163055 24:-0.429012 25:0.30957 26:-0.183629 27:-0.0338579 28:-0.391454 29:-0.116956 30:0.102723 
0.98915000506971162 1:0.667759 2:0.0902405 3:0.223404 4:-0.0311884 5:0.35224 6:0.127208 7:-0.196295 8:-0.0443876 9:-0.402428 10:-0.184304 11:0.0315599 12:0.156535 13:0.197468 14:0.256755 15:0.172444 16:0.0609897 17:-0.0852673 18:0.238644 19:-0.0839427 20:0.583949 21:0.150092 22:0.158581 23:-0.328332 24:-0.1973 25:0.42189 26:-0.258795 27:0.152217 28:-0.135191 29:-0.154949 30:0.0642219 
0.98910729803657449 1:0.462129 2:-0.0739496 3:0.298492 4:-0.0940479 5:0.246065 6:0.0822555 7:-0.188404 8:0.145342 9:-0.235519 10:-0.245531 11:-0.155784 12:0.158776 13:0.180264 14:0.310419 15:0.350802 16:0.0449284 17:-0.133073 18:0.22604 19:0.0615036 20:0.497129 21:0.0580672 22:0.0276044 23:-0.273105 24:-0.35598 25:0.390049 26:-0.0818368 27:0.096073 28:-0.336306 29:0.156879 30:0.25287 
0.98905938801116444 1:0.489078 2:0.147157 3:0.323495 4:-0.024414 5:0.172368 6:0.00942823 7:-0.116902 8:0.115379 9:-0.0795461 10:-0.202736 11:-0.100866 12:0.0150209 13:0.320718 14:0.163703 15:0.261163 16:-0.141221 17:-0.106439 18:0.324942 19:-0.0755896 20:0.471773 21:0.133399 22:0.0765476 23:-0.298024 24:-0.261642 25:0.484339 26:-0.254859 27:0.0213639 28:-0.211146 29:0.0969948 30:-0.0771046 
0.98906690046164292 1:0.502159 2:0.0412634 3:0.385828 4:0.0876662 5:0.287795 6:-0.0252366 7:-0.0652946 8:0.164933 9:-0.205859 10:-0.226902 11:0.016848 12:0.112834 13:0.0448883 14:0.266602 15:0.230655 16:-0.0117408 17:-0.1041 18:0.245763 19:-0.214785 20:0.603485 21:0.188706 22:-0.0342879 23:-0.305698 24:-0.16804 25:0.296758 26:-0.259861 27:0.208107 28:-0.23966 29:0.0855252 30:0.165338 
0.98963199787071354 1:0.552724 2:0.121061 3:0.390037 4:0.206995 5:0.274385 6:-0.0494085 7:-0.0783123 8:0.0880648 9:-0.313286 10:-0.167886 11:-0.142725 12:0.12653 13:0.326066 14:0.342752 15:0.21483 16:0.0898267 17:-0.133752 18:0.33491 19:-0.0902338 20:0.343407 21:-0.00147059 22:-0.00391545 23:-0.349003 24:-0.267511 25:0.457104 26:-0.097089 27:0.102977 28:-0.261576 29:-0.0370995 30:0.479847 
0.98908775217765743 1:0.365506 2:0.144438 3:0.456739 4:0.0474126 5:0.154933 6:0.0297161 7:-0.296681 8:0.146775 9:-0.114489 10:-0.162014 11:-0.115453 12:0.302339 13:0.145443 14:0.257968 15:0.344224 16:0.075157 17:-0.104868 18:0.272363 19:-0.16173 20:0.644715 21:0.0944118 22:-0.000594867 23:-0.411559 24:-0.255773 25:0.356196 26:-0.0662977 27:0.210968 28:-0.36587 29:-0.111111 30:-0.0984694 
0.98909981981351625 1:0.408521 2:0.098754 3:0.411401 4:-0.0556351 5:0.212717 6:-0.00849369 7:-0.0567533 8:0.0780449 9:-0.240961 10:-0.151189 11:-0.188916 12:0.0865304 13:0.255586 14:0.339128 15:0.100353 16:-0.0568701 17:-0.0480242 18:0.250886 19:-0.0371134 20:0.54776 21:0.321765 22:-0.136789 23:-0.260458 24:-0.183826 25:0.386229 26:-0.17556 27:0.0478779 28:-0.156104 29:-0.0383678 30:0.372768 
0.98868162006280658 1:0.534576 2:0.15268 3:0.357112 4:-0.0165228 5:0.0834694 6:0.139866 7:-0.146704 8:0.0849162 9:-0.172447 10:-0.232432 11:-0.0448206 12:0.118321 13:0.281517 14:0.425368 15:0.2519 16:0.00285355 17:0.0449093 18:0.229778 19:-0.166155 20:0.599633 21:0.0806723 22:0.109965 23:-0.308191 24:-0.432831 25:0.367768 26:-0.228561 27:0.0745684 28:-0.239374 29:-0.0995864 30:0.179031 
0.98907992217719753 1:0.345186 2:0.0402782 3:0.269387 4:0.0126161 5:0.175855 6:-0.0119953 7:-0.125495 8:0.21256 9:-0.158036 10:-0.32967 11:-0.0372027 12:0.161394 13:0.168416 14:0.387486 15:0.0053819 16:0.150716 17:-0.158317 18:0.327856 19:-0.135997 20:0.46227 21:0.19129 22:-0.097232 23:-0.294329 24:-0.0171524 25:0.339623 26:-0.0542845 27:0.112108 28:-0.116667 29:-0.175738 30:0.0108418 
0.98921668692783982 1:0.367349 2:0.0941292 3:0.191849 4:0.0733892 5:0.259064 6:0.0516483 7:-0.160355 8:-0.0205172 9:-0.279499 10:-0.144235 11:-0.158928 12:0.199143 13:0.19677 14:0.13222 15:0.225485 16:0.0592313 17:-0.118103 18:0.128912 19:-0.131008 20:0.379133 21:0.174584 22:-0.0564167 23:-0.367226 24:-0.322211 25:0.332431 26:-0.272243 27:0.158035 28:-0.242341 29:-0.0153129 30:0.214094 
0.98907604531377968 1:0.447153 2:-0.0207476 3:0.305967 4:-0.032747 5:0.211799 6:0.0177248 7:-0.0515565 8:0.0931799 9:-0.37535 10:-0.230464 11:-0.120979 12:0.187501 13:0.294516 14:0.267899 15:0.125686 16:0.0344336 17:-0.115114 18:0.253711 19:-0.00925321 20:0.594864 21:0.256008 22:0.0340362 23:-0.27505 24:-0.112965 25:0.350835 26:-0.238868 27:0.017072 28:-0.27939 29:-0.0640474 30:0.321556 
0.98912143463239688 1:0.439934 2:0.129371 3:0.259893 4:-0.0588259 5:0.115383 6:-0.112382 7:-0.199336 8:0.132947 9:-0.354447 10:-0.26085 11:-0.120109 12:0.209899 13:0.313812 14:0.126727 15:0.15826 16:0.0561166 17:-0.160158 18:0.12397 19:0.00864974 20:0.380463 21:0.145609 22:0.0137947 23:-0.258019 24:-0.220509 25:0.357104 26:-0.227081 27:0.044969 28:-0.421921 29:-0.00494072 30:0.205676 
0.98906231464133143 1:0.533839 2:0.143876 3:0.144486 4:-0.0194886 5:0.225707 6:0.0385174 7:-0.282532 8:-0.0198352 9:-0.313687 10:-0.287781 11:-0.0817735 12:0.0419109 13:0.0618145 14:0.336976 15:0.218744 16:0.0382366 17:-0.0119479 18:0.340063 19:-0.0465175 20:0.572759 21:0.16384 22:0.0965778 23:-0.309687 24:-0.18595 25:0.358534 26:-0.256253 27:0.151311 28:-0.231624 29:0.0339675 30:0.102717 
0.98907628150004856 1:0.370832 2:0.194303 3:0.221332 4:0.0441399 5:0.375767 6:0.0132216 7:-0.254386 8:0.227394 9:-0.209871 10:-0.150697 11:-0.0827973 12:0.245654 13:0.21 14:0.150227 15:0.285349 16:0.120573 17:-0.0913993 18:0.149694 19:-0.0274076 20:0.440128 21:0.0346639 22:0.0231555 23:-0.269306 24:-0.287899 25:0.390316 26:-0.255023 27:0.158083 28:-0.187367 29:0.0917011 30:0.255804 
0.98916174788212796 1:0.48991 2:0.10204 3:0.196223 4:0.088198 5:0.275149 6:-0.0360804 7:-0.0724981 8:0.143518 9:-0.291935 10:-0.228991 11:-0.121278 12:0.12425 13:0.138429 14:0.225612 15:0.150856 16:0.0240191 17:-0.199861 18:0.198944 19:-0.108132 20:0.53302 21:0.106933 22:-0.0337594 23:-0.186265 24:-0.405561 25:0.37987 26:-0.167782 27:0.140029 28:-0.153769 29:0.053984 30:0.0669005 
0.98906399856454219 1:0.485317 2:0.115468 3:0.285717 4:-0.000389037 5:0.170735 6:-0.0405757 7:-0.101827 8:0.160273 9:-0.130166 10:-0.23157 11:-0.077102 12:0.0900271 13:0.221341 14:0.202259 15:0.303343 16:-0.102035 17:-0.183403 18:0.256634 19:-0.19477 20:0.528943 21:0.131975 22:0.0126321 23:-0.386854 24:-0.342446 25:0.347184 26:-0.234719 27:-0.116404 28:-0.232245 29:-0.0424262 30:0.133841 
0.98944172838985156 1:0.532773 2:0.0731962 3:0.366809 4:-0.00597668 5:0.311631 6:0.00708202 7:-0.162032 8:-0.0464336 9:-0.293022 10:-0.229437 11:-0.0792342 12:0.227973 13:0.193216 14:0.211591 15:0.159185 16:0.0113288 17:-0.133236 18:0.277537 19:-0.0530953 20:0.511112 21:0.0547059 22:0.116004 23:-0.255499 24:-0.305106 25:0.357147 26:-0.163645 27:0.063176 28:-0.237691 29:-0.120761 30:0.166129 
0.98884646367795148 1:0.420729 2:0.108606 3:0.272365 4:0.0769892 5:0.179166 6:0.0884464 7:-0.0955493 8:0.122631 9:-0.291998 10:-0.223198 11:-0.119158 12:0.151181 13:0.0671632 14:0.415855 15:0.343137 16:0.162422 17:-0.262111 18:0.13094 19:-0.149278 20:0.529906 21:0.169786 22:0.00219376 23:-0.238169 24:-0.147605 25:0.359226 26:-0.162952 27:0.0925894 28:-0.331847 29:0.0564103 30:0.101358 
0.98907284666643069 1:0.486104 2:0.284323 3:0.150613 4:0.0406627 5:0.280644 6:0.0866325 7:-0.260509 8:0.00858198 9:-0.252621 10:-0.21795 11:-0.0515115 12:0.0525486 13:0.250711 14:0.19996 15:0.110954 16:0.0120975 17:-0.112008 18:0.182851 19:-0.0313804 20:0.5436 21:0.193958 22:-0.171616 23:-0.283667 24:-0.345059 25:0.400751 26:-0.209455 27:0.10463 28:-0.244958 29:0.0165205 30:0.259247 
0.98999582232948591 1:0.361041 2:-0.0470588 3:0.248596 4:0.0022164 5:0.275471 6:0.0660489 7:-0.241935 8:0.185166 9:-0.31081 10:-0.216887 11:-0.104091 12:0.206353 13:0.163429 14:0.234972 15:0.227551 16:0.0295202 17:-0.0752673 18:0.269474 19:-0.0325874 20:0.554964 21:0.201387 22:0.0119527 23:-0.236854 24:-0.209226 25:0.348858 26:-0.198522 27:0.0945517 28:-0.307696 29:-0.122801 30:0.191531 
0.98904808752056717 1:0.517821 2:0.135375 3:0.234779 4:-0.0548578 5:0.283381 6:0.101932 7:-0.106097 8:0.149832 9:-0.200528 10:-0.231202 11:-0.0325272 12:0.279045 13:0.113866 14:0.231382 15:0.202007 16:-0.0528862 17:-0.104705 18:0.174277 19:-0.0115665 20:0.56432 21:0.152165 22:0.0248314 23:-0.268336 24:-0.189286 25:0.37482 26:-0.194631 27:0.152647 28:-0.21302 29:-0.00963331 30:0.390689 
0.989165997846572 1:0.493355 2:0.266531 3:0.233671 4:0.0399673 5:0.224348 6:0.0405047 7:-0.279238 8:0.113191 9:-0.33402 10:-0.180564 11:-0.166385 12:0.15818 13:0.0898443 14:0.351642 15:0.180853 16:-0.176237 17:-0.227336 18:0.250333 19:-0.122183 20:0.466361 21:0.147534 22:0.0313186 23:-0.188713 24:-0.197065 25:0.319355 26:-0.155412 27:0.0579638 28:-0.237882 29:0.00682106 30:0.193029 
0.99008054152671687 1:0.531872 2:0.174581 3:0.206926 4:0.0360646 5:0.187548 6:0.0459109 7:-0.215714 8:-0.0778062 9:-0.260845 10:-0.20456 11:-0.0783877 12:0.1649 13:0.133629 14:0.277027 15:0.22661 16:-0.00132027 17:-0.148033 18:0.214163 19:-0.125034 20:0.473836 21:0.185092 22:0.0511525 23:-0.241432 24:-0.230734 25:0.411712 26:-0.203305 27:0.129328 28:-0.200701 29:-0.0535704 30:0.238393 
0.98908672299608813 1:0.486366 2:0.120296 3:0.339371 4:-0.0173492 5:0.208515 6:0.0518021 7:-0.139141 8:0.03052 9:-0.217894 10:-0.201673 11:-0.154776 12:0.147151 13:0.181882 14:0.166818 15:0.315684 16:0.0973122 17:-0.0898698 18:0.190412 19:-0.0713352 20:0.381426 21:0.218319 22:-0.0404831 23:-0.428876 24:-0.271203 25:0.335087 26:-0.132964 27:0.161755 28:-0.211953 29:0.007571 30:0.219388 
0.98893124510314134 1:0.450361 2:0.217328 3:0.24753 4:0.0298548 5:0.201064 6:0.163091 7:-0.248315 8:0.157147 9:-0.261494 10:-0.249631 11:-0.0908505 12:0.0815563 13:-0.128165 14:0.313137 15:0.253357 16:0.0676714 17:-0.157782 18:0.317466 19:-0.130531 20:0.471773 21:0.130408 22:-0.0117262 23:-0.285375 24:-0.288188 25:0.357842 26:-0.214055 27:0.0253219 28:-0.29439 29:-0.170885 30:0.0939732 
0.98911105073422645 1:0.47304 2:0.0489713 3:0.212275 4:-0.0456944 5:0.156742 6:0.0567508 7:-0.295241 8:-0.0235862 9:-0.229089 10:-0.220115 11:-0.14603 12:0.1967 13:0.290318 14:0.266801 15:0.249318 16:0.051796 17:-0.144203 18:0.241254 19:-0.109314 20:0.460564 21:0.185286 22:0.00135632 23:-0.297548 24:-0.318593 25:0.37458 26:-0.175281 27:0.0369099 28:-0.242739 29:0.0749931 30:0.167334 
0.99503173530467259 1:0.556411 2:0.120093 3:0.278567 4:-0.0567396 5:0.216314 6:-0.094795 7:-0.183888 8:0.111145 9:-0.265849 10:-0.206813 11:-0.135764 12:0.199286 13:0.0867976 14:0.358041 15:0.226572 16:0.0109872 17:-0.126697 18:0.177233 19:-0.0356047 20:0.534873 21:0.169269 22:-0.05385 23:-0.328005 24:-0.21592 25:0.372262 26:-0.198942 27:0.18207 28:-0.282346 29:-0.112545 30:0.184681 
0.99060579776978841 1:0.489459 2:0.101594 3:0.26838 4:0.0236367 5:0.20079 6:0.0190497 7:-0.25876 8:0.043035 9:-0.270403 10:-0.211468 11:-0.149577 12:0.143339 13:0.225166 14:0.153228 15:0.159125 16:0.105803 17:-0.0749884 18:0.35831 19:-0.149037 20:0.514107 21:0.155172 22:0.0218168 23:-0.236355 24:-0.282057 25:0.293574 26:-0.17321 27:0.107334 28:-0.209873 29:-0.0930797 30:0.150746 
0.98851227487567439 1:0.410324 2:0.117624 3:0.244399 4:-0.0581714 5:0.26678 6:0.0415694 7:-0.207214 8:0.0940477 9:-0.237862 10:-0.160636 11:-0.0622894 12:0.113928 13:0.178571 14:0.215266 15:0.192411 16:-0.0209746 17:-0.24463 18:0.250925 19:-0.138486 20:0.465572 21:0.157574 22:-0.0270911 23:-0.388939 24:-0.178961 25:0.434506 26:-0.176392 27:0.133057 28:-0.239241 29:-0.112324 30:0.204592 
0.98758196501887074 1:0.392544 2:0.25297 3:0.153063 4:0.0385028 5:0.235445 6:-0.0199527 7:-0.120864 8:0.133646 9:-0.26994 10:-0.173823 11:-0.120339 12:0.188668 13:0.231754 14:0.355719 15:0.250552 16:-0.0600352 17:-0.119712 18:0.22732 19:-0.109972 20:0.507384 21:0.19284 22:-0.0152038 23:-0.292325 24:-0.290868 25:0.229357 26:-0.201902 27:0.0920029 28:-0.188854 29:-0.0523739 30:0.211033 
0.99015975094653075 1:0.506747 2:0.0282237 3:0.257054 4:-0.055676 5:0.253564 6:-0.034582 7:-0.193465 8:0.0572038 9:-0.308731 10:-0.202214 11:-0.143692 12:0.218665 13:0.0895058 14:0.208233 15:0.214787 16:-0.0267923 17:-0.147513 18:0.331954 19:-0.0881519 20:0.495345 21:0.124235 22:0.0524207 23:-0.349728 24:-0.213863 25:0.324622 26:-0.191333 27:0.118522 28:-0.169161 29:0.0367797 30:0.149273 
0.98908575699578538 1:0.362761 2:0.0264271 3:0.237917 4:-0.000973614 5:0.266149 6:0.0664826 7:-0.224945 8:0.111958 9:-0.247369 10:-0.218442 11:-0.106187 12:0.107353 13:0.305755 14:0.356965 15:0.267029 16:-0.127003 17:-0.176801 18:0.2329 19:-0.0817802 20:0.514923 21:0.159412 22:0.00434625 23:-0.293577 24:-0.207638 25:0.385907 26:-0.249241 27:0.146681 28:-0.179512 29:0.0371106 30:0.028125 
0.98831389671973291 1:0.516428 2:0.148066 3:0.195946 4:-0.0203395 5:0.197855 6:-0.00150631 7:-0.301827 8:0.0379653 9:-0.226873 10:-0.224711 11:-0.112072 12:0.122561 13:0.300339 14:0.266619 15:0.151509 16:0.079779 17:-0.094835 18:0.134023 19:-0.157254 20:0.473978 21:0.158855 22:-0.00336185 23:-0.362239 24:-0.308415 25:0.372769 26:-0.211316 27:0.0955355 28:-0.295796 29:-0.0174966 30:0.110351 
1 1:0.488935 2:0.127001 3:0.271465 4:-0.000272448 5:0.27149 6:0.0732256 7:-0.224955 8:0.0677806 9:-0.292563 10:-0.194774 11:-0.13206 12:0.172312 13:0.0782668 14:0.304847 15:0.176347 16:-0.0338608 17:-0.159926 18:0.240194 19:-0.116394 20:0.498208 21:0.191761 22:0.0733266 23:-0.329193 24:-0.294968 25:0.33317 26:-0.221972 27:0.075298 28:-0.280727 29:0.0806727 30:0.161964 
0.98992397931086795 1:0.510856 2:0.188745 3:0.261177 4:-0.0836163 5:0.210245 6:0.0830442 7:-0.155457 8:0.0801421 9:-0.285194 10:-0.213754 11:-0.13127 12:0.233243 13:0.140257 14:0.164213 15:0.189986 16:-0.00302035 17:-0.242492 18:0.238809 19:-0.0922706 20:0.582206 21:0.154299 22:-0.0494716 23:-0.237035 24:-0.249246 25:0.322539 26:-0.208799 27:0.0996853 28:-0.220382 29:0.0195699 30:0.111932 
0.99340916332739504 1:0.422614 2:0.218256 3:0.271801 4:0.00452035 5:0.208206 6:0.125473 7:-0.196074 8:0.0872862 9:-0.296495 10:-0.216287 11:-0.131161 12:0.191672 13:0.162022 14:0.210957 15:0.14031 16:0.0567697 17:-0.130479 18:0.218281 19:-0.127594 20:0.475762 21:0.112605 22:-0.0449975 23:-0.329198 24:-0.297106 25:0.433327 26:-0.230902 27:0.0914878 28:-0.291985 29:0.000794045 30:0.176314 
0.99095647108671558 1:0.493994 2:0.133103 3:0.167075 4:-0.00442544 5:0.221479 6:0.0704259 7:-0.144929 8:0.12029 9:-0.269586 10:-0.218783 11:-0.115857 12:0.168087 13:0.266418 14:0.330634 15:0.206451 16:-0.0082954 17:-0.0636448 18:0.239016 19:-0.121841 20:0.50088 21:0.159128 22:-0.00509814 23:-0.294791 24:-0.309822 25:0.254903 26:-0.203567 27:0.0563948 28:-0.2144 29:-0.0940722 30:0.111996 
0.9902727111377766 1:0.450725 2:0.174773 3:0.265615 4:0.0112375 5:0.219907 6:0.0178746 7:-0.235405 8:0.0909292 9:-0.266214 10:-0.197707 11:-0.0833736 12:0.227875 13:0.126601 14:0.192356 15:0.188905 16:0.0125496 17:-0.128002 18:0.297149 19:-0.0728137 20:0.506366 21:0.134685 22:-0.00255662 23:-0.376292 24:-0.267343 25:0.209904 26:-0.158713 27:0.0908631 28:-0.269889 29:0.0757651 30:0.159235 
0.98934434083391765 1:0.470672 2:0.113063 3:0.236137 4:0.0644304 5:0.200022 6:0.0438801 7:-0.101003 8:0.150884 9:-0.265468 10:-0.260522 11:-0.0889802 12:0.082689 13:0.419838 14:0.169536 15:0.280239 16:-0.0983672 17:-0.123232 18:0.112439 19:-0.194871 20:0.461234 21:0.202899 22:0.0311676 23:-0.477335 24:-0.376147 25:0.448733 26:-0.21754 27:0.115737 28:-0.204225 29:0.073008 30:0.132619 
0.98934565618472226 1:0.534658 2:-0.271342 3:0.109057 4:-0.0350747 5:0.467314 6:0.243454 7:-0.0921533 8:0.160216 9:-0.710108 10:-0.540758 11:-0.230915 12:-0.232898 13:0.0501693 14:0.334711 15:-0.241696 16:0.235971 17:1 18:-0.250686 19:-0.347247 20:0.446274 21:0.00605042 22:-0.493709 23:-0.239529 24:-0.111223 25:0.945765 26:-0.9754 27:-0.295374 28:0.212633 29:0.410642 30:-0.14949 
0.9890864210990904 1:0.272839 2:0.134674 3:-0.0600959 4:0.172837 5:0.790775 6:-0.31041 7:-0.463751 8:0.138284 9:-0.544101 10:-0.305987 11:-0.243087 12:0.370451 13:-0.384766 14:-0.193941 15:0.126067 16:-0.31796 17:-0.428126 18:0.394087 19:-0.684184 20:-0.279982 21:0.162092 22:-0.490237 23:-0.0781958 24:-1 25:0.204009 26:-0.353055 27:0.26042 28:-0.0274947 29:-0.224924 30:-0.112691 
0.98903645652051231 1:0.482335 2:0.103332 3:0.212605 4:-0.421559 5:0.103818 6:0.462934 7:-0.657628 8:0.785735 9:-0.390763 10:-0.512908 11:-0.21838 12:0.218419 13:-0.0860528 14:0.323216 15:0.232737 16:0.341221 17:0.0988377 18:0.434509 19:-0.379482 20:0.286953 21:0.0220588 22:0.347509 23:-0.291917 24:-0.908744 25:0.208685 26:0.126322 27:0.313257 28:-0.111359 29:0.197408 30:-0.37787 
0.98906639560502496 1:0.323597 2:0.491799 3:0.190783 4:-0.0119206 5:0.28497 6:0.363722 7:-0.039928 8:-0.0652458 9:-0.293903 10:-0.142726 11:-0.41713 12:0.0450628 13:-0.034868 14:0.463986 15:0.0941017 16:0.00445114 17:0.317666 18:-0.0429989 19:0.221323 20:0.28576 21:0.112059 22:-0.340664 23:0.11786 24:-0.282365 25:0.255807 26:0.111029 27:0.27587 28:-0.0467091 29:-0.119438 30:0.167315 
0.98908680599507093 1:0.292462 2:-0.13202 3:0.0392648 4:-0.115729 5:0.404458 6:-0.235568 7:-0.161739 8:0.284683 9:0.156558 10:-0.0418238 11:-0.360177 12:0.20916 13:0.507041 14:0.188109 15:0.158092 16:0.000409445 17:-0.319991 18:0.218995 19:0.102892 20:0.595414 21:0.00995798 22:0.13231 23:0.0898005 24:-0.16603 25:0.208214 26:-0.326117 27:0.427897 28:-0.323992 29:-0.0717452 30:0.289732 
0.98908560918890653 1:0.580868 2:-0.0704723 3:0.26016 4:-0.134956 5:0.00326639 6:0.00860016 7:-0.0168768 8:0.327536 9:-0.101135 10:-0.26554 11:0.0838775 12:0.084068 13:0.202945 14:0.706908 15:0.334874 16:-0.140317 17:0.126406 18:0.334488 19:-0.240885 20:0.450768 21:0.0857143 22:0.05692 23:-0.317924 24:-0.672563 25:0.365798 26:0.0378434 27:-0.109204 28:-0.186146 29:0.000970499 30:0.671939 
0.98907608762049559 1:0.320197 2:0.040568 3:0.498135 4:-0.0557987 5:0.129375 6:0.179968 7:0.168922 8:-0.219608 9:-0.347796 10:-0.273938 11:-0.273358 12:0.476484 13:0.210257 14:0.181427 15:0.382387 16:0.131324 17:-0.0626685 18:0.128659 19:-0.115595 20:0.278973 21:0.322773 22:0.0296477 23:-0.383409 24:-0.206506 25:0.523246 26:0.0643706 27:0.254554 28:-0.147665 29:0.0499586 30:0.435523 
0.98912125265104411 1:0.473765 2:-0.100898 3:0.199845 4:-0.0553078 5:0.232202 6:-0.033123 7:-0.162058 8:0.000511509 9:-0.390868 10:-0.255371 11:0.0355905 12:0.0508742 13:0.118829 14:0.375085 15:0.0979614 16:-0.0481638 17:-0.124976 18:-0.0394931 19:-0.128268 20:0.470938 21:0.102269 22:-0.0520886 23:-0.445784 24:0.356784 25:0.0303399 26:-0.271956 27:0.585598 28:-0.319533 29:-0.110835 30:0.353827 
0.98933079185882689 1:0.610488 2:0.31417 3:0.252204 4:0.199345 5:0.123814 6:-0.415221 7:-0.204636 8:0.244785 9:-0.29554 10:-0.220594 11:-0.26711 12:0.232652 13:-0.00473934 14:0.529785 15:0.422017 16:0.0740517 17:-0.288145 18:0.38661 19:0.050088 20:0.566613 21:0.116437 22:-0.0592854 23:-0.483137 24:-0.580235 25:0.374007 26:-0.112464 27:0.319218 28:0.0483015 29:0.0329198 30:0.133582 
0.9890876603958465 1:0.348628 2:0.0947551 3:0.0457112 4:0.0740029 5:0.296712 6:0.12642 7:-0.431026 8:0.0692583 9:-0.340776 10:-0.216172 11:0.0462314 12:0.113297 13:0.377251 14:0.415912 15:0.0288122 16:-0.247827 17:0.101395 18:0.374826 19:-0.127569 20:0.517069 21:0.236303 22:0.102818 23:-0.218314 24:-0.2493 25:0.405502 26:-0.0719147 27:-0.257415 28:-0.360616 29:-0.150152 30:0.677551 
0.98909891419515295 1:0.360549 2:0.331382 3:0.313852 4:-0.116179 5:0.289119 6:-0.165655 7:-0.181261 8:0.385166 9:-0.462602 10:-0.0365098 11:-0.1711 12:0.164684 13:0.107867 14:0.360759 15:0.157641 16:-0.150414 17:-0.0707113 18:-0.0990919 19:0.018607 20:0.263242 21:0.342857 22:-0.289129 23:-0.401587 24:-0.039531 25:0.343458 26:-0.0615416 27:-0.20329 28:-0.305626 29:-0.100524 30:-0.0412628 
0.98907607557634958 1:0.6 2:0.194662 3:0.0894513 4:-0.076171 5:0.0928272 6:-0.0512618 7:-0.0750193 8:0.190622 9:-0.212404 10:-0.236677 11:-0.530834 12:0.207043 13:0.320041 14:0.354473 15:0.0858929 16:0.0612911 17:-0.309252 18:0.19434 19:-0.127905 20:0.312818 21:0.08 22:-0.0527428 23:-0.17815 24:-0.293983 25:0.171625 26:-0.198079 27:-0.389604 28:-0.0248938 29:0.110008 30:-0.187245 
0.98916997349698321 1:0.39832 2:0.197195 3:0.275162 4:-0.0612395 5:0.334452 6:-0.13612 7:-0.256033 8:0.400398 9:-0.302476 10:-0.202155 11:-0.262515 12:-0.00778133 13:0.0442112 14:0.519649 15:0.244191 16:-0.0688269 17:-0.203022 18:0.395649 19:-0.296656 20:0.426966 21:0.191298 22:0.186613 23:-0.374071 24:-0.442345 25:0.443309 26:-0.166675 27:0.17897 28:-0.163482 29:-0.209043 30:0.207015 
0.98915087194854401 1:0.342319 2:0.436511 3:0.289734 4:0.103539 5:0.238914 6:-0.153352 7:-0.164327 8:-0.0574027 9:-0.213618 10:-0.0768903 11:-0.179524 12:0.231027 13:-0.151659 14:0.419875 15:0.0315847 16:0.15167 17:-0.0503022 18:0.153453 19:-0.252049 20:0.731942 21:0.0594538 22:0.0816809 23:-0.629374 24:-0.0606365 25:0.261859 26:-0.124764 27:0.112122 28:-0.108811 29:-0.0585057 30:0.0844452 
0.98892364824823475 1:0.802212 2:0.0054477 3:-0.0623335 4:0.000981796 5:0.122136 6:-0.0477918 7:-0.103833 8:0.295709 9:-0.451412 10:-0.316615 11:-0.160661 12:0.0258557 13:0.320176 14:0.347961 15:0.215173 16:0.147953 17:-0.248443 18:0.348849 19:0.0371637 20:0.568539 21:0.24937 22:0.15687 23:-0.400408 24:-0.0740369 25:0.439183 26:-0.169692 27:0.231903 28:-0.349735 29:-0.00479184 30:0.36352 
0.9894071845664415 1:0.342933 2:-0.0308896 3:0.285946 4:-0.193209 5:0.0388877 6:-0.0428233 7:-0.14354 8:0.146212 9:-0.244122 10:-0.232472 11:0.200967 12:-0.0943117 13:0.30826 14:0.292792 15:0.329546 16:0.0999749 17:-0.201534 18:0.161267 19:-0.0429972 20:0.354598 21:0.199202 22:-0.0354152 23:-0.528422 24:-0.394439 25:0.493574 26:-0.304387 27:-0.167096 28:-0.293901 29:-0.00339675 30:0.190466 
0.9890864210990904 1:0.463046 2:0.00741814 3:0.173468 4:0.156351 5:0.0585301 6:0.0111711 7:-0.0341652 8:0.0852458 9:-0.142096 10:-0.382483 11:-0.137707 12:0.0497414 13:-0.211307 14:0.435674 15:0.135254 16:-0.0467219 17:0.0108787 18:0.0519958 19:-0.0547196 20:0.436276 21:-0.0737815 22:-0.223855 23:-0.316183 24:-0.296998 25:0.391609 26:-0.095367 27:0.132113 28:-0.385032 29:0.0261649 30:-0.0794005 
0.98907019043537947 1:0.388775 2:0.216459 3:0.406446 4:-0.0445899 5:0.227474 6:-0.154732 7:-0.181245 8:0.258539 9:-0.284967 10:-0.257044 11:-0.244377 12:0.152433 13:0.143981 14:0.421348 15:0.413536 16:0.0870636 17:0.055974 18:0.313073 19:-0.231632 20:0.249989 21:0.117004 22:-0.108606 23:-0.434995 24:-0.106935 25:0.504382 26:-0.214998 27:0.0406295 28:-0.47776 29:-0.0640474 30:0.174566 
0.98916951927729169 1:0.365014 2:0.0861547 3:0.243356 4:-0.3892 5:0.218543 6:-0.0087224 7:-0.208444 8:0.0320546 9:-0.281314 10:-0.207895 11:-0.123793 12:0.164713 13:0.205349 14:0.262916 15:-0.0495787 16:0.0608892 17:-0.181218 18:0.452756 19:-0.35645 20:0.461284 21:0.158918 22:-0.0646704 23:-0.374025 24:-0.271317 25:0.356274 26:-0.245059 27:0.0706485 28:-0.328132 29:-0.0768404 30:-0.0264668 
0.98912150530391951 1:0.333265 2:0.17876 3:0.212403 4:0.0139088 5:0.284882 6:0.266719 7:-0.204219 8:0.165445 9:-0.340881 10:-0.238498 11:-0.136836 12:0.448215 13:0.187285 14:0.443601 15:0.118076 16:0.108616 17:-0.385681 18:0.103231 19:-0.0765502 20:0.432011 21:-0.0105462 22:0.133719 23:-0.499547 24:-0.400201 25:0.409471 26:-0.31435 27:-0.0668574 28:-0.301592 29:-0.090102 30:0.174726 
0.98907506423395619 1:0.352274 2:0.143562 3:0.304209 4:-0.00603395 5:0.104922 6:0.260923 7:-0.272241 8:0.0732424 9:-0.0911058 10:-0.34863 11:-0.0796252 12:0.174883 13:-0.0123223 14:0.297203 15:0.18368 16:-0.300377 17:-0.128567 18:0.226784 19:-0.105252 20:0.541889 21:0.111555 22:-0.268042 23:-0.326782 24:-0.109481 25:0.205423 26:-0.239278 27:0.20248 28:-0.218652 29:-0.00628619 30:0.256569 
0.98911540626300287 1:0.325277 2:-0.0497247 3:0.209867 4:-0.0617713 5:0.313617 6:-0.0670347 7:0.0497556 8:0.0135834 9:-0.160623 10:-0.152534 11:-0.000564289 12:0.30756 13:0.353081 14:0.448698 15:0.14031 16:0.0313439 17:-0.344491 18:0.284798 19:-0.135228 20:0.488287 21:0.0331513 22:-0.00804227 23:-0.25752 24:-0.122479 25:0.365166 26:-0.149282 27:0.395041 28:-0.257532 29:-0.00873449 30:0.0210459 
0.98907486403495393 1:0.472515 2:0.149215 3:0.0551945 4:0.109879 5:0.347076 6:-0.0335568 7:-0.130949 8:0.0516624 9:-0.121457 10:-0.19442 11:0.0534059 12:0.288106 13:0.485443 14:0.124972 15:0.134547 16:-0.0770158 17:0.106788 18:0.129799 19:0.023133 20:0.431873 21:0.157246 22:-0.0505284 23:-0.288083 24:-0.441675 25:0.327349 26:-0.191041 27:0.238388 28:-0.286768 29:0.0759857 30:0.126511 
0.98917157629091768 1:0.459754 2:0.259751 3:0.262696 4:0.169114 5:0.211503 6:0.0654968 7:-0.114896 8:0.0915544 9:-0.144207 10:-0.28683 11:-0.273398 12:0.135371 13:0.305416 14:0.398075 15:0.308562 16:-0.0439186 17:-0.184891 18:0.321647 19:-0.0236359 20:0.360789 21:0.0779832 22:0.202718 23:-0.279048 24:-0.0574204 25:0.187935 26:-0.350103 27:0.118426 28:-0.223073 29:-0.0590405 30:0.108412 
0.9890721081436713 1:0.420975 2:0.124155 3:0.169792 4:0.147556 5:0.232364 6:0.0687303 7:-0.254644 8:-0.0962774 9:-0.274509 10:-0.174479 11:-0.0205562 12:0.313667 13:0.39086 14:0.249692 15:0.141397 16:0.186787 17:-0.226034 18:0.141119 19:-0.114689 20:0.555056 21:0.275042 22:-0.0198792 23:-0.293155 24:-0.080335 25:0.321399 26:-0.133374 27:0.0262756 28:-0.143206 29:0.0879515 30:0.125198 
0.98905940136778181 1:0.344695 2:0.221385 3:0.362653 4:-0.0219063 5:0.336173 6:-0.146491 7:-0.163386 8:-0.040125 9:-0.431196 10:-0.218166 11:-0.0741757 12:0.211229 13:0.454299 14:0.191563 15:0.237445 16:0.0665662 17:0.0240818 18:0.17415 19:-0.113005 20:0.497207 21:0.127466 22:-0.00525415 23:-0.371124 24:-0.456281 25:0.477068 26:-0.120828 27:0.0900763 28:-0.313429 29:-0.0897712 30:0.199974 
0.98907486391304678 1:0.502356 2:0.247522 3:0.235647 4:-0.098875 5:0.422732 6:0.0464905 7:-0.146519 8:0.177266 9:-0.121246 10:-0.212491 11:-0.175897 12:0.137444 13:0.0824645 14:0.293086 15:0.30231 16:0.183019 17:-0.0849093 18:0.0949102 19:-0.165451 20:0.541335 21:0.0468908 22:0.114092 23:-0.336945 24:-0.362881 25:0.436628 26:-0.251989 27:0.246876 28:-0.282335 29:-0.0155886 30:0.39088 
0.98907753740466853 1:0.321139 2:-0.0680382 3:0.160735 4:0.0414809 5:0.113661 6:0.0604495 7:-0.128737 8:0.308724 9:-0.202586 10:-0.0966049 11:-0.0906973 12:0.0819995 13:0.0270142 14:0.293375 15:0.231318 16:-0.166491 17:-0.0946815 18:0.299303 19:-0.295047 20:0.617106 21:0.21105 22:0.0337443 23:-0.281922 24:-0.232027 25:0.437689 26:-0.196088 27:0.0863472 28:-0.121391 29:0.0400331 30:0.107226 
0.98910731308930211 1:0.38009 2:0.0478122 3:0.393713 4:-0.0815709 5:0.277599 6:0.129022 7:-0.0750707 8:0.139307 9:-0.372235 10:-0.177897 11:-0.188634 12:0.0491997 13:0.288016 14:0.0541903 15:0.140473 16:-0.0787239 17:-0.048768 18:0.290898 19:-0.186875 20:0.352717 21:0.0868908 22:0.0490388 23:-0.24175 24:-0.127772 25:0.374679 26:-0.30533 27:0.0821984 28:-0.184395 29:0.00598291 30:0.189107 
0.98911540962234867 1:0.491057 2:0.303274 3:0.138892 4:0.0324361 5:0.166939 6:0.0195229 7:0.0114227 8:0.146104 9:-0.331961 10:-0.226069 11:-0.148972 12:0.224624 13:0.344076 14:0.334088 15:0.135472 16:-0.0989199 17:-0.241376 18:0.154509 19:-0.108071 20:0.441321 21:0.128739 22:-0.0214997 23:-0.320807 24:-0.127906 25:0.519827 26:-0.181693 27:0.139819 28:-0.296003 29:-0.18252 30:0.175 
0.98867812317131432 1:0.599795 2:-0.00573747 3:0.319819 4:-0.119534 5:0.23008 6:-0.00391956 7:-0.281451 8:0.110048 9:-0.17176 10:-0.257438 11:-0.135058 12:0.219109 13:0.0936493 14:0.246172 15:0.18175 16:0.184125 17:-0.0246397 18:0.144625 19:-0.25567 20:0.544453 21:0.146197 22:0.0418571 23:-0.151813 24:0.0675377 25:0.371071 26:-0.119188 27:0.230377 28:-0.13466 29:-0.156603 30:0.123438 
0.9894071564123661 1:0.366694 2:0.297131 3:0.257704 4:-0.0609941 5:0.0831605 6:-0.0217666 7:-0.29133 8:0.124865 9:-0.246904 10:-0.146629 11:-0.166385 12:0.144477 13:0.0855789 14:0.306687 15:0.0838815 16:0.142075 17:-0.179823 18:0.16169 19:0.031833 20:0.710892 21:0.0789916 22:0.0128535 23:-0.111559 24:-0.251365 25:0.530202 26:-0.317056 27:0.0206962 28:-0.154989 29:-0.0577226 30:0.292921 
0.98908680605756005 1:0.496817 2:0.148024 3:0.241993 4:0.00269176 5:0.283249 6:0.137027 7:-0.205269 8:0.0848025 9:-0.200106 10:-0.0266032 11:-0.139299 12:0.0934253 13:0.266554 14:0.197537 15:0.404893 16:0.00681738 17:-0.0885495 18:0.257939 19:-0.197636 20:0.338179 21:0.0202941 22:0.234021 23:-0.323001 24:-0.262767 25:0.312399 26:-0.283108 27:-0.0264187 28:-0.262458 29:-0.00363937 30:0.187398 
0.98926308542397279 1:0.439005 2:0.127111 3:0.244365 4:0.014142 5:0.202834 6:0.125158 7:-0.231598 8:0.0670645 9:-0.30076 10:-0.174315 11:-0.0164047 12:-0.0247722 13:0.114658 14:0.166931 15:0.28959 16:-0.0828435 17:-0.253603 18:0.245886 19:-0.123475 20:0.538055 21:0.117962 22:0.00830901 23:-0.361559 24:-0.124288 25:0.320731 26:-0.215252 27:0.0631426 28:-0.237962 29:-0.0397408 30:0.171314 
0.98905052359762202 1:0.529045 2:0.153196 3:0.21911 4:-0.095766 5:0.207707 6:0.0604416 7:-0.318446 8:0.00426257 9:-0.165849 10:-0.204041 11:-0.180089 12:0.0576213 13:0.163048 14:0.253597 15:0.287469 16:-0.0891736 17:-0.161674 18:0.194171 19:-0.0543073 20:0.622197 21:0.120286 22:0.0953196 23:-0.43418 24:-0.237079 25:0.332085 26:-0.15795 27:0.161612 28:-0.410032 29:-0.0487676 30:0.2625 
0.98907268123363612 1:0.387382 2:0.137127 3:0.146191 4:-0.0201514 5:0.0989186 6:0.0567271 7:-0.247492 8:0.0588633 9:-0.263911 10:-0.184865 11:-0.0235389 12:0.117493 13:0.218659 14:0.130974 15:0.266268 16:-0.129063 17:-0.0959461 18:0.336262 19:0.0422932 20:0.511837 21:0.134227 22:-0.0273528 23:-0.452131 24:-0.194184 25:0.345632 26:-0.153383 27:-0.0259895 28:-0.256285 29:0.0335815 30:0.269834 
0.98911869326353774 1:0.51737 2:0.17734 3:0.232989 4:0.0737574 5:0.169367 6:-0.0332808 7:-0.234592 8:0.0214834 9:-0.193032 10:-0.250877 11:-0.000604595 12:0.348387 13:-0.0849695 14:0.228981 15:0.190372 16:-0.0724943 17:-0.243282 18:0.256177 19:-0.118808 20:0.392112 21:0.256008 22:0.1307 23:-0.305403 24:-0.124958 25:0.438279 26:-0.251333 27:-0.0175489 28:-0.358121 29:-0.0300877 30:0.0391582 
0.98948135287119166 1:0.391848 2:0.0849609 3:0.163719 4:0.00691348 5:0.251326 6:0.0318021 7:-0.227589 8:0.0100597 9:-0.283943 10:-0.12803 11:-0.123027 12:0.0629402 13:0.134509 14:0.307395 15:0.246317 16:0.0552625 17:-0.0490934 18:0.135164 19:-0.117712 20:0.483197 21:0.182042 22:0.0337645 23:-0.327357 24:-0.225575 25:0.281863 26:-0.196126 27:0.129347 28:-0.341401 29:0.000920871 30:0.183042 
0.9893987124827347 1:0.566039 2:-0.0625906 3:0.19041 4:0.0620577 5:0.195665 6:0.0766562 7:-0.294726 8:0.219381 9:-0.19583 10:-0.240075 11:-0.054212 12:0.19441 13:0.127143 14:0.217191 15:0.21626 16:0.0257724 17:-0.0306834 18:0.177825 19:-0.165954 20:0.497537 21:0.0848739 22:-0.000392048 23:-0.373028 24:-0.33139 25:0.44441 26:-0.170951 27:0.0918312 28:-0.182113 29:-0.00358423 30:0.144267 
0.98933072339653094 1:0.499902 2:0.0892611 3:0.154076 4:-0.114134 5:0.180622 6:-0.0014511 7:-0.314793 8:0.259278 9:-0.177567 10:-0.250517 11:-0.0263603 12:0.200955 13:0.129276 14:0.398867 15:0.206657 16:-0.0363627 17:-0.119898 18:0.29132 19:-0.0078954 20:0.479546 21:0.0687395 22:-0.0423654 23:-0.290063 24:-0.266459 25:0.347208 26:-0.24428 27:0.11599 28:-0.332537 29:-0.0286752 30:0.284821 
0.98893775037744502 1:0.443556 2:0.102052 3:0.174267 4:-0.04027 5:0.119532 6:-0.00277603 7:-0.192354 8:0.185337 9:-0.38142 10:-0.112121 11:-0.0771584 12:0.198931 13:0.232295 14:0.311268 15:0.249981 16:-0.144486 17:-0.171808 18:0.178754 19:-0.107423 20:0.495643 21:0.276681 22:0.0559134 23:-0.315879 24:-0.281494 25:0.406681 26:-0.124354 27:0.147735 28:-0.152548 29:-0.0763551 30:0.194834 
0.98927003966088556 1:0.503941 2:0.173955 3:0.195509 4:-0.0121865 5:0.196968 6:0.0119874 7:-0.263905 8:0.12495 9:-0.27453 10:-0.22742 11:-0.0384119 12:0.144526 13:0.143771 14:0.348414 15:0.225996 16:0.094097 17:-0.0907624 18:0.241267 19:-0.0859744 20:0.550929 21:0.208613 22:-0.0573729 23:-0.301355 24:-0.209199 25:0.336675 26:-0.28647 27:0.0233667 28:-0.142994 29:0.14381 30:0.166881 
0.98882663495525192 1:0.473859 2:0.140999 3:0.151305 4:0.0548988 5:0.337762 6:-0.0347792 7:-0.164173 8:0.0150611 9:-0.308298 10:-0.1893 11:-0.0909996 12:0.147707 13:-0.054367 14:0.229185 15:0.141234 16:0.0103793 17:-0.0288238 18:0.265056 19:-0.124969 20:0.580693 21:0.162975 22:0.0909411 23:-0.317008 24:-0.266084 25:0.326375 26:-0.305494 27:0.0663853 28:-0.279496 29:-0.0172484 30:0.0392219 
0.9891594447201324 1:0.381975 2:0.203999 3:0.180341 4:0.0217713 5:0.182785 6:-0.00331625 7:-0.261024 8:-0.0718386 9:-0.235487 10:-0.221289 11:-0.14216 12:0.0337848 13:0.0316858 14:0.335221 15:0.206814 16:-0.0909822 17:-0.0848489 18:0.222403 19:-0.0294192 20:0.446274 21:0.181643 22:0.145546 23:-0.288944 24:-0.415812 25:0.439065 26:-0.256909 27:0.168908 28:-0.296794 29:-0.0160849 30:0.217219 
0.99107689937536825 1:0.490152 2:0.0614894 3:0.2183 4:0.083739 5:0.216928 6:0.057776 7:-0.221482 8:0.139506 9:-0.266304 10:-0.213439 11:-0.099732 12:0.130337 13:0.18845 14:0.127916 15:0.243169 16:0.0436323 17:-0.173403 18:0.261567 19:-0.121132 20:0.510172 21:0.159668 22:0.0363211 23:-0.364687 24:-0.205789 25:0.349471 26:-0.0856909 27:0.0534049 28:-0.336146 29:-0.0668156 30:0.163138 
0.98912101193279023 1:0.558337 2:0.189841 3:0.131167 4:-0.0134301 5:0.135599 6:0.0516719 7:-0.147265 8:0.0395567 9:-0.241087 10:-0.120453 11:-0.0596413 12:0.0910613 13:0.162323 14:0.151755 15:0.185985 16:0.0358101 17:-0.197257 18:0.187878 19:-0.228916 20:0.493396 21:0.0978992 22:-0.139155 23:-0.330549 24:-0.369849 25:0.380625 26:-0.19239 27:0.139852 28:-0.346125 29:0.038434 30:0.0373724 
0.98911765167905019 1:0.475813 2:0.0541872 3:0.366489 4:0.0362405 5:0.217263 6:-0.00829259 7:-0.324672 8:0.131833 9:-0.339298 10:-0.205688 11:-0.0948372 12:0.284511 13:0.333108 14:0.0697055 15:0.20838 16:0.0603868 17:-0.113575 18:0.299979 19:0.000402313 20:0.495221 21:0.118924 22:0.00788274 23:-0.336537 24:-0.253722 25:0.351256 26:-0.198491 27:0.09299 28:-0.218493 29:0.0287841 30:0.0620536 
0.98930746823302029 1:0.471458 2:0.214141 3:0.221646 4:-0.0578441 5:0.196592 6:0.0202867 7:-0.218873 8:0.117914 9:-0.151491 10:-0.249533 11:-0.0829867 12:0.26555 13:0.292823 14:0.281886 15:0.188578 16:0.024848 17:-0.14218 18:0.197719 19:-0.235554 20:0.642467 21:0.166613 22:-0.0443231 23:-0.270462 24:-0.299692 25:0.371224 26:-0.281263 27:0.112327 28:-0.289023 29:-0.0972153 30:0.175006 
0.98923902552251575 1:0.465023 2:0.188305 3:0.234267 4:0.043649 5:0.23631 6:0.0523186 7:-0.220818 8:0.145036 9:-0.320079 10:-0.196441 11:-0.0941778 12:0.159532 13:0.104001 14:0.365459 15:0.239603 16:-0.115448 17:-0.194282 18:0.251267 19:0.008348 20:0.574226 21:0.225756 22:-0.0521389 23:-0.27481 24:-0.239819 25:0.355256 26:-0.241492 27:0.0898617 28:-0.217309 29:-0.0991453 30:-0.0277423 
0.98920243522170814 1:0.446833 2:0.180481 3:0.318061 4:0.00349356 5:0.210991 6:0.0444006 7:-0.228541 8:0.249389 9:-0.226128 10:-0.243267 11:-0.0637646 12:0.167639 13:0.0383209 14:0.249713 15:0.260669 16:0.0164984 17:-0.0824175 18:0.266691 19:-0.149293 20:0.481215 21:0.142013 22:-0.0309663 23:-0.272915 24:-0.151089 25:0.351381 26:-0.115416 27:0.0419647 28:-0.206141 29:-0.166639 30:0.200159 
0.98913375568706008 1:0.484937 2:0.0935787 3:0.152211 4:0.032972 5:0.160318 6:0.0059306 7:-0.128634 8:0.171583 9:-0.303014 10:-0.248352 11:-0.129266 12:0.225659 13:0.040149 14:0.133182 15:0.216129 16:-0.0327908 17:-0.042027 18:0.22618 19:-0.0991345 20:0.456808 21:0.175651 22:-0.0360594 23:-0.286828 24:-0.15866 25:0.452702 26:-0.295859 27:0.142146 28:-0.229453 29:0.0321478 30:0.134029 
0.98944924086355102 1:0.492663 2:0.0784121 3:0.250639 4:-0.0109348 5:0.200644 6:0.0267425 7:-0.098585 8:0.0991313 9:-0.426287 10:-0.23916 11:-0.135703 12:0.117252 13:0.0975017 14:0.325821 15:0.215406 16:-0.0520121 17:-0.171097 18:0.214952 19:-0.130641 20:0.535973 21:0.114101 22:-0.0823855 23:-0.25616 24:-0.271839 25:0.394046 26:-0.184736 27:0.149452 28:-0.364968 29:0.0331403 30:0.168029 
0.9894617083996472 1:0.483367 2:0.239351 3:0.332712 4:0.00620986 5:0.270152 6:0.00712539 7:-0.241163 8:0.201705 9:-0.263193 10:-0.157454 11:-0.0665619 12:0.0258557 13:0.262288 14:0.193488 15:0.10405 16:-0.0075363 17:-0.130665 18:0.302302 19:-0.0953266 20:0.445311 21:0.127891 22:-0.0638651 23:-0.280077 24:-0.197769 25:0.434309 26:-0.157364 27:0.189032 28:-0.261783 29:0.0251117 30:0.139013 
0.98915732668851375 1:0.490008 2:0.0889945 3:0.295535 4:0.018106 5:0.213247 6:-0.0285489 7:-0.19451 8:0.0872748 9:-0.181209 10:-0.216283 11:-0.126546 12:0.13049 13:0.119526 14:0.133409 15:0.32199 16:0.0531022 17:-0.195723 18:0.256579 19:-0.141981 20:0.518078 21:0.306303 22:-0.0144036 23:-0.239619 24:-0.364355 25:0.287522 26:-0.220275 27:0.074268 28:-0.215998 29:0.0152523 30:0.216709 
0.98938939192117958 1:0.504633 2:0.0122283 3:0.205978 4:-0.0286971 5:0.22316 6:0.0293494 7:-0.252225 8:0.186814 9:-0.29895 10:-0.209224 11:-0.0624264 12:0.267176 13:0.157341 14:0.253716 15:0.161191 16:-0.0407084 17:-0.107503 18:0.186146 19:-0.114026 20:0.433937 21:0.225966 22:0.051238 23:-0.346283 24:-0.30658 25:0.381167 26:-0.220213 27:0.138283 28:-0.247797 29:-0.00172594 30:0.0181122 
0.98912302506036587 1:0.489312 2:0.0697189 3:0.317315 4:-0.00332215 5:0.209786 6:0.0245678 7:-0.122048 8:0.00716113 9:-0.274391 10:-0.192485 11:-0.100083 12:0.217483 13:0.107976 14:0.232973 15:0.250188 16:0.0158754 17:-0.126012 18:0.308933 19:0.0200151 20:0.393488 21:0.221008 22:-0.0439004 23:-0.286305 24:-0.190479 25:0.365042 26:-0.222472 27:0.127163 28:-0.222622 29:-0.216929 30:0.306952 
0.98955652407314165 1:0.409013 2:0.150872 3:0.170272 4:-0.042115 5:0.193251 6:-0.0248028 7:-0.119475 8:0.0560727 9:-0.259599 10:-0.300672 11:-0.077239 12:0.142783 13:0.200386 14:0.138448 15:0.312422 16:-0.010731 17:-0.144872 18:0.266108 19:-0.148247 20:0.553268 21:0.11084 22:0.0715652 23:-0.288225 24:-0.247053 25:0.36231 26:-0.175822 27:0.0728183 28:-0.217097 29:-0.0238423 30:0.0293367 
0.98911902477974101 1:0.46951 2:0.156418 3:0.368194 4:0.0276171 5:0.233223 6:0.000315457 7:-0.251556 8:0.104789 9:-0.374083 10:-0.226738 11:-0.0567916 12:0.12882 13:0.216953 14:0.358947 15:0.0645284 16:-0.0312987 17:-0.112734 18:0.245236 19:-0.0871662 20:0.489351 21:0.174744 22:0.00959738 23:-0.264955 24:-0.26475 25:0.344024 26:-0.288315 27:0.120439 28:-0.292086 29:0.089716 30:0.203189 
0.98943301523302862 1:0.420934 2:0.104903 3:0.298775 4:0.00227163 5:0.248788 6:0.0389235 7:-0.187469 8:0.168741 9:-0.246994 10:-0.229601 11:-0.109121 12:0.199616 13:0.128754 14:0.179728 15:0.0452297 16:-0.0563175 17:-0.112854 18:0.251342 19:-0.101329 20:0.516006 21:0.155234 22:0.0392451 23:-0.271364 24:-0.271183 25:0.410533 26:-0.188044 27:0.123805 28:-0.260499 29:0.105045 30:0.283355 
0.99022286502199464 1:0.475989 2:0.00811359 3:0.25374 4:0.028333 5:0.207349 6:0.0517666 7:-0.227589 8:0.0722933 9:-0.191607 10:-0.176339 11:-0.103297 12:0.13509 13:0.189418 14:0.295532 15:0.251193 16:0.102939 17:-0.106258 18:0.271472 19:-0.058959 20:0.479803 21:0.112689 22:-0.0531454 23:-0.307112 24:-0.187571 25:0.377725 26:-0.262485 27:0.0711254 28:-0.277919 29:-0.0384064 30:0.104923 
0.99377492583339033 1:0.474531 2:0.156598 3:0.330101 4:0.0207527 5:0.189292 6:0.0412697 7:-0.162732 8:0.112606 9:-0.35128 10:-0.198324 11:-0.101649 12:0.176779 13:0.233446 14:0.234587 15:0.277086 16:0.0242854 17:-0.116527 18:0.224904 19:-0.0702942 20:0.534616 21:0.0813866 22:-0.0224459 23:-0.302838 24:-0.254888 25:0.366157 26:-0.185342 27:0.0722842 28:-0.342781 29:-0.121257 30:0.092602 
0.98937604478662367 1:0.459005 2:0.192054 3:0.275354 4:0.0171078 5:0.227839 6:0.0280244 7:-0.180607 8:0.080682 9:-0.286434 10:-0.225865 11:-0.12819 12:0.172642 13:0.149039 14:0.232928 15:0.324653 16:-0.00493042 17:-0.12362 18:0.252879 19:-0.115409 20:0.487943 21:0.165307 22:-0.0521389 23:-0.269878 24:-0.203477 25:0.37908 26:-0.175691 27:0.121273 28:-0.424098 29:0.147505 30:0.140383 
0.98915985905917947 1:0.49576 2:0.351956 3:1 4:-0.0767437 5:-0.159391 6:0.562303 7:-0.116079 8:-0.0674055 9:0.361309 10:0.0460882 11:-1 12:1 13:0.100305 14:0.425311 15:-0.302419 16:-0.354735 17:-0.773594 18:0.884688 19:-0.152326 20:-0.291906 21:0.760084 22:-0.909411 23:1 24:0.58057 25:0.0361564 26:-0.00315703 27:-0.32041 28:-0.0837049 29:-0.574966 30:0.594579 
0.98912878620091416 1:-0.375256 2:0.361113 3:0.0322856 4:0.0933115 5:0.187932 6:-0.0804416 7:-0.538359 8:-0.630009 9:-0.605331 10:-0.158045 11:-0.457114 12:-0.384881 13:0.0635071 14:0.787203 15:0.54417 16:0.0957046 17:-0.197397 18:-0.104329 19:0.0792054 20:0.267462 21:-0.642017 22:-0.0201359 23:-0.718903 24:-0.12804 25:0.420515 26:0.393194 27:-0.292465 28:-0.990446 29:0.426027 30:0.732015 
0.98910785337091167 1:0.269644 2:0.530977 3:-0.132605 4:-0.186091 5:0.252991 6:0.240931 7:-0.104605 8:0.480193 9:-0.550383 10:-0.233453 11:-0.0207578 12:0.393647 13:-0.120176 14:-1 15:-0.0527317 16:0.158754 17:-0.309159 18:0.37301 19:-0.450641 20:0.465237 21:0.420924 22:0.504076 23:0.119946 24:-0.223062 25:0.508391 26:-0.0343173 27:-0.315546 28:-0.220324 29:-0.411304 30:-0.384758 
0.98910058479927654 1:0.347153 2:-0.0410316 3:0.408364 4:0.2063 5:0.749283 6:-0.0522082 7:-0.71186 8:0.426996 9:-0.0226445 10:-0.270231 11:-0.140709 12:0.589017 13:-0.231889 14:0.15 15:0.120576 16:-0.142678 17:-0.412924 18:-0.00937698 19:-0.105758 20:0.515992 21:0.113605 22:0.219124 23:0.102856 24:-0.288784 25:0.228139 26:-0.324846 27:-0.167287 28:-0.664066 29:0.0239261 30:0.32449 
0.98911507960579648 1:0.320811 2:1 3:0.19382 4:-0.141624 5:0.157316 6:-0.19724 7:-0.566246 8:0.488548 9:0.405648 10:-0.259373 11:-0.407618 12:-0.576459 13:-0.583615 14:0.536127 15:0.159255 16:-0.167496 17:-0.0787076 18:0.496008 19:0.318934 20:0.137079 21:0.407227 22:0.23392 23:0.220762 24:-0.287008 25:0.163451 26:0.128208 27:-0.0421078 28:-0.195488 29:0.0685415 30:-0.00318878 
0.98908560918890653 1:0.400819 2:-0.240742 3:0.329622 4:-0.106975 5:0.541514 6:-0.015694 7:-0.579264 8:-0.525433 9:-0.846925 10:-0.189559 11:-0.277267 12:0.120571 13:0.592417 14:0.62786 15:-0.154118 16:-0.010319 17:-0.00646211 18:0.185216 19:-0.174051 20:0.274111 21:-0.0290336 22:0.0666331 23:-0.388169 24:-0.483551 25:0.49212 26:-0.12296 27:0.337196 28:-0.798832 29:0.000397022 30:0.342538 
0.98911540842291734 1:0.412249 2:0.074703 3:0.841236 4:0.113111 5:0.182035 6:0.401144 7:0.00648315 8:0.0767434 9:-0.570969 10:-0.160505 11:-0.161427 12:0.181527 13:-0.187813 14:-0.511325 15:0.267681 16:0.163024 17:-0.0794049 18:0.570475 19:-0.0142318 20:0.370328 21:0.240756 22:-0.343181 23:-0.379465 24:-0.665126 25:0.478011 26:-0.586921 27:0.184549 28:-0.413163 29:0.380921 30:0.941964 
0.98918825322077208 1:0.305531 2:0.132315 3:0.190517 4:-0.162814 5:0.0630766 6:0.0155797 7:-0.234813 8:0.0765274 9:-0.702613 10:-0.0903395 11:0.183192 12:0.521596 13:-0.376845 14:0.34581 15:0.184137 16:-0.0814368 17:-0.118178 18:0.268929 19:-0.21041 20:-0.146526 21:-0.0993277 22:0.173276 23:-0.41709 24:0.0213065 25:0.472745 26:0.469045 27:0.305007 28:-0.888535 29:-0.0711718 30:0.19852 
0.98905014024505911 1:0.19578 2:0.69093 3:0.448695 4:-0.0851299 5:-0.0834694 6:0.265733 7:-0.265192 8:-0.261836 9:-0.091317 10:-0.0436608 11:-0.0335752 12:0.334794 13:-0.0763033 14:0.118856 15:-0.0106551 16:0.242401 17:-0.185821 18:0.359789 19:0.138899 20:0.654299 21:-0.0291597 22:0.433065 23:-0.238305 24:0.0132663 25:0.0814698 26:-0.575646 27:0.158846 28:0.18413 29:-0.286077 30:0.608227 
0.98907506347418073 1:0.400205 2:-0.131498 3:0.094033 4:0.0321129 5:0.277378 6:0.383005 7:0.0738873 8:0.237113 9:-0.438269 10:-0.0736428 11:0.0214833 12:-0.827629 13:0.330738 14:0.315176 15:0.319543 16:0.0899774 17:-0.0592748 18:-0.0233157 19:0.107216 20:0.329924 21:0.0940336 22:0.225566 23:-0.237126 24:-0.40804 25:-0.147573 26:-0.287331 27:0.163376 28:-0.264873 29:-0.146126 30:0.229592 
0.98906376473957336 1:0.439549 2:-0.0117647 3:0.274465 4:-0.0377746 5:0.30832 6:0.00339905 7:-0.128171 8:-0.0130719 9:-0.23015 10:-0.184432 11:-0.0632568 12:0.312189 13:-0.0255247 14:0.0945074 15:-0.00146779 16:-0.260889 17:-0.289865 18:0.00143611 19:-0.00336937 20:0.165283 21:0.0220168 22:-0.179165 23:-0.399728 24:-0.343987 25:0.445156 26:-0.209393 27:0.286075 28:-0.568524 29:-0.301958 30:-0.325957 
0.9894071564080763 1:0.593773 2:0.331556 3:0.182898 4:0.0304766 5:0.278967 6:0.112658 7:-0.14761 8:0.0953299 9:-0.511956 10:-0.0861079 11:-0.0409915 12:0.455701 13:0.468179 14:0.612118 15:-0.0881218 16:0.270435 17:0.0206416 18:0.127645 19:0.133065 20:0.427746 21:-0.152059 22:0.140161 23:-0.0357661 24:-0.348007 25:0.28819 26:-0.00906109 27:-0.161326 28:-0.483864 29:-0.231541 30:0.429401 
0.98883309265443575 1:0.362188 2:0.0175601 3:0.177571 4:-0.0878707 5:-0.0212315 6:0.161672 7:-0.0544379 8:0.110048 9:-0.370705 10:-0.0415942 11:0.0140266 12:0.651317 13:0.0534191 14:0.483805 15:0.384398 16:0.256368 17:-0.0655044 18:-0.0396621 19:0.166256 20:0.34382 21:0.130197 22:0.15843 23:-0.401859 24:-0.181709 25:0.275968 26:-0.264986 27:-0.0909394 28:-0.681582 29:0.298484 30:0.303763 
0.98907165188201684 1:0.496112 2:0.0270646 3:0.128929 4:-0.185437 5:0.264939 6:-0.0639984 7:-0.176532 8:0.181245 9:-0.420375 10:-0.197471 11:0.0338573 12:-0.168973 13:0.689032 14:-0.0878256 15:0.0758358 16:-0.243758 17:-0.366016 18:0.259734 19:-0.200603 20:0.408393 21:0.339622 22:-0.179215 23:-0.364007 24:0.00710218 25:0.161014 26:-0.0600656 27:0.0433476 28:-0.612898 29:0.0320926 30:0.38074 
0.98915985905917947 1:0.636297 2:0.103043 3:0.378157 4:-0.227613 5:0.225394 6:0.0705047 7:-0.497607 8:-0.020233 9:-0.47564 10:-0.114909 11:-0.0728134 12:0.144112 13:0.367502 14:0.536863 15:0.0251699 16:0.125496 17:-0.141469 18:0.296389 19:-0.16862 20:0.454299 21:0.523529 22:0.0199547 23:-0.0922031 24:-0.128308 25:0.183494 26:-0.248134 27:0.240629 28:-0.607803 29:-0.130742 30:0.217857 
0.98910058479927654 1:0.544121 2:0.0407998 3:0.400799 4:0.0419309 5:0.14275 6:0.0830836 7:-0.169205 8:0.210344 9:-0.390921 10:-0.093095 11:0.0509069 12:0.316868 13:0.410291 14:0.616761 15:0.192036 16:-0.291886 17:-0.208136 18:0.211844 19:-0.041036 20:0.552717 21:-0.00554622 22:-0.0331656 23:-0.431414 24:-0.192087 25:0.426646 26:-0.363141 27:0.314306 28:-0.155308 29:-0.0387483 30:0.362436 
0.98897196132878651 1:0.408234 2:-0.00237612 3:0.593873 4:0.00363674 5:0.303862 6:0.076735 7:-0.245742 8:0.526797 9:-0.357667 10:-0.0709857 11:0.0675131 12:-0.0308791 13:0.354367 14:0.133522 15:0.341288 16:-0.0279126 17:-0.338447 18:-0.000464625 19:-0.187981 20:0.272919 21:0.344664 22:0.140815 23:-0.446917 24:-0.333199 25:0.266771 26:-0.106683 27:0.0194087 28:-0.0679406 29:-0.101186 30:-0.0392857 
0.98907451510935784 1:0.289472 2:0.165413 3:0.39025 4:-0.155042 5:0.143765 6:0.0513801 7:-0.331721 8:0.585394 9:-0.410293 10:-0.198061 11:-0.24337 12:0.35671 13:-0.354096 14:0.28004 15:0.216282 16:-0.034323 17:-0.0821106 18:0.380106 19:-0.184913 20:0.402155 21:-0.077605 22:0.0400906 23:-0.113463 24:-0.193018 25:0.364216 26:-0.351251 27:0.0970005 28:-0.216072 29:0.18831 30:0.0360332 
0.98915985905917947 1:0.353175 2:0.0847233 3:0.312094 4:0.00893025 5:0.0699625 6:0.0866325 7:-0.0432724 8:-0.0927536 9:-0.304318 10:-0.168575 11:-0.133829 12:0.273726 13:0.502505 14:0.520159 15:0.0861647 16:-0.144687 17:-0.292748 18:0.197001 19:-0.212623 20:0.481445 21:0.155245 22:-0.320936 23:-0.174116 24:0.0256616 25:0.307133 26:-0.103526 27:-0.234192 28:-0.214528 29:0.081941 30:0.0424107 
0.98907753740388893 1:0.228267 2:0.210664 3:0.474427 4:-0.00308652 5:0.352946 6:0.0324093 7:-0.153496 8:-0.0448423 9:-0.00290314 10:-0.197323 11:-0.098532 12:0.249446 13:-0.0212593 14:0.263511 15:0.109378 16:-0.206732 17:-0.0588099 18:0.140781 19:-0.182952 20:0.489649 21:0.364874 22:-0.101158 23:-0.31058 24:-0.175678 25:0.510591 26:-0.411562 27:0.0911969 28:-0.549204 29:-0.10295 30:0.175995 
0.98911487415529675 1:0.582057 2:0.122121 3:0.275104 4:-0.049867 5:0.204326 6:0.149448 7:-0.149267 8:-0.197442 9:-0.214199 10:-0.20167 11:-0.219347 12:0.413002 13:0.266486 14:0.0597395 15:0.241147 16:-0.240744 17:-0.0898652 18:0.101246 19:0.10601 20:0.522288 21:0.214286 22:-0.0801208 23:-0.429238 24:-0.304583 25:0.179485 26:-0.316769 27:0.135336 28:-0.146285 29:0.0947891 30:0.126671 
0.98918408921995926 1:0.437067 2:0.342741 3:0.346457 4:0.0290612 5:0.27552 6:-0.0405363 7:0.00771803 8:0.324751 9:-0.207495 10:-0.173397 11:-0.228859 12:0.0198966 13:0.0344617 14:0.158494 15:0.132753 16:0.117609 17:-0.23059 18:0.0466737 19:-0.357204 20:0.464132 21:0.108445 22:-0.078309 23:-0.334497 24:-0.275002 25:0.281234 26:-0.289545 27:0.145312 28:-0.698036 29:-0.0595478 30:0.0563776 
0.98909214277728652 1:0.465594 2:0.079687 3:0.342088 4:-0.156515 5:0.180269 6:0.0598068 7:0.0291227 8:0.226257 9:0.0182634 10:-0.204789 11:0.0326481 12:0.198966 13:0.311781 14:0.309071 15:0.1623 16:-0.0427681 17:-0.127297 18:0.389314 19:-0.0207694 20:0.313827 21:0.153287 22:0.165375 23:-0.453762 24:-0.11665 25:0.463431 26:-0.110701 27:0.140138 28:-0.404087 29:-0.0619465 30:-0.199426 
0.98915963368871296 1:0.561327 2:0.306404 3:0.225365 4:-0.0363183 5:0.242375 6:-0.129416 7:-0.199825 8:0.267917 9:-0.100765 10:-0.227387 11:-0.100254 12:0.00270869 13:0.0676371 14:0.470895 15:-0.00201142 16:-0.0221954 17:-0.162622 18:0.253081 19:-0.0683379 20:0.632149 21:-0.0772689 22:-0.0571716 23:-0.143472 24:-0.275484 25:0.414698 26:-0.143706 27:-0.000286123 28:-0.372452 29:-0.255859 30:0.169585 
0.98910729843057688 1:0.484306 2:0.165784 3:0.125946 4:0.0310084 5:0.371309 6:0.0499527 7:-0.193496 8:-0.17738 9:-0.128636 10:-0.277186 11:0.0400645 12:0.233342 13:0.0328368 14:0.324292 15:0.121392 16:0.0322733 17:-0.183728 18:0.366885 19:-0.0014081 20:0.239899 21:0.17284 22:-0.20765 23:-0.4199 24:-0.124757 25:0.194891 26:-0.238909 27:0.0954177 28:-0.0941083 29:-0.0364709 30:-0.0722577 
0.98923955999923052 1:0.562147 2:0.133579 3:0.58439 4:-0.153651 5:0.29755 6:-0.0397871 7:-0.361616 8:0.0766297 9:-0.206651 10:-0.154863 11:0.0603386 12:0.181044 13:0.445836 14:0.314156 15:0.315792 16:-0.102688 17:-0.114286 18:0.442619 19:-0.224139 20:0.414951 21:0.0191176 22:0.217363 23:-0.250453 24:-0.405896 25:0.518491 26:-0.298483 27:0.0881021 28:-0.262866 29:-0.0937414 30:0.297258 
0.9891000260487508 1:0.353667 2:0.281252 3:0.189718 4:-0.0111679 5:0.0670051 6:-0.0195978 7:-0.220828 8:-0.310429 9:-0.176036 10:-0.215286 11:0.0941153 12:0.183147 13:-0.135816 14:0.271772 15:0.277304 16:-0.123235 17:-0.0710832 18:0.19603 19:-0.24697 20:0.266728 21:0.440588 22:-0.00332662 23:-0.204941 24:-0.385126 25:0.408253 26:-0.159836 27:0.172246 28:-0.317251 29:-0.0792335 30:0.23176 
0.98961583965640043 1:0.366489 2:0.189516 3:0.380288 4:-0.0201105 5:0.135732 6:0.0700315 7:-0.151927 8:-0.25297 9:-0.325838 10:-0.306479 11:0.0337767 12:0.185147 13:0.171977 14:0.511778 15:0.26567 16:0.102336 17:-0.140944 18:0.111932 19:-0.145839 20:0.486998 21:0.173874 22:0.191444 23:-0.253898 24:-0.252679 25:0.311967 26:-0.168696 27:0.0659466 28:-0.300573 29:0.0497932 30:0.0219388 
0.98905014024505911 1:0.457579 2:0.148566 3:0.0713372 4:-0.00193332 5:0.0804237 6:0.00821767 7:-0.212297 8:0.458085 9:-0.204698 10:-0.189418 11:-0.11339 12:0.230584 13:0.472241 14:0.212333 15:0.229019 16:0.104496 17:-0.221804 18:0.256895 19:-0.161126 20:0.405916 21:0.330168 22:0.327378 23:-0.345422 24:-0.166097 25:0.501356 26:-0.117384 27:0.0596853 28:-0.398089 29:0.0681004 30:0.340689 
0.989050140245059 1:0.451311 2:0.0393509 3:0.434683 4:0.00429945 5:0.229509 6:-0.0107886 7:-0.161811 8:-0.179483 9:-0.310779 10:-0.165786 11:-0.0719871 12:0.0540261 13:0.067434 14:0.222599 15:0.211662 16:0.0982668 17:-0.126944 18:0.31189 19:-0.195072 20:0.408714 21:0.179601 22:0.286714 23:-0.460063 24:-0.0598325 25:0.289291 26:-0.116236 27:-0.138436 28:-0.094586 29:-0.0611139 30:0.266837 
0.98905014677148595 1:0.521467 2:-0.0471168 3:0.387853 4:-0.024414 5:0.234837 6:-0.00347003 7:-0.457525 8:-0.100938 9:-0.231898 10:-0.155224 11:-0.144458 12:-0.133957 13:0.163738 14:-0.0429785 15:0.339603 16:-0.0144386 17:-0.021153 18:0.195269 19:-0.183053 20:0.568952 21:0.137349 22:-0.000679416 23:-0.167815 24:-0.189059 25:0.396652 26:-0.0914309 27:0.145446 28:-0.318047 29:0.0371657 30:0.297003 
0.98907425956130346 1:0.473482 2:0.0775427 3:0.109643 4:-0.0143465 5:0.086471 6:0.0236972 7:-0.168263 8:-0.102302 9:-0.245104 10:-0.153813 11:-0.0615478 12:0.22428 13:0.467095 14:0.305708 15:0.474694 16:0.142627 17:-0.0923013 18:0.238399 19:-0.119266 20:0.425957 21:0.122941 22:-0.0471062 23:-0.131777 24:-0.186573 25:0.333413 26:-0.191172 27:0.137029 28:-0.392197 29:-0.013212 30:-0.0274235 
0.98910793000616781 1:0.595412 2:0.422602 3:0.188652 4:-0.0289139 5:0.307217 6:0.0476853 7:-0.182922 8:0.017846 9:-0.263901 10:-0.129211 11:-0.129355 12:-0.0339325 13:0.381787 14:0.393828 15:0.204908 16:-0.120271 17:-0.156774 18:0.137318 19:-0.106704 20:0.461114 21:0.101218 22:0.059537 23:-0.262017 24:-0.205755 25:0.553704 26:-0.244485 27:0.0862661 28:-0.290377 29:-0.17651 30:0.300893 
0.98918519772314317 1:0.560754 2:0.173463 3:0.21342 4:0.0607895 5:0.228712 6:-0.161711 7:-0.192431 8:0.0710315 9:-0.333439 10:-0.193669 11:-0.134651 12:0.222704 13:0.218998 14:0.225164 15:0.231095 16:-0.118111 17:-0.218828 18:0.29943 19:-0.238471 20:0.601605 21:0.0865126 22:0.011384 23:-0.371487 24:-0.215477 25:0.327031 26:-0.230537 27:0.0896423 28:-0.200117 29:0.046595 30:0.00478316 
0.98914996726025339 1:0.507251 2:0.0461316 3:0.22349 4:-0.0210718 5:0.16866 6:0.0472279 7:-0.195554 8:0.00267121 9:-0.142465 10:-0.237779 11:-0.211931 12:0.132637 13:0.399391 14:0.0272933 15:0.324327 16:0.0828937 17:-0.0955927 18:0.295248 19:-0.122203 20:0.430314 21:0.199538 22:0.078611 23:-0.361877 24:-0.203551 25:0.487483 26:-0.140631 27:0.0659371 28:-0.0663482 29:-0.0197408 30:0.172819 
0.98915063810388659 1:0.578902 2:0.0343669 3:0.323761 4:-0.0226836 5:0.166233 6:-0.0339511 7:-0.399537 8:0.295084 9:-0.445817 10:-0.169723 11:0.0931076 12:-0.129672 13:-0.0693297 14:0.364553 15:0.13906 16:0.0432102 17:-0.13483 18:0.169968 19:-0.22962 20:0.411511 21:0.123693 22:-0.0829391 23:-0.350952 24:-0.00603015 25:0.390922 26:-0.370234 27:0.023319 28:-0.256051 29:-0.159195 30:0.154579 
0.98923966649877326 1:0.555674 2:0.399942 3:0.176931 4:0.0994477 5:0.146767 6:0.094164 7:-0.024389 8:0.117812 9:-0.322871 10:-0.227167 11:-0.0672027 12:0.116119 13:0.259445 14:0.169649 15:0.278282 16:0.00336599 17:-0.19921 18:0.267438 19:-0.0101081 20:0.442376 21:0.1775 22:-0.123754 23:-0.351632 24:-0.00515913 25:0.349656 26:-0.314719 27:0.0580687 28:-0.289522 29:-0.0440254 30:0.116097 
0.9890988581932828 1:0.473314 2:0.0559838 3:0.377091 4:0.0318265 5:0.190682 6:0.0974763 7:0.00391047 8:0.0810571 9:-0.0867775 10:-0.26659 11:-0.201129 12:0.0463433 13:0.159484 14:0.426501 15:0.151345 16:0.0514946 17:-0.149252 18:0.257571 19:-0.214182 20:0.562944 21:0.0868067 22:0.134071 23:-0.264275 24:-0.389146 25:0.330772 26:-0.100738 27:0.245446 28:-0.225345 29:0.0230383 30:0.00580357 
0.98907611399841244 1:0.351004 2:0.192495 3:-0.00500799 4:0.0192555 5:0.287486 6:-0.0130087 7:-0.272961 8:0.137721 9:-0.221494 10:-0.227702 11:-0.0194277 12:0.100665 13:0.0949966 14:0.195017 15:0.011851 16:0.0324391 17:-0.0731288 18:0.391426 19:-0.10872 20:0.510686 21:0.15696 22:-0.00941117 23:-0.403083 24:-0.223276 25:0.294085 26:-0.266257 27:0.0486409 28:-0.250586 29:0.0394817 30:0.0162628 
0.98908553292490897 1:0.460369 2:0.179252 3:0.294118 4:0.0164042 5:0.235273 6:0.0129416 7:-0.13822 8:0.126155 9:-0.11734 10:-0.0581269 11:-0.0135832 12:-0.00556513 13:0.150217 14:0.239207 15:0.176254 16:0.137905 17:-0.100944 18:0.373516 19:-0.0369625 20:0.413758 21:0.156332 22:-0.140161 23:-0.490571 24:-0.143317 25:0.294911 26:-0.104182 27:0.117592 28:-0.196019 29:-0.00594431 30:0.134915 
0.98911993408427978 1:0.504781 2:0.343842 3:0.251311 4:-0.00854981 5:0.33092 6:0.0421017 7:-0.155014 8:0.092873 9:-0.434627 10:-0.115434 11:-0.163966 12:0.140936 13:0.272038 14:0.26205 15:0.306877 16:0.0323738 17:-0.0630404 18:0.207717 19:-0.000402313 20:0.591286 21:0.186126 22:0.0698037 23:-0.270213 24:-0.265621 25:0.35317 26:-0.163059 27:0.112384 28:-0.310775 29:-0.0157761 30:0.182341 
0.98907486647386667 1:0.427173 2:0.162585 3:0.261593 4:0.127838 5:0.131009 6:-0.0292192 7:-0.203077 8:0.0322819 9:-0.30721 10:-0.0782024 11:-0.0751189 12:0.157177 13:0.074543 14:0.136297 15:0.213705 16:-0.0763125 17:-0.117871 18:0.202619 19:0.031129 20:0.614859 21:0.15055 22:0.148465 23:-0.397779 24:-0.388141 25:0.307447 26:-0.226232 27:0.26309 28:-0.214963 29:-0.0370003 30:-0.00267857 
0.98910783596478902 1:0.466859 2:-0.0334396 3:-0.01252 4:-0.152424 5:0.334937 6:0.0867508 7:-0.344585 8:0.174709 9:-0.362945 10:-0.189818 11:-0.0930996 12:0.213937 13:0.166636 14:0.329502 15:0.21396 16:0.0652097 17:-0.132166 18:0.257267 19:-0.00940407 20:0.57285 21:0.120244 22:0.057071 23:-0.292196 24:-0.309662 25:0.38439 26:-0.280484 27:0.15279 28:-0.247591 29:0.0660601 30:-0.0121173 
0.98937088934623074 1:0.494064 2:0.273602 3:0.121044 4:0.0340479 5:0.194915 6:0.142114 7:-0.132802 8:0.17397 9:-0.407284 10:-0.148663 11:-0.20927 12:0.161625 13:0.220244 14:0.410589 15:0.175716 16:-0.137302 17:-0.133538 18:0.205195 19:-0.21217 20:0.617657 21:0.184029 22:0.17695 23:-0.304995 24:-0.134003 25:0.352985 26:-0.246371 27:0.11454 28:-0.127229 29:0.00709126 30:0.196735 
0.98899997603308654 1:0.412741 2:-0.0177919 3:0.213458 4:-0.00693393 5:0.267985 6:0.0537263 7:-0.310574 8:0.126064 9:-0.16474 10:-0.311202 11:-0.104901 12:0.122664 13:0.219269 14:0.327067 15:0.371405 16:-0.00571414 17:-0.12385 18:0.282306 19:-0.116057 20:0.487255 21:0.157494 22:0.025083 23:-0.270893 24:-0.158861 25:0.330041 26:-0.194339 27:0.0890749 28:-0.310616 29:0.00259719 30:0.177213 
0.98906361207458071 1:0.399099 2:-0.0679803 3:0.136175 4:-0.0844754 5:0.0107261 6:0.112106 7:-0.171783 8:0.141421 9:-0.332014 10:-0.213325 11:-0.102729 12:0.173233 13:0.118808 14:0.284349 15:0.176244 16:-0.0934941 17:-0.161167 18:0.310158 19:-0.0515615 20:0.447053 21:0.148269 22:-0.0811273 23:-0.254415 24:-0.167102 25:0.40248 26:-0.210656 27:0.221555 28:-0.264618 29:0.01319 30:0.142614 
0.98934305239984943 1:0.477624 2:0.0955375 3:0.38082 4:-0.115934 5:0.204891 6:-0.106664 7:-0.178235 8:0.122086 9:-0.394458 10:-0.232734 11:-0.121681 12:0.185132 13:0.185592 14:0.2388 15:0.172933 16:0.12846 17:-0.0921339 18:0.230805 19:0.0672366 20:0.409264 21:0.225882 22:0.111223 23:-0.255399 24:-0.134874 25:0.42696 26:-0.225273 27:0.0593467 28:-0.189968 29:-0.166308 30:0.0448342 
0.98907483153226827 1:0.397091 2:0.0175022 3:0.2939 4:-0.0385109 5:0.262542 6:-0.0332808 7:-0.122151 8:0.162205 9:-0.28824 10:-0.24018 11:-0.0409915 12:0.182339 13:0.323697 14:0.188618 15:0.229095 16:-0.158503 17:-0.12761 18:0.274623 19:-0.122369 20:0.663884 21:0.162092 22:0.180272 23:-0.273608 24:-0.253863 25:0.308823 26:-0.164875 27:0.183166 28:-0.246387 29:-0.0326606 30:0.117449 
0.98913320097120383 1:0.519009 2:0.062011 3:0.220288 4:-0.0433627 5:0.156566 6:0.0878155 7:-0.10584 8:0.044058 9:-0.211454 10:-0.23732 11:-0.053164 12:0.203891 13:0.0988084 14:0.26077 15:0.286871 16:-0.0398493 17:-0.15887 18:0.168237 19:-0.0651748 20:0.419674 21:0.203866 22:0.0952189 23:-0.32087 24:-0.257628 25:0.257654 26:-0.233879 27:0.2 28:-0.245614 29:0.0148001 30:0.0761862 
0.98942517441091471 1:0.508521 2:5.79542e-05 3:0.192062 4:0.0231745 5:0.294681 6:0.00205047 7:-0.174798 8:0.063717 9:-0.331222 10:-0.278399 11:-0.172995 12:0.084659 13:0.267434 14:0.170159 15:0.278554 16:-0.0192766 17:-0.206416 18:0.27461 19:-0.0533769 20:0.374364 21:0.163269 22:0.0552592 23:-0.231324 24:-0.127772 25:0.476125 26:-0.192275 27:0.147878 28:-0.2225 29:0.0247036 30:0.0193878 
0.98890588901562038 1:0.513027 2:0.177485 3:0.184497 4:-0.00124508 5:0.243836 6:0.0181033 7:-0.0657577 8:0.0757999 9:-0.317361 10:-0.148434 11:-0.0686215 12:0.0813593 13:0.16058 14:0.294281 15:0.328404 16:0.0017885 17:-0.176151 18:0.213812 19:-0.0888006 20:0.472369 21:0.20042 22:0.000116759 23:-0.16709 24:-0.114439 25:0.393794 26:-0.264125 27:0.162661 28:-0.223317 29:-0.019818 30:0.162136 
0.98916945469379147 1:0.437112 2:0.100603 3:0.205605 4:-0.0143465 5:0.322313 6:0.00465694 7:-0.151613 8:0.0151179 9:-0.161837 10:-0.19878 11:-0.0996788 12:0.133002 13:0.145139 14:0.304853 15:0.234183 16:-0.135644 17:-0.170195 18:0.263193 19:-0.0530802 20:0.489768 21:0.0965546 22:0.0784097 23:-0.154397 24:-0.00616415 25:0.335909 26:-0.246002 27:-0.0371006 28:-0.269804 29:-0.00614833 30:0.0452806 
0.98909695766901262 1:0.515363 2:0.0980238 3:0.146564 4:-0.0356556 5:0.252558 6:0.0216747 7:-0.244559 8:0.0464109 9:-0.223056 10:-0.273151 11:-0.0940697 12:0.146929 13:0.251253 14:0.235096 15:0.181419 16:0.0490329 17:-0.0803347 18:0.229673 19:-0.00950465 20:0.458514 21:0.129181 22:-0.0396376 23:-0.223935 24:-0.358258 25:0.408017 26:-0.096966 27:0.142055 28:-0.116826 29:-0.00893852 30:0.254719 
0.9889247718746933 1:0.570995 2:0.120997 3:0.144699 4:0.0454081 5:0.398985 6:0.117508 7:-0.0674556 8:0.00318272 9:-0.201636 10:-0.219557 11:-0.145143 12:0.1813 13:0.00440081 14:0.308505 15:0.159147 16:-0.0436875 17:-0.222827 18:0.237246 19:-0.287201 20:0.377849 21:0.153318 22:0.102567 23:-0.286974 24:-0.198774 25:0.386626 26:-0.138171 27:0.124115 28:-0.162473 29:-0.0288929 30:0.317347 
0.98917846585982039 1:0.484429 2:0.168038 3:0.211657 4:-0.08018 5:0.25303 6:0.00650631 7:-0.237366 8:0.116272 9:-0.239499 10:-0.140659 11:-0.11942 12:0.240384 13:0.137861 14:0.284003 15:0.131557 16:0.0120271 17:-0.088066 18:0.0859979 19:-0.0346995 20:0.475946 21:0.116101 22:0.052159 23:-0.253699 24:-0.412931 25:0.292906 26:-0.168376 27:0.14288 28:-0.19974 29:-0.0530962 30:0.14845 
0.98907010317441779 1:0.38431 2:0.0365112 3:0.21959 4:0.011442 5:0.195952 6:0.0686514 7:-0.158837 8:0.180335 9:-0.276316 10:-0.20971 11:-0.105889 12:0.150042 13:0.203243 14:0.263675 15:0.0857298 16:-0.0778196 17:-0.0661553 18:0.370771 19:-0.0573648 20:0.42582 21:0.152931 22:0.0103775 23:-0.12942 24:-0.393635 25:0.349931 26:-0.249241 27:0.168622 28:-0.235228 29:-0.0765757 30:0.193871 
0.98964193879478879 1:0.443888 2:0.162637 3:0.235285 4:0.0257231 5:0.391437 6:0.0791009 7:-0.100798 8:0.0965666 9:-0.260253 10:-0.278104 11:-0.0302701 12:0.162763 13:0.247326 14:0.25332 15:0.2281 16:0.022326 17:-0.166495 18:0.284152 19:-0.0744129 20:0.526801 21:0.143311 22:-0.0477604 23:-0.287709 24:-0.421173 25:0.336479 26:-0.24961 27:-0.0521698 28:-0.288105 29:0.0168845 30:0.132068 
0.98967966341796854 1:0.45905 2:0.129829 3:0.214134 4:-0.0328779 5:0.215034 6:0.0864353 7:-0.184094 8:0.137374 9:-0.119187 10:-0.134755 11:-0.121403 12:0.185605 13:0.262085 14:0.235153 15:0.0465887 16:0.0999749 17:-0.12912 18:0.220346 19:-0.146653 20:0.521605 21:0.148437 22:-0.0322849 23:-0.335494 24:-0.279605 25:0.456475 26:-0.16679 27:0.041011 28:-0.229029 29:0.0829887 30:0.00618622 
0.98938296480988597 1:0.452057 2:0.063344 3:0.246506 4:-0.00414645 5:0.28753 6:0.0461593 7:-0.217633 8:0.0600909 9:-0.288224 10:-0.242939 11:-0.0969839 12:0.196932 13:0.19348 14:0.251961 15:0.269638 16:0.0243055 17:-0.144807 18:0.170391 19:-0.130807 20:0.566292 21:0.147689 22:-0.0293206 23:-0.28393 24:-0.211491 25:0.387856 26:-0.197076 27:0.0902384 28:-0.241916 29:-0.231817 30:0.0223852 
0.98843055570233251 1:0.376608 2:0.175167 3:0.280362 4:0.0255962 5:0.205941 6:0.0190418 7:-0.177541 8:0.0997061 9:-0.158142 10:-0.186787 11:-0.147723 12:0.160172 13:0.17457 14:0.278675 15:0.294482 16:-0.0503592 17:-0.238401 18:0.201436 19:-0.0940759 20:0.513286 21:0.170504 22:6.89482e-05 23:-0.296546 24:-0.203243 25:0.397398 26:-0.212706 27:0.113557 28:-0.213238 29:-0.149655 30:0.198131 
0.98991810709013883 1:0.429939 2:0.183164 3:0.316729 4:0.0586214 5:0.156124 6:-0.0113841 7:-0.306303 8:0.0722933 9:-0.245653 10:-0.219774 11:-0.0777952 12:0.139182 13:0.185044 14:0.240776 15:0.223322 16:-0.0439638 17:0.0278475 18:0.262944 19:-0.169776 20:0.491933 21:0.122197 22:0.0216054 23:-0.281396 24:-0.25555 25:0.376793 26:-0.260804 27:0.0889986 28:-0.260372 29:0.0399228 30:0.250191 
0.98922698941330311 1:0.447411 2:0.162996 3:0.24372 4:0.00512579 5:0.201669 6:0.0319243 7:-0.257371 8:0.0870475 9:-0.22113 10:-0.290766 11:-0.133902 12:0.10983 13:0.179384 14:0.284462 15:0.239793 16:0.0363929 17:-0.0691771 18:0.186948 19:-0.114735 20:0.540624 21:0.145092 22:-0.0136789 23:-0.269483 24:-0.346935 25:0.352832 26:-0.163329 27:0.0268956 28:-0.283556 29:0.0319272 30:0.032398 
0.99033338731558507 1:0.511307 2:0.239988 3:0.282643 4:-0.0125711 5:0.178106 6:-0.0109188 7:-0.213419 8:0.104466 9:-0.269216 10:-0.228348 11:-0.126231 12:0.183398 13:0.185951 14:0.249254 15:0.206712 16:0.0807837 17:-0.100023 18:0.13774 19:-0.174453 20:0.431736 21:0.159141 22:-0.0100403 23:-0.241387 24:-0.279611 25:0.378723 26:-0.204813 27:0.121278 28:-0.176062 29:0.00416873 30:0.0288265 
0.99210825301324002 1:0.489365 2:0.17971 3:0.213367 4:-0.0254326 5:0.272518 6:0.032705 7:-0.139028 8:0.107116 9:-0.255044 10:-0.232711 11:-0.0844982 12:0.186644 13:0.0765064 14:0.253074 15:0.345964 16:0.0621452 17:-0.0970618 18:0.240389 19:-0.171285 20:0.491034 21:0.158784 22:0.013377 23:-0.210109 24:-0.201414 25:0.363517 26:-0.186392 27:0.184835 28:-0.290048 29:-0.0580425 30:0.157334 
0.99372208096169923 1:0.432138 2:0.133718 3:0.208237 4:-0.0976887 5:0.259117 6:0.0533991 7:-0.163813 8:0.091867 9:-0.21346 10:-0.177638 11:-0.0936114 12:0.157978 13:0.177691 14:0.276625 15:0.0814895 16:-0.0672695 17:-0.074198 18:0.200845 19:-0.140085 20:0.513988 21:0.173332 22:0.0496578 23:-0.208477 24:-0.190131 25:0.382841 26:-0.162817 27:0.0656938 28:-0.212229 29:0.00169837 30:0.0947895 
1 1:0.423392 2:0.0783541 3:0.29659 4:0.0244017 5:0.248908 6:0.0525355 7:-0.220391 8:0.101029 9:-0.320834 10:-0.174118 11:-0.0478839 12:0.142285 13:0.280298 14:0.265023 15:0.215896 16:-0.0137754 17:-0.0583914 18:0.298881 19:-0.122977 20:0.537464 21:0.180076 22:0.0121792 23:-0.227924 24:-0.227618 25:0.418746 26:-0.195554 27:0.066619 28:-0.321125 29:0.00164875 30:0.0803316 
0.99056043025928264 1:0.545432 2:0.183732 3:0.269275 4:-0.0695848 5:0.249901 6:0.0601932 7:-0.23255 8:0.0867633 9:-0.311359 10:-0.293062 11:-0.0792745 12:0.145683 13:0.185599 14:0.26081 15:0.198385 16:0.0229992 17:-0.166481 18:0.223189 19:-0.125979 20:0.516813 21:0.165483 22:-0.0139356 23:-0.347053 24:-0.300938 25:0.356094 26:-0.146125 27:0.0346209 28:-0.230165 29:-0.0855804 30:0.174305 
0.99293644888175814 1:0.415158 2:0.260446 3:0.301119 4:-0.0390018 5:0.250801 6:0.013403 7:-0.17822 8:0.129508 9:-0.303003 10:-0.191055 11:-0.0968984 12:0.147112 13:0.224076 14:0.231523 15:0.202042 16:-0.0698819 17:-0.196188 18:0.21426 19:-0.0290671 20:0.506579 21:0.16205 22:-0.0269451 23:-0.335267 24:-0.358191 25:0.393904 26:-0.183682 27:0.0950792 28:-0.270207 29:0.0227461 30:0.118744 
0.99093144306115233 1:0.567431 2:0.0747609 3:0.240954 4:0.0171732 5:0.207473 6:0.0122713 7:-0.221888 8:0.0896618 9:-0.277086 10:-0.183592 11:-0.105812 12:0.155848 13:0.163791 14:0.254331 15:0.196477 16:-0.0430093 17:-0.180474 18:0.231709 19:-0.0723259 20:0.473891 21:0.151241 22:-0.0230398 23:-0.234859 24:-0.261628 25:0.367435 26:-0.226851 27:-0.0491655 28:-0.255908 29:-0.0258109 30:0.0495536 
0.98810723448592708 1:0.400492 2:0.178088 3:0.25788 4:-0.147638 5:0.237652 6:0.000603312 7:-0.190512 8:0.0889457 9:-0.277524 10:-0.206408 11:-0.106018 12:0.168579 13:0.164095 14:0.242894 15:0.238157 16:0.0152575 17:-0.220502 18:0.240114 19:-0.106673 20:0.537514 21:0.156031 22:-0.00485153 23:-0.303246 24:-0.320402 25:0.371818 26:-0.227913 27:0.077506 28:-0.248902 29:-0.0999173 30:0.215944 
0.98915702240923664 1:0.47431 2:0.238308 3:0.204667 4:-0.0670076 5:0.190567 6:0.0204602 7:-0.156162 8:-0.036374 9:-0.287564 10:-0.248909 11:0.0112455 12:0.0734794 13:0.144983 14:0.358437 15:0.263441 16:0.0350565 17:-0.227057 18:0.200169 19:-0.121941 20:0.574914 21:0.16716 22:0.0230297 23:-0.143427 24:-0.243785 25:0.360225 26:-0.231029 27:0.118274 28:-0.142357 29:-0.0882272 30:0.0654337 
-1 1:0.0730029 2:0.932194 3:0.094406 4:-0.466967 5:0.606003 6:-0.211909 7:-0.772575 8:-0.226087 9:-0.14009 10:1 11:-0.0988476 12:0.582418 13:0.776168 14:0.354587 15:-0.20212 16:1 17:-0.786146 18:0.256735 19:-0.482726 20:0.278743 21:0.0991597 22:0.367589 23:-1 24:0.526298 25:0.367233 26:0.772448 27:0.19628 28:-0.626911 29:-0.965261 30:0.251722 
-1 1:0.151741 2:0.665372 3:0.644539 4:-0.944365 5:1 6:0.216916 7:0.0236172 8:-0.678886 9:0.593032 10:-0.24001 11:-0.219387 12:0.0749077 13:-0.232972 14:1 15:0.462734 16:0.408691 17:-0.334914 18:-0.23548 19:-1 20:0.808714 21:-0.113193 22:0.274333 23:0.0122393 24:0.654941 25:-0.136176 26:-0.295367 27:-0.53505 28:-0.684554 29:0.147781 30:0.893495 
-1 1:0.303605 2:0.331672 3:0.197549 4:-0.472694 5:0.28294 6:0.24586 7:-0.103473 8:0.302586 9:-0.305194 10:-0.284566 11:-0.519146 12:0.0554051 13:1 14:0.691053 15:0.314379 16:0.190806 17:0.0264528 18:-0.102936 19:-0.129314 20:0.686953 21:-0.141303 22:0.164066 23:-0.49116 24:0.0154774 25:0.367547 26:-0.450923 27:0.152074 28:0.138376 29:0.0140392 30:0.229592 
-1 1:0.37247 2:-0.168705 3:0.839105 4:0.119656 5:0.117237 6:0.349566 7:-0.120967 8:-0.292072 9:-1 10:-0.257012 11:-0.418218 12:-0.138291 13:-0.83954 14:0.734598 15:-0.033433 16:-0.410048 17:-0.161827 18:0.297571 19:0.791803 20:0.776703 21:0.0540336 22:-1 23:-0.433908 24:-0.766633 25:0.409668 26:-0.190148 27:-0.0639008 28:0.269745 29:-0.116625 30:0.439031 
-1 1:0.142196 2:0.289887 3:0.625253 4:-0.0590305 5:0.48806 6:0.0886435 7:-0.0373553 8:-0.153055 9:-0.475482 10:-0.393702 11:-0.187626 12:0.203841 13:0.303318 14:-0.0139864 15:0.0668116 16:-0.344587 17:-0.0406323 18:-0.0150792 19:-0.12952 20:0.00343958 21:0.0323109 22:0.2539 23:-0.509927 24:0.159129 25:0.166123 26:-0.610496 27:0.0609442 28:-0.52224 29:-0.434574 30:0.33986 
-1 1:0.545924 2:0.246132 3:-0.205487 4:0.242054 5:0.3435 6:0.145505 7:-0.247131 8:0.302529 9:0.265769 10:-0.288699 11:-0.434663 12:0.0416154 13:-0.624915 14:0.124519 15:0.130035 16:-0.037056 17:0.0734542 18:-0.0591341 19:-0.0703395 20:0.576382 21:0.403067 22:-0.0880221 23:-0.7 24:-0.269494 25:0.360313 26:-0.178946 27:-0.219599 28:-0.223864 29:-0.090488 30:0.178348 
-1 1:0.655428 2:0.442828 3:0.198924 4:0.0547351 5:0.484882 6:-0.0921136 7:-0.137875 8:0.73572 9:-0.456638 10:-0.276267 11:-0.117082 12:0.209751 13:0.165982 14:0.264298 15:0.0672465 16:0.0307159 17:-0.0503022 18:0.260059 19:-0.0703797 20:0.419124 21:0.224496 22:-0.144087 23:-0.633001 24:0.260168 25:0.474985 26:-0.259492 27:-0.216595 28:-0.2363 29:-0.0494127 30:-0.269196 
-1 1:0.6322 2:0.184555 3:0.65903 4:0.299939 5:0.426528 6:-0.153983 7:-0.428094 8:0.243308 9:-0.271704 10:-0.513302 11:0.17231 12:0.19735 13:-0.0384563 14:0.312967 15:0.483284 16:0.0415473 17:-0.0922966 18:0.160507 19:-0.250339 20:0.487209 21:0.627311 22:-0.0336789 23:-0.131188 24:-0.191189 25:0.413284 26:-0.513612 27:-0.151693 28:-0.480732 29:-0.0838489 30:0.470536 
-1 1:0.330356 2:-0.049377 3:0.0160895 4:0.161587 5:0.251746 6:-0.0824921 7:-0.318549 8:-0.135152 9:0.399842 10:-0.313203 11:0.0752519 12:0.0617089 13:0.133866 14:0.43171 15:0.0151672 16:0.124491 17:-0.0973222 18:0.233842 19:0.17395 20:0.51939 21:0.218403 22:0.184197 23:-0.181052 24:-0.249345 25:0.422126 26:-0.278188 27:-0.0902241 28:0.000849257 29:-0.0875655 30:0.323469 
-1 1:0.280459 2:-0.0294407 3:0.121204 4:-0.152424 5:0.418009 6:-0.0855678 7:-0.142537 8:0.191816 9:-0.218052 10:0.00410038 11:-0.224305 12:0.188466 13:-0.0611374 14:0.167044 15:-0.0967654 16:-0.0888721 17:-0.105374 18:0.264621 19:-0.0341463 20:0.301169 21:0.229748 22:-0.100805 23:-0.248903 24:-0.0827471 25:0.395893 26:-0.312792 27:-0.144826 28:-0.347293 29:-0.130135 30:0.153444 
-1 1:0.464769 2:0.454187 3:-0.0206713 4:-0.134751 5:0.370735 6:0.00782729 7:0.0541806 8:0.172208 9:-0.42048 10:-0.0904379 11:0.0424829 12:0.206846 13:-0.138321 14:0.194281 15:0.267845 16:-0.123034 17:-0.130023 18:0.345639 19:0.00060347 20:0.75845 21:0.155318 22:0.181429 23:-0.507797 24:-0.874506 25:0.354117 26:-0.236818 27:0.211779 28:-0.536518 29:-0.0341781 30:0.271492 
-1 1:0.372224 2:0.0748189 3:0.0909963 4:0.122724 5:0.361377 6:0.185528 7:-0.330538 8:0.322535 9:-0.259356 10:-0.358143 11:-0.219146 12:0.334203 13:0.588016 14:0.397961 15:0.0742593 16:-0.0927908 17:-0.205346 18:0.182133 19:-0.0157405 20:0.422013 21:0.357017 22:0.26608 23:-0.363101 24:-0.186767 25:0.298526 26:-0.186269 27:0.346304 28:-0.450902 29:-0.147615 30:0.295408 
-1 1:0.468057 2:0.288206 3:0.0548215 4:0.0154674 5:-0.00882807 6:0.0032571 7:0.123077 8:-0.0151179 9:-0.0501979 10:-0.164212 11:-0.140427 12:-0.0171879 13:0.0631686 14:-0.0236693 15:0.0798043 16:0.0478272 17:-0.134124 18:0.269394 19:-0.0255469 20:0.768402 21:0.380504 22:0.265375 23:-0.328753 24:-0.231497 25:0.336502 26:-0.00582206 27:-0.0548402 28:-0.176274 29:-0.097491 30:0.236352 
-1 1:0.388857 2:0.0376702 3:0.502983 4:-0.0480671 5:0.10885 6:0.0861199 7:-0.257782 8:-0.0223359 9:-0.254838 10:-0.110841 11:0.0324869 12:0.163482 13:0.234259 14:0.289105 15:0.227616 16:-0.0345692 17:-0.198977 18:0.462809 19:-0.191652 20:0.373263 21:0.438193 22:0.0886764 23:-0.276115 24:-0.420637 25:0.540853 26:-0.455802 27:0.0412971 28:-0.283609 29:-0.0737028 30:0.0413265 
-1 1:0.573085 2:0.192918 3:0.35008 4:-0.0389323 5:0.228993 6:-0.079377 7:-0.359557 8:0.100311 9:-0.155028 10:0.0215844 11:0.00322451 12:0.149538 13:0.192471 14:0.199587 15:0.103615 16:-0.0211203 17:-0.080967 18:0.106272 19:-0.0899824 20:0.640128 21:0.0964706 22:-0.102164 23:-0.374887 24:-0.185246 25:0.406288 26:-0.188385 27:0.0657225 28:-0.221624 29:-0.12225 30:-0.00491071 
-1 1:0.442642 2:0.12328 3:0.223213 4:-0.01865 5:0.133436 6:0.0798502 7:-0.139347 8:0.10607 9:-0.149644 10:-0.241178 11:-0.000362757 12:0.128584 13:0.23128 14:0.207814 15:0.324164 16:-0.00208942 17:0.0124593 18:0.141415 19:0.053558 20:0.527957 21:0.176059 22:-0.320584 23:-0.234633 24:-0.197729 25:0.273217 26:-0.370521 27:0.296137 28:-0.410138 29:-0.0452881 30:0.153131 
-1 1:0.489439 2:0.0238771 3:0.0647842 4:-0.0367273 5:0.256456 6:0.133951 7:-0.11824 8:0.300483 9:-0.0584851 10:-0.178832 11:-0.248085 12:0.213199 13:0.339133 14:0.211048 15:0.126991 16:0.0623964 17:-0.0291027 18:0.143485 19:-0.108715 20:0.526599 21:0.0723529 22:0.241671 23:-0.254968 24:0.0852931 25:0.321713 26:-0.314801 27:0.229995 28:-0.18604 29:0.0417425 30:0.0920472 
-1 1:0.426104 2:0.0281078 3:0.203042 4:0.156842 5:0.389495 6:0.0594992 7:-0.0542321 8:0.172947 9:-0.273369 10:-0.117172 11:-0.219065 12:0.122837 13:0.237102 14:0.440713 15:-0.0532753 16:0.166893 17:-0.11391 18:0.157086 19:-0.0436007 20:0.403027 21:0.269034 22:0.139456 23:-0.438758 24:-0.609112 25:0.395465 26:-0.0907339 27:-0.0602766 28:-0.334342 29:-0.0737469 30:-0.148597 
-1 1:0.630807 2:0.265604 3:0.379542 4:-0.00255349 5:0.152019 6:-0.00398265 7:-0.240082 8:0.0266553 9:-0.27339 10:-0.108348 11:-0.191052 12:0.0907166 13:0.206608 14:0.373046 15:0.232976 16:0.223713 17:-0.0249186 18:0.244317 19:0.155796 20:0.623985 21:0.162445 22:0.0174233 23:-0.27151 24:-0.299571 25:0.298683 26:-0.233526 27:0.17711 28:-0.496178 29:0.127764 30:-0.129974 
-1 1:0.468737 2:0.101478 3:0.596803 4:-0.161015 5:0.258676 6:0.0319361 7:-0.256753 8:0.239386 9:-0.283046 10:-0.250189 11:-0.0423216 12:-0.000886481 13:0.26283 14:0.131653 15:0.0639304 16:0.150716 17:-0.0485821 18:0.262163 19:-0.0955363 20:0.511841 21:0.174189 22:-0.0391948 23:-0.193518 24:-0.349682 25:0.290627 26:-0.251456 27:-0.0287554 28:-0.291725 29:0.0732837 30:0.294579 
-1 1:0.492827 2:0.362967 3:0.190836 4:0.0171569 5:0.178062 6:0.00889196 7:-0.2078 8:0.198863 9:-0.205859 10:-0.26249 11:-0.149254 12:0.237971 13:0.0892349 14:0.138505 15:0.335472 16:-0.0435117 17:-0.161051 18:0.177656 19:-0.067478 20:0.557258 21:0.288067 22:0.0658782 23:-0.388305 24:-0.256998 25:0.409236 26:-0.0768348 27:-0.142871 28:-0.156369 29:0.00082713 30:0.121888 
-1 1:0.409914 2:0.151817 3:0.253729 4:0.0494171 5:0.198905 6:0.0983438 7:-0.281451 8:0.105678 9:-0.287084 10:-0.158898 11:-0.237203 12:0.13932 13:-0.0282329 14:0.266161 15:-0.097146 16:-0.00687315 17:-0.0933519 18:0.230847 19:-0.0469701 20:0.393075 21:0.146097 22:0.124761 23:-0.285348 24:-0.293742 25:0.382727 26:-0.332226 27:-0.0152122 28:-0.155679 29:-0.0548111 30:0.0711735 
-1 1:0.420811 2:0.0223124 3:0.193767 4:-0.147638 5:0.258685 6:0.0371215 7:-0.0691536 8:0.287411 9:-0.150066 10:-0.285649 11:-0.0301894 12:0.217237 13:0.0990724 14:0.325991 15:0.0893177 16:0.0439086 17:-0.173547 18:0.223003 19:-0.305255 20:0.566705 21:0.221429 22:0.117967 23:-0.379374 24:-0.586131 25:0.400063 26:-0.211328 27:0.178636 28:-0.374894 29:0.0509512 30:0.177213 
-1 1:0.447911 2:-0.116546 3:0.0621204 4:-0.0132706 5:0.444229 6:0.0081112 7:-0.334139 8:0.0181302 9:-0.376722 10:-0.186705 11:-0.100451 12:0.308939 13:-0.00101557 14:0.37299 15:0.112748 16:0.165637 17:-0.134551 18:0.222661 19:-0.133186 20:0.591745 21:0.263025 22:0.0263412 23:-0.148187 24:-0.479732 25:0.370289 26:-0.0886019 27:0.0436338 28:-0.2319 29:-0.105321 30:0.159917 
-1 1:0.461274 2:0.180023 3:0.339638 4:0.00322765 5:0.263695 6:0.0641562 7:-0.205444 8:0.296277 9:-0.354447 10:-0.117369 11:-0.0685852 12:0.113115 13:0.0779282 14:0.167157 15:0.17932 16:0.0350264 17:-0.0111576 18:0.182598 19:-0.195122 20:0.578078 21:0.108487 22:-0.044006 23:-0.221487 24:-0.0324958 25:0.362389 26:-0.122304 27:0.0667907 28:-0.232038 29:0.129804 30:0.0535077 
-1 1:0.561122 2:0.150496 3:0.195035 4:-0.020675 5:0.431075 6:0.0133084 7:-0.136347 8:0.0117079 9:-0.276297 10:-0.254519 11:-0.0575977 12:0.195804 13:0.303859 14:0.413307 15:0.156825 16:0.13474 17:-0.0599721 18:0.263185 19:-0.183354 20:0.472213 21:-0.0626471 22:-0.139406 23:-0.322044 24:-0.00998325 25:0.329754 26:-0.199582 27:-0.0982833 28:-0.352229 29:0.180976 30:-0.0288903 
-1 1:0.437591 2:0.00689655 3:0.137826 4:0.11622 5:0.151357 6:0.135528 7:-0.0738873 8:0.108173 9:-0.270595 10:-0.228053 11:-0.11129 12:0.128422 13:0.337373 14:0.231512 15:0.0966023 16:0.0445114 17:-0.12473 18:0.251502 19:-0.146673 20:0.625911 21:0.0932773 22:0.151485 23:-0.324723 24:-0.166901 25:0.422205 26:-0.095859 27:0.0401526 28:-0.523355 29:0.0679901 30:0.281633 
-1 1:0.504568 2:0.1714 3:0.188652 4:-0.0354387 5:0.294549 6:0.00706625 7:-0.250116 8:0.0670418 9:-0.215941 10:-0.244875 11:-0.193067 12:0.0762374 13:0.145227 14:0.450283 15:0.268551 16:-0.0739513 17:0.0123199 18:0.315649 19:-0.19125 20:0.386563 21:0.130777 22:-0.0852038 23:-0.356936 24:-0.305997 25:0.344555 26:-0.127757 27:0.196853 28:-0.129034 29:0.0312104 30:0.114707 
-1 1:0.553994 2:-0.0138511 3:0.0907299 4:0.0399673 5:0.261143 6:0.0279862 7:-0.107023 8:0.0933788 9:-0.36664 10:-0.0677054 11:-0.255341 12:0.0970204 13:0.182566 14:0.211937 15:0.308943 16:-0.0147249 17:-0.0292422 18:0.279105 19:-0.185114 20:0.413804 21:0.269454 22:-0.089079 23:-0.19932 24:0.0111893 25:0.375197 26:-0.109717 27:0.125284 28:-0.34655 29:0.0157761 30:0.116582 
-1 1:0.568128 2:0.130183 3:0.224251 4:0.0097116 5:0.389362 6:0.0202559 7:-0.145799 8:0.0712532 9:-0.264967 10:-0.275283 11:-0.11102 12:0.211377 13:0.286594 14:0.213386 15:0.369829 16:0.0651093 17:-0.147796 18:0.229014 19:0.0755846 20:0.470796 21:0.191345 22:-0.0365526 23:-0.298087 24:-0.365963 25:0.313107 26:-0.191342 27:0.0150215 28:-0.0786624 29:-0.0253218 30:0.0886798 
-1 1:0.386686 2:0.176708 3:0.252009 4:0.0627122 5:0.264825 6:-0.0542192 7:-0.338667 8:0.258085 9:-0.412088 10:-0.220105 11:-0.0469569 12:0.17505 13:0.112668 14:0.0127973 15:0.377657 16:0.0633007 17:0.0493259 18:0.30623 19:-0.214584 20:0.593213 21:0.226471 22:0.0925516 23:-0.402539 24:-0.0626466 25:0.326327 26:-0.233952 27:0.161087 28:-0.174735 29:-0.0306463 30:0.231441 
-1 1:0.441196 2:0.172999 3:0.328556 4:-0.0904479 5:0.33657 6:-0.00253549 7:-0.27718 8:0.0533788 9:-0.231602 10:-0.157815 11:-0.149617 12:0.119355 13:0.129397 14:0.24714 15:0.29932 16:-0.0661643 17:-0.227662 18:0.242378 19:-0.107538 20:0.458757 21:0.304034 22:0.0757423 23:-0.275068 24:-0.180235 25:0.335905 26:-0.160549 27:0.199905 28:-0.210202 29:-0.163661 30:0.143342 
-1 1:0.469516 2:0.158644 3:0.266958 4:-0.108652 5:0.189128 6:0.0809148 7:-0.202475 8:0.142472 9:-0.164846 10:-0.14699 11:-0.0533253 12:0.269047 13:0.163932 14:0.273137 15:0.288067 16:0.153127 17:-0.169307 18:0.261385 19:-0.124104 20:0.392249 21:0.13066 22:0.0703573 23:-0.129193 24:-0.490184 25:0.317587 26:-0.235715 27:0.173629 28:-0.187473 29:-0.049308 30:0.158916 
-1 1:0.47744 2:0.315503 3:0.255381 4:-0.053876 5:0.260697 6:-0.043336 7:-0.125392 8:0.0172208 9:-0.378147 10:-0.251074 11:-0.0111649 12:0.0169909 13:0.124617 14:0.218069 15:0.261756 16:0.057473 17:-0.0398884 18:0.127476 19:-0.176264 20:0.453199 21:0.241933 22:0.0259235 23:-0.24621 24:-0.479263 25:0.347137 26:-0.0533415 27:0.149928 28:-0.176964 29:0.0390405 30:0.0825128 
-1 1:0.405817 2:0.110513 3:0.279393 4:-0.00378155 5:0.422026 6:0.0156703 7:-0.171881 8:0.0409207 9:-0.227337 10:-0.222096 11:-0.192301 12:0.179621 13:-0.0593094 14:0.190544 15:0.214841 16:0.11997 17:-0.0806741 18:0.191848 19:-0.15122 20:0.582986 21:0.322983 22:0.0601409 23:-0.26549 24:-0.298111 25:0.384779 26:-0.223633 27:0.016309 28:-0.272091 29:-0.100579 30:0.0652423 
-1 1:0.398402 2:0.34448 3:0.421204 4:-0.0776846 5:0.241342 6:-0.0193612 7:-0.167775 8:0.109599 9:-0.296078 10:-0.284173 11:-0.223942 12:0.123827 13:0.407448 14:0.221285 15:0.195836 16:0.0280784 17:-0.21762 18:0.245974 19:-0.107734 20:0.530731 21:0.195933 22:0.130549 23:-0.191206 24:-0.251847 25:0.359784 26:-0.187286 27:0.0242728 28:-0.0270701 29:-0.00289495 30:0.139269 
-1 1:0.419377 2:0.242133 3:0.210687 4:-0.0463899 5:0.181814 6:0.0932571 7:-0.254695 8:0.221142 9:-0.421378 10:-0.112154 11:-0.000564289 12:0.0952475 13:0.143656 14:0.32769 15:0.222109 16:-0.00800653 17:-0.0663412 18:0.112017 19:-0.16173 20:0.582481 21:0.141466 22:0.0651736 23:-0.270009 24:-0.14928 25:0.375649 26:-0.102829 27:-0.0096805 28:-0.198323 29:-0.0945134 30:0.180319 
-1 1:0.357026 2:0.202666 3:0.229845 4:0.0557169 5:0.258274 6:-0.0429811 7:-0.131104 8:0.0853311 9:-0.442966 10:-0.215814 11:-0.09852 12:0.197577 13:0.306703 14:0.282627 15:0.251003 16:-0.0280382 17:-0.0953371 18:0.21486 19:-0.0233342 20:0.545673 21:0.0779832 22:0.0285707 23:-0.261165 24:-0.372864 25:0.273806 26:-0.275769 27:0.127783 28:-0.142834 29:-0.0488889 30:-0.00299745 
-1 1:0.498075 2:0.133973 3:0.39691 4:0.111311 5:0.27032 6:0.0701893 7:-0.120813 8:0.0696107 9:-0.239736 10:-0.16782 11:-0.161467 12:0.165777 13:0.325118 14:0.185277 15:0.151454 16:-0.0593821 17:-0.121925 18:0.285056 19:-0.175258 20:0.484141 21:0.28937 22:-0.0653246 23:-0.224433 24:-0.257648 25:0.363736 26:-0.137228 27:0.0746829 28:-0.284299 29:0.0636339 30:0.102232 
-1 1:0.425903 2:0.145263 3:0.201774 4:-0.104398 5:0.220627 6:0.0497397 7:-0.173383 8:-0.0707587 9:-0.369332 10:-0.232101 11:-0.0469569 12:0.127289 13:0.182519 14:0.38137 15:0.351943 16:0.055162 17:-0.129529 18:0.259337 19:0.0161931 20:0.33607 21:0.242857 22:0.148314 23:-0.327493 24:-0.187558 25:0.308194 26:-0.189631 27:0.0278016 28:-0.252252 29:-0.155059 30:0.150281 
-1 1:0.534822 2:0.0539554 3:0.192381 4:-0.0197014 5:0.220644 6:-0.0795741 7:-0.230579 8:0.0902359 9:-0.307575 10:-0.237202 11:-0.104538 12:0.141177 13:0.125267 14:0.220362 15:0.239239 16:-0.0138709 17:-0.0415621 18:0.170517 19:-0.115836 20:0.453657 21:0.107101 22:0.0978359 23:-0.214823 24:-0.16134 25:0.421733 26:-0.190816 27:0.128603 28:-0.151115 29:-0.0533995 30:-0.00255102 
-1 1:0.421467 2:0.107024 3:0.177091 4:-0.0734301 5:0.171794 6:0.100473 7:-0.270286 8:0.0993718 9:-0.317419 10:-0.230582 11:-0.167231 12:0.0983502 13:0.145471 14:0.19128 15:0.282251 16:0.0972118 17:-0.187448 18:0.300697 19:-0.00905205 20:0.404127 21:0.0980672 22:0.0221691 23:-0.298001 24:-0.212637 25:0.401505 26:-0.118942 27:0.124325 28:-0.195541 29:-0.0886683 30:0.190261 
-1 1:0.530152 2:0.108131 3:0.266004 4:0.0408263 5:0.201713 6:0.0110844 7:-0.179784 8:0.0512248 9:-0.158036 10:-0.177917 11:-0.0638896 12:0.181674 13:0.15441 14:0.337939 15:0.220946 16:-0.0540065 17:-0.147959 18:0.270564 19:-0.188886 20:0.364549 21:0.17955 22:0.0575742 23:-0.238441 24:-0.107538 25:0.378699 26:-0.253998 27:0.141459 28:-0.28439 29:-0.0399338 30:0.239923 
-1 1:0.438255 2:0.12 3:0.24706 4:0.00845572 5:0.109071 6:-0.0779574 7:-0.203988 8:0.165217 9:-0.283183 10:-0.126095 11:-0.0501008 12:0.306427 13:0.228307 14:0.298516 15:0.227442 16:-0.0788747 17:-0.161604 18:0.223024 19:-0.109625 20:0.452465 21:0.183626 22:-0.00113739 23:-0.204896 24:-0.373534 25:0.395834 26:-0.171595 27:-0.00634239 28:-0.15966 29:0.015936 30:0.155797 
-1 1:0.46811 2:0.141057 3:0.146723 4:0.0174596 5:0.212765 6:-0.0143849 7:-0.213301 8:0.103373 9:-0.178939 10:-0.22906 11:-0.180089 12:0.19113 13:0.226635 14:0.101755 15:0.284914 16:-0.0348757 17:-0.169554 18:0.359789 19:-0.0543173 20:0.599771 21:0.0756723 22:-0.0345043 23:-0.283481 24:-0.413802 25:0.439693 26:-0.185248 27:0.0878255 28:-0.249072 29:-0.116846 30:0.162596 
-1 1:0.527038 2:0.199026 3:0.254481 4:-0.0915525 5:0.245623 6:-0.0313091 7:-0.0818112 8:0.269679 9:-0.282444 10:-0.232646 11:-0.179444 12:0.170904 13:0.08761 14:0.405776 15:0.121881 16:0.0369957 17:-0.213343 18:0.325787 19:-0.151773 20:0.443109 21:0.17455 22:0.0286865 23:-0.327493 24:-0.264181 25:0.374903 26:-0.237802 27:0.197568 28:-0.342622 29:0.0808933 30:0.168348 
-1 1:0.404629 2:0.12488 3:0.155461 4:-0.0148456 5:0.237921 6:0.0528864 7:-0.107435 8:-0.00318272 9:-0.339826 10:-0.219852 11:-0.0622209 12:0.0855454 13:0.201266 14:0.259236 15:0.314651 16:-0.0407134 17:-0.217155 18:0.256963 19:-0.0451094 20:0.491791 21:0.162197 22:0.00558228 23:-0.398595 24:-0.31263 25:0.386386 26:-0.113448 27:0.0970877 28:-0.330414 29:0.066777 30:0.154866 
-1 1:0.423064 2:0.124167 3:0.238439 4:0.0276416 5:0.315736 6:-0.0419558 7:-0.144224 8:0.0981108 9:-0.276213 10:-0.182916 11:-0.0315599 12:0.225856 13:0.159335 14:0.130294 15:0.25159 16:-0.0730972 17:-0.0800093 18:0.250027 19:-0.157405 20:0.372575 21:0.139794 22:0.0884248 23:-0.208024 24:-0.295424 25:0.377104 26:-0.14961 27:0.00844063 28:-0.41449 29:0.00581748 30:0.0778508 
-1 1:0.498296 2:0.0579542 3:0.27585 4:0.008063 5:0.240278 6:-0.000599369 7:-0.275019 8:0.105973 9:-0.251375 10:-0.181975 11:-0.0089077 12:0.0714602 13:0.178835 14:0.307769 15:0.184431 16:-0.110425 17:-0.0800558 18:0.169166 19:-0.0909077 20:0.540014 21:0.190206 22:0.0517111 23:-0.309429 24:-0.388476 25:0.32885 26:-0.0624846 27:0.173438 28:-0.252535 29:-0.0669699 30:0.25963 
-1 1:0.464484 2:0.227296 3:0.378956 4:-0.0143547 5:0.19013 6:0.0673107 7:-0.124518 8:0.0077863 9:-0.275912 10:-0.210741 11:-0.17892 12:0.165329 13:0.00670278 14:0.216886 15:0.174232 16:-0.053685 17:0.00390516 18:0.146103 19:-0.11213 20:0.427104 21:0.130424 22:0.118218 23:-0.214778 24:-0.25742 25:0.331739 26:-0.157077 27:0.201717 28:-0.157537 29:-0.0347505 30:-0.0760842 
-1 1:0.515281 2:0.119339 3:0.26431 4:0.000471262 5:0.348709 6:0.0567705 7:-0.217736 8:0.105752 9:-0.203695 10:-0.23587 11:-0.1195 12:0.117749 13:0.198883 14:0.190317 15:0.186426 16:-0.0406581 17:-0.0998466 18:0.232308 19:0.0261504 20:0.528131 21:0.174622 22:-0.0460393 23:-0.34184 24:-0.296355 25:0.275535 26:-0.216015 27:0.120424 28:-0.280334 29:-0.119879 30:0.0686862 
-1 1:0.456571 2:0.227181 3:0.331913 4:-0.00800573 5:0.274641 6:0.0282137 7:-0.22674 8:0.0236431 9:-0.30816 10:-0.226623 11:-0.0153164 12:0.0928343 13:0.130291 14:0.181597 15:0.0930144 16:0.0638533 17:-0.219944 18:0.28193 19:-0.0358562 20:0.461293 21:0.202185 22:-0.0709612 23:-0.326188 24:-0.195451 25:0.387695 26:-0.181743 27:0.145527 28:-0.193737 29:0.0251392 30:0.0989605 
-1 1:0.504879 2:0.120475 3:0.252422 4:-0.0784619 5:0.206811 6:-0.0132256 7:-0.126782 8:0.174254 9:-0.324782 10:-0.267804 11:-0.0573962 12:0.180177 13:0.0925525 14:0.336183 15:0.201631 16:0.114243 17:-0.158173 18:0.262868 19:-0.156751 20:0.422243 21:0.159466 22:-0.0329039 23:-0.32252 24:-0.173333 25:0.317194 26:-0.171607 27:0.0729185 28:-0.180202 29:-0.0733333 30:0.0927296 
-1 1:0.400164 2:0.239061 3:0.252451 4:-0.0298916 5:0.231934 6:0.0432808 7:0.00514536 8:-0.0325661 9:-0.240602 10:-0.177054 11:-0.103168 12:0.177513 13:0.225193 14:0.369536 15:0.242528 16:0.004843 17:-0.101757 18:0.308933 19:-0.0490822 20:0.524238 21:0.120727 22:-0.0564167 23:-0.242838 24:-0.198606 25:0.407939 26:-0.193764 27:0.184597 28:-0.314331 29:-0.0548553 30:0.0704082 
-1 1:0.493163 2:0.0277601 3:0.203884 4:-0.024189 5:0.219735 6:0.0117114 7:-0.122151 8:0.0780904 9:-0.286334 10:-0.178334 11:-0.13179 12:0.213888 13:0.0859174 14:0.270923 15:0.208784 16:-0.00973122 17:-0.144598 18:0.154931 19:-0.0699774 20:0.555423 21:0.186092 22:0.0462859 23:-0.328305 24:-0.20873 25:0.396887 26:-0.237925 27:0.0480687 28:-0.146868 29:-0.0585277 30:0.107857 
-1 1:0.47705 2:0.0964996 3:0.255589 4:0.0569851 5:0.19367 6:-0.0184937 7:-0.132184 8:0.0493322 9:-0.401478 10:-0.292242 11:-0.154897 12:0.220094 13:0.103575 14:0.246648 15:0.165045 16:-0.0569204 17:-0.0803812 18:0.170771 19:-0.201961 20:0.512873 21:0.0857983 22:0.0553598 23:-0.384633 24:-0.282392 25:0.4753 26:-0.140877 27:0.150215 28:-0.182166 29:-0.0737248 30:0.183878 
